fragment,0,1,2,3,4,5,6,7,8,9,10,11,12,13,14,15,16,17,18,19,20,21,22,23,24,25,26,27,28,29
CC,-0.5582455,-1.4381773,0.09916675,-1.6909636,0.6095273,0.27515143,-0.13126169,-1.3860712,-1.124998,-0.88389015,2.972802,0.5687192,-1.5277731,-1.5216085,-1.2969943,-1.7013483,-0.96789557,0.08226682,2.4722252,-1.6032248,0.8880081,-1.3220271,1.9350237,2.144108,-0.883948,0.212668,0.5721073,0.95408255,-0.4966237,-1.354179
CN,-0.45815057,-1.4836167,0.17589162,-1.5433608,0.74027044,-0.030037155,0.7022702,-1.4552491,-1.184582,-1.250804,2.9534202,0.5239144,-1.4129537,-1.6017846,0.044539582,-1.6570667,-0.32727754,-0.9111858,2.7338266,-1.0847074,0.65065295,-1.3156981,1.5690445,3.0212526,0.2238902,0.34261054,0.7934499,0.1233344,-1.1638438,-1.4642721
C,-0.00049733755,-1.4261161,0.37085614,-1.6662077,0.84133494,0.3787232,-0.13660425,-1.4399217,-0.72460866,-0.0024603852,2.930174,0.82453024,-1.587915,-1.5136814,-1.1336623,-1.6883891,-0.9063947,-0.2761245,2.6384962,-1.63377,0.67304105,-1.3094115,1.8562617,1.8213056,-1.0873975,0.0744353,0.3343424,0.8479425,-0.64463204,-1.4150858
</s>,0.11647662,-1.5856223,4.2478037,0.74434215,-1.7325116,2.5680923,3.697673,0.8340929,3.1052496,5.1307306,0.1504543,0.7555691,0.36429384,1.0699044,-0.21999191,3.1810153,-1.0362282,-1.6474952,-1.3336134,5.3159833,-1.5642774,-1.1039877,-1.1208307,-1.5571663,5.9632697,-1.4342179,-1.6489415,3.0024166,-1.680024,1.8141414
C=O,-1.4423562,-0.57239425,-0.5545693,-1.5811272,3.7767432,0.25051355,-0.3168764,-1.4685153,-1.4580058,-1.7265618,3.3677578,0.46140337,0.93863964,-1.5211165,-1.6167754,-1.5724536,-0.29996496,2.087079,2.239112,-0.7730849,0.75342304,-1.1336145,1.9175855,0.88206214,-1.7168825,0.2414689,1.4882298,-0.56721526,2.2385461,-1.5390846
C1=CC=CC=C1,-1.2416523,-1.0536242,-1.7343398,-1.700267,-1.0176201,-0.53491175,-1.3497467,-1.481794,-1.2587644,-1.5089321,2.0244164,-0.7765541,-1.2761798,-0.0729836,-1.4434953,-1.0938164,-1.3321937,0.31553787,1.2426699,-1.6853365,0.7296898,0.56919944,1.4878334,1.6865338,-0.4759536,-0.6060866,0.63164234,1.7755877,-0.08710868,-1.2646476
CO,-0.3668668,-0.5220943,0.41370302,-1.5974989,0.6576747,-0.03996567,1.4395915,-1.4384625,-1.0626076,0.039997738,2.758027,1.7693012,-1.5297564,-1.613494,-0.87164587,-1.6874945,-0.6037818,-0.7136861,1.7863377,-1.3902451,0.5209257,-1.4860238,1.8689492,1.145199,-1.617234,-0.42915043,0.4501085,-0.11942535,0.95319134,-1.3628917
CF,-0.47302648,-1.390161,0.15212563,-1.578248,0.5669575,0.15785037,-0.5130505,-1.4792624,-1.2061758,-1.4848974,2.8981855,0.6116679,-1.5174202,-1.492059,-1.3687499,-1.6859632,-1.0360197,0.22587875,2.710591,-1.5855156,3.98218,-1.4343674,2.0994823,1.9491223,-1.1045153,-0.5599319,0.63265485,0.6873886,-0.2895934,-1.3254771
N,0.07094226,-1.5989476,-1.2979249,-1.7185901,-0.26596722,0.35160825,-0.3661033,-1.3986802,-1.0465626,-1.593778,2.8043013,3.1151989,0.24805607,-1.6203316,-1.730283,-1.331558,-1.3072037,-0.9929452,4.862208,-1.6277649,0.6298043,-0.688682,0.6036579,4.2608094,-1.5259596,1.1605072,0.666061,4.0114264,1.4491732,-1.3875448
CS,-0.09455439,-1.4221334,-0.27759188,-1.6692449,0.73309076,0.9413161,0.7623784,-1.7029104,0.8592588,0.42533088,2.6386921,-0.024477474,-1.2324104,-1.490604,-1.0716867,-1.7076664,-0.7405309,-0.96148026,1.7936212,-1.5073783,0.9625195,-1.3471127,2.2110436,2.1521318,-0.69309396,-0.763988,-1.673502,1.1018758,-0.73300993,-1.2364249
S,-1.6831083,-1.6802976,0.56247526,1.0138646,-1.1844668,-1.3669869,-1.272249,1.5839006,0.20301786,-1.5510288,0.8680364,0.54884565,-1.6685178,-0.17362529,2.662116,0.29440534,2.3483267,0.61856717,1.7689734,-1.1214368,0.1307675,-0.8315635,-1.3713235,-0.79689264,0.48159,4.357562,0.13546789,3.622889,0.28342843,-1.5732859
O=S,2.717168,0.057017755,-1.3464367,-1.6783183,4.317989,0.39898682,0.08925958,-1.2873819,-0.35981062,0.23365922,0.879243,1.4993138,0.8628091,-1.6974596,-1.350882,-1.448026,-0.68129134,1.0045993,1.366011,-1.6068684,0.2154633,-1.0564857,1.7691288,0.6937452,-1.7508531,-1.5082542,-1.5633906,2.0725121,1.0757824,-1.2999971
C1=C[NH]N=C1,0.9512402,-1.5839391,-1.5705078,-1.6050673,-0.7404422,0.30098024,-0.55249864,-1.4185083,-1.3866245,-1.7415879,2.7370858,0.07042618,-1.219523,-1.4163011,-1.5936368,1.1653473,-0.15242086,-0.92573905,2.2807348,0.6844275,0.52784956,0.60557294,1.7344612,0.27994198,0.92585456,-0.8655094,0.8449622,1.7374637,-1.2709614,-1.6317021
NS,0.5065036,-1.6284446,0.76811653,-1.4885873,0.4591752,1.5784737,1.0941824,-1.6496675,1.2716336,-0.7425857,0.4953195,-1.2982635,-0.31118912,-1.5868084,-1.1148231,-1.4395679,-0.053475104,-0.9261211,1.5977446,0.457459,0.5716216,-0.4018613,2.6532853,1.0827965,2.8712096,-1.399084,-1.7362663,1.9524033,-1.1802757,-0.8996149
C1=CC=NC=C1,-0.28966075,-1.4510055,-1.6389968,-1.6654639,0.001648318,0.1920958,-1.0908,-1.5456889,-1.366809,-1.7366991,2.6069114,-0.77646923,-1.4222571,-0.99229735,-0.84643066,0.03484015,-0.9154372,0.047566433,1.5224562,-1.2259328,0.619192,0.407032,1.3914553,1.5544655,0.5047396,-0.24128604,0.49215457,1.1170528,-1.2192578,-1.4166797
C1CCNCC1,2.0335863,-1.3291645,0.15282345,-0.35495377,0.48004577,-0.88125414,-1.2991209,-1.381337,0.7189379,-1.6255438,-0.49694616,2.0195112,-1.625822,-1.4729313,-1.3299223,-1.6890836,-0.27156705,-1.4534684,2.758488,-1.6841561,0.35192528,0.38887313,0.30838454,2.295975,-1.1359336,4.479154,0.67878604,1.213459,-1.2891092,-1.4321383
CCl,-0.030383384,-1.357146,0.2560458,-1.5100006,0.33216092,0.35015014,-0.49386078,-1.4568509,-1.1076866,-1.439178,2.3707128,0.63908607,-1.5017356,-1.4870477,-1.3654473,-1.6819638,-0.95828927,0.3875882,2.7482128,-1.5700359,3.8432293,-1.4015869,2.1213431,2.0641217,-0.7679621,-0.76297635,0.3992728,0.5786881,-0.37722436,-1.3280405
C1CCNC1,2.4930384,-1.3274485,0.3176089,-0.5734837,0.5582342,-0.42342687,-1.3786486,-1.4141122,0.7306429,-1.6728735,0.23853785,2.3843777,-1.5422724,-1.31657,-1.5265762,-1.692341,-0.46830836,-1.3946656,2.964768,-1.6418533,0.302986,0.52584463,-0.38066715,2.7875745,-0.9750623,4.2325983,0.5976385,0.91014624,-1.3393213,-1.3791606
C1=CSC=C1,-1.0475069,-1.3155993,-1.7273678,-1.7059541,-1.2006046,1.2984338,-1.3816127,-1.7384139,2.243367,-1.4120427,2.0836112,-0.82207096,-0.8687023,-0.60547745,-1.2230833,-1.5357976,-1.5692878,-0.06697877,0.7610119,-1.6428615,0.8987719,-0.15130149,3.165469,2.0223682,-1.0157397,-1.285436,-1.7475214,3.1133482,-0.2777868,-1.1904892
C1=CSC=N1,0.442432,-1.5046039,-1.6755071,-1.6161988,-1.1909149,2.4847372,-0.8218612,-1.7274181,1.9478085,-1.5835627,2.2414906,-0.30498046,-1.025718,-1.4181806,-0.9340353,-0.63050413,-1.3907838,-0.9790162,1.1897799,-1.0277289,0.45415214,-0.043320972,3.7210948,1.5809302,0.034057967,-1.1378121,-1.7441756,2.085965,-1.0887496,-1.4346895
C#N,1.5160158,-1.3561047,0.3764113,-1.6651303,0.5987345,0.4864488,-0.5091657,-1.5819548,-0.9501182,-1.7337636,3.4976363,1.3046055,-1.544589,-1.5131062,-1.2776979,-1.6760399,-0.98926723,0.84607154,4.887365,2.5497265,1.1829957,-1.3983266,2.63206,1.5120622,-0.9917244,-1.1778245,0.9780873,-0.1775734,-0.3625354,3.4833083
C1CNCCN1,2.1714754,-1.386647,0.13375278,0.6561149,0.56886566,-1.072417,-1.2096953,-1.4733146,0.5156069,-1.6763948,-1.0991602,1.7637445,-1.6324203,-1.5566908,1.1504152,-1.700369,0.273041,-1.5355657,3.0439901,-1.6295052,0.17912798,0.11337079,0.740839,2.7758737,-0.4029746,4.79822,-0.14544745,0.7985928,-1.4441949,-1.4125795
C1CC1,0.5729958,-0.7308378,0.33526704,-1.1917467,0.039567877,0.05413725,-1.6046172,-1.5167514,0.5812787,-1.6955241,0.6913006,1.1408502,-1.6139605,-0.7062326,-1.5618092,-1.7146266,-0.8413261,-0.05351681,2.3957338,-1.694045,0.928181,0.17122488,-0.65876055,2.428054,-1.3183253,4.7711487,0.72551584,0.6528343,-0.79214585,-1.2399884
C1COCCN1,1.7758114,1.5925982,0.4889324,0.0057859207,0.8043053,-0.6228944,-0.24542591,-1.5900865,0.38999575,-1.7404099,-0.4698071,3.6908672,-1.5325822,-1.5559996,-1.1364266,-1.648543,0.5195447,-1.5154444,2.5231376,-1.4168218,0.032298014,-0.93346477,-0.9136279,1.7992177,-1.6896416,3.8142319,1.514294,-0.87375885,0.047526706,-1.3833247
C1=COC=C1,-0.8724552,2.0823293,-1.7184302,-1.6867331,-0.20720208,-0.5474385,-1.1621428,-1.7116072,-1.1337029,-1.6253687,1.52603,-1.0552012,-1.1218493,-0.86845905,-1.345303,-1.384255,-0.78393435,-0.7877954,1.2228597,-1.582576,0.6198523,-0.6560181,1.3036835,1.6884612,-1.7154453,-0.8698705,0.26590258,0.2860633,1.4044932,-1.3456736
C1=CN=CN=C1,0.1980332,-1.6262279,-1.1679581,-1.3475529,-0.731106,0.9787141,1.1199281,-1.309483,-1.3504072,-1.7455153,2.6741505,-0.2740338,-1.2647966,-1.1622807,-1.3454357,1.2840948,1.9430655,-0.038210843,2.4517968,1.288353,0.017137144,0.015890427,0.82482797,0.415336,2.508798,-0.4627398,0.6743314,0.21051198,-1.2741989,-1.5653476
C1=CCNC=C1,0.25570908,-0.87217337,-1.7232641,-1.5702461,0.1060326,-1.0136597,-0.55044943,-1.5320276,-0.7113924,-1.5984024,2.7357225,-1.0289819,-0.96627885,-0.5060535,0.80385303,-0.7221623,-1.3745095,-0.4706339,2.1279643,-1.6637205,0.65627307,0.5561396,2.8832476,1.9752461,0.723813,-0.78914434,-0.7317818,0.15303326,-1.6496514,-1.6008171
C1=C[NH]C=C1,-0.8462308,-1.1751951,-1.6434959,-1.6990298,-0.37337968,-1.2946607,-1.0509166,-1.052575,-0.9114947,-1.7081275,3.8025415,1.0350446,-1.2066772,-1.0017618,-1.5338695,-0.61865586,-1.5636462,-0.9774448,1.8270783,-1.2990963,0.834603,0.21768974,1.7767017,2.1839616,-1.1111665,-0.541883,1.7222152,1.7029772,-1.3104268,-1.5203538
C1=CON=C1,0.13421704,0.49437037,-1.6803849,-1.5448054,0.2334736,-0.4089411,0.015146571,-1.638801,-0.48841113,-1.7184521,1.9263831,-0.5602201,-1.3081838,-1.3386587,-1.0728059,0.11810903,0.28960153,-1.1819576,1.3757665,0.034906816,0.17904255,-0.6728298,1.6104904,-0.5441256,-1.6435905,-0.9891989,0.013390191,0.35066882,0.30461365,-1.4088235
C1=C[NH]C=N1,-0.1024859,-1.3503886,-1.4446949,-1.5895556,0.046667673,0.090820394,-1.3894985,-1.2451079,-1.2752582,-1.7435784,2.473947,0.00980043,-1.456528,-1.4485391,-1.0029768,1.1011841,-0.40138787,0.0010687475,2.0396814,0.5048761,0.43044576,0.33266345,1.5647657,1.0826925,0.93330884,0.06736077,0.82895595,1.4624051,-1.6180831,-1.5657253
C1=CNCNC1,3.0628133,0.033736262,-1.159511,-0.23540172,0.8664059,-0.40234062,0.2106528,-1.2602394,-1.2441162,-1.7518151,-0.4367971,-0.6878322,-1.3393033,-0.33424833,0.15277286,-0.94515646,0.23496895,0.1756167,2.7028565,-1.3255221,-0.068654485,0.8564197,1.2429873,3.5901878,2.5947218,1.7673085,0.9911021,-1.2812797,-1.6942139,-1.3999997
C1=NN=C[NH]1,0.7577452,-1.6201272,-1.2292527,-1.4097782,-0.07828204,1.410213,-0.5002608,-1.5483643,-1.495168,-1.7530088,3.0641136,-1.3482094,-1.4438928,-1.4334309,-1.3577901,2.0175076,1.515389,0.16900146,2.6808877,3.2189846,0.30586746,0.2836464,1.9264324,-0.082972586,2.3900628,0.09536428,1.1177021,0.38490447,-1.5687258,-1.6190884
C1=CN=CNC1,1.7713748,-0.94199485,-1.6450155,-1.3192434,0.38877797,0.6147348,-1.0304875,-1.2391788,-1.3669629,-1.5583761,1.7704692,-1.1571116,-1.5420084,-1.3903886,2.2066154,-0.6565146,0.6162054,-0.221689,2.2334456,-0.9795948,-0.023064578,0.093866184,1.6611192,3.2840376,1.5351406,-0.3733781,0.29659224,-1.1635884,-1.7035286,-0.7126529
C1CCCCC1,1.1317211,-0.6537579,-0.21320376,-1.4046375,-0.19985236,0.17336105,-1.6079339,-1.4328591,0.77634054,-1.3623289,-0.24635111,1.8766993,-1.6312703,-1.0323763,-1.6544926,-1.6868831,-1.0869952,-0.24585031,2.9409862,-1.7365776,0.5245312,0.1487179,1.0558814,1.639201,-1.4273763,4.653655,0.6921167,1.9528651,-0.86330754,-1.2457955
C1CCCC1,2.020608,-0.8129466,0.3479625,-1.2218969,0.45473334,0.46750638,-1.5262122,-1.1855327,1.0609838,-1.4906429,-0.7321091,2.5764346,-1.6379864,-1.2779291,-1.6281041,-1.7096088,-0.9514486,-0.26334473,2.9024386,-1.7348925,0.5342214,0.28528404,1.323526,1.9217567,-1.4625487,4.481169,0.4444119,1.4652292,-0.9782705,-1.1786385
CBr,0.0709334,-1.4126639,0.27968767,-1.5651428,0.20953281,0.1405214,0.043058172,-1.5642164,-1.3673983,-1.2234746,1.9505972,0.6026081,-1.5626222,-1.5555758,-1.5219909,-1.6721398,-0.9311669,0.42922965,2.1790226,-1.590398,3.6247396,-1.4770039,1.6362369,2.038456,-0.8551066,-0.39635056,0.9768464,0.9418646,-0.4411954,-1.2363765
C1=N[NH]C=N1,1.3717432,-1.6322635,-1.066304,-1.2870563,0.07052927,1.0864706,0.7009236,-1.630238,-1.401288,-1.7563694,3.320995,0.13675511,-0.8536012,-1.4080118,-1.6652606,2.3948727,2.1735425,0.20383425,3.1222699,3.655729,0.19573586,-0.00747662,1.5717437,-0.64255756,2.988631,0.3184904,1.2722489,0.49743542,-1.6242884,-1.6797512
C1=NCCN1,0.23063803,-1.3413243,0.5864244,-1.2838285,-0.5213558,0.8449493,-1.1597328,-0.6419455,-1.1351413,-1.7500569,2.7521026,-0.33959436,-1.6508266,-1.1777433,-1.1689835,0.74403816,0.46241102,0.82448673,2.4918828,0.817441,0.16218784,0.672441,1.6371821,0.66541755,1.1449683,0.68963385,1.5313805,0.8305936,-1.3856587,-1.5952666
C1CCOC1,1.6042004,2.5057762,0.9850596,-0.6482987,0.360265,-0.4133821,-1.1621827,-1.5989654,0.9389109,-1.6483439,0.06576353,2.907546,-1.634573,-1.4440211,-1.6125146,-1.7068633,0.24365266,-1.0643338,1.7522545,-1.561923,0.27619293,-0.7932825,-1.1624681,0.746931,-1.729663,3.4632745,1.8967748,-1.1398213,0.3662704,-0.9761558
C1=NOC=N1,-1.1815805,0.13846257,-1.265295,-0.9956724,-0.10292781,-0.30844474,1.194508,-1.5834881,-0.954099,-1.7550852,2.2442644,-0.6664014,-1.48709,-1.6281215,-1.0301205,1.3016988,0.68958277,-1.4433532,1.4037899,2.6568043,-0.12366058,-0.7758621,1.3447816,-0.35352904,-1.4652977,0.0748936,0.86133367,-0.43081442,-0.1775778,-1.6254439
C1=CNCC1,1.3716017,-0.73699397,-0.60200036,-1.5999856,0.24976295,-1.0121416,-1.335752,1.6211116,-1.2282232,-1.6921902,1.8974428,1.5788817,-1.6877835,-1.2948214,-1.4455239,-1.4500061,-1.1290556,-0.79657125,2.5940099,-1.5917522,0.86652654,0.58449244,0.5507068,1.2999567,-1.3762004,-0.2436541,3.3612523,0.9708001,-1.3033861,-0.9530631
C1=CCNN=C1,1.9418062,-1.5807743,-1.5614345,-1.0541475,-0.38501492,-0.3607248,1.7474375,-0.8656714,-1.3488834,-1.7216597,2.8498492,-0.062200725,-0.98803294,-1.0836812,-1.552921,0.20864645,0.74795234,-0.56746507,3.184679,-0.075187564,0.024844835,0.6805032,2.0169227,2.8359272,1.9932287,0.20589365,1.678223,0.2734029,-1.5998251,-1.6787319
C=C,-1.4651618,-1.2776238,-1.352828,-1.64496,2.7207139,1.2158493,-0.46234953,-1.378738,-1.1012803,-1.2413768,5.084692,1.8017281,0.11461812,0.12770806,-0.72194666,-1.7073804,0.06216926,3.6220505,3.591972,-1.688581,1.1591095,-1.1354704,1.8573389,3.8073382,0.17451866,-1.15916,0.79189134,-1.4469581,-0.36153987,-0.08429494
C1=CCCC=C1,-1.4325181,-0.8966797,-1.3436737,-1.6519827,0.13555382,-0.35193557,-1.5794731,0.5671801,-0.054046527,-1.6736141,2.6869042,-0.3000444,-1.5899743,0.26384348,-1.1377362,-1.4575583,-1.5716418,0.65030134,1.5140818,-1.7041094,0.59194684,0.6420555,1.5265766,2.1514587,-1.3361669,0.08254715,-0.0833054,1.4954082,0.11907781,-1.3542917
C1=CNCN=C1,0.1299655,-1.3099571,-1.327445,-1.4541236,1.0058359,-0.90741223,0.9576148,-0.9582837,0.058325667,-1.7485338,2.3109002,0.46664864,-1.2577353,-1.3280598,0.3014437,0.5676835,-0.64804876,0.13843256,1.3746204,-0.9793251,-0.032807615,-0.36582372,0.5128324,0.9342823,1.6149862,0.47894529,0.097053,0.28979272,-1.735181,-1.5202967
C1=CCNCC1,3.842108,-1.1415508,-0.41393572,-0.36416802,-0.013227963,0.34731498,-1.3418192,-1.4451649,-0.38618565,-1.7366904,-1.0484904,0.3254837,-1.5720707,-1.0331569,-1.5885416,-1.6811917,-0.7527518,-0.9260992,3.7502327,-1.479115,0.3012847,0.860209,2.4291165,3.9913297,0.25186643,3.5283601,0.5694993,0.19591223,-1.0349736,-0.8502283
C1CCOCC1,1.9168508,2.4201543,1.0047374,-1.0115236,0.18143329,0.037324227,-0.68191016,-1.5044926,1.0066111,-1.6761515,-0.43582758,3.5381696,-1.6096298,-1.381292,-1.6652731,-1.7016573,-0.4036703,-0.93668234,2.0548353,-1.642824,0.08199657,-0.5996521,-0.14305381,0.7154844,-1.6976355,3.0278704,1.1655849,-0.79925495,0.50520724,-0.90858746
C1=C[NH]N=N1,2.1166065,-1.6009779,0.46613982,-1.3927217,-1.0892224,1.6225281,1.2185028,-1.458523,-1.0914917,-1.7553992,3.3297207,0.48774216,-1.1682633,-1.2901394,-1.7398573,1.62326,1.1723696,-0.01548956,2.7393186,3.9732454,0.022932466,0.6280421,1.233312,-0.852136,2.082146,-0.97236073,0.34367615,1.2282908,-0.8515476,-1.6364517
C1=NN=CS1,0.6547124,-1.616941,-1.4642344,-1.457217,-0.92192864,3.1198883,1.334295,-1.7468145,1.5545039,-1.7424828,2.4755797,0.4902869,-0.9358197,-1.3770618,-1.4499103,1.0056059,0.59217566,-0.39960378,1.8891926,1.1983659,0.07247648,-1.1113199,3.240792,0.30691114,1.6490641,0.9765434,-1.7214317,1.5980822,-0.9982696,-1.6844857
C1=NN=N[NH]1,1.035001,-1.6279559,0.2077085,-0.9866996,-0.6197775,1.7788752,2.8267472,-1.7403361,-1.5927374,-1.7576329,3.0702085,-0.4987667,-0.9549163,-1.4359024,-1.6521759,2.9894202,3.561215,-0.20240715,2.6912286,5.619499,0.2139205,-0.3412163,0.9825285,-1.131364,4.062228,0.7568919,0.6506299,0.08336347,-0.99122536,-1.7124935
C1=CCCCC1,2.2622626,-1.2150025,-0.5265757,-1.323145,2.106933,0.13469993,-1.7101092,1.0476977,1.0786098,-1.5558752,0.28038478,1.5347992,-1.6195916,-0.4221046,-1.5754265,-1.7256178,-1.1653109,-0.3798393,2.95082,-1.7359463,0.4989744,0.01363384,2.7355185,2.5756729,-1.5734768,4.258866,1.5519934,0.53271115,-0.5696336,-1.1417376
C1CCC1,-0.56579334,-0.91501516,-0.3884944,-1.4853076,0.38495612,-0.046370804,-1.5177889,-1.4814272,1.4650093,-1.6682391,1.0830184,2.901505,-1.5475439,-0.745584,-1.5396056,-1.6761097,-1.2670815,-1.3310207,2.169188,-1.7302434,0.5727602,-0.16749461,0.29886657,1.55183,-1.469286,4.8751817,0.33914003,1.5536788,-0.7575553,-1.3003237
C1=CNCCC1,2.9883704,-0.5806714,-0.65775865,-1.3439031,0.6416927,0.23092519,-1.5043956,0.7259067,0.019543903,-1.7177159,1.1121241,1.030565,-1.5785502,0.14652318,-1.5992036,-1.6083206,-1.3242626,0.64735925,2.4081779,-1.5610068,0.6898204,1.0918783,1.6949227,2.5486646,-0.09640269,-0.17029063,1.5083942,-0.13760144,-1.5993468,-0.341717
C1CNCNC1,2.4679441,-0.9157175,0.6309005,-0.671928,0.66566926,-0.98816025,-0.039110996,-1.5297747,0.8684189,-1.7390018,1.5519246,1.6274011,-1.6283402,-1.4501917,0.27749965,-1.6163795,-1.3842522,-1.1505438,1.5918989,-1.1916702,0.4536722,1.0522581,0.39390936,3.635226,1.2169704,2.2814062,-0.079501495,-0.220812,-1.7164857,-1.2462691
C1=NCCCN1,1.4994016,-0.7409101,1.4320265,-0.24332684,-0.52866477,1.3220966,0.4330896,-1.5770576,-0.9435158,-1.7476803,3.3571799,0.4402898,-1.6879992,-0.76612973,0.04602186,0.3944575,1.2795461,1.0344348,1.4327976,1.7900331,0.36814928,0.08131239,1.2107978,0.30718252,3.677101,1.3372813,1.2827828,-1.5611557,-1.7147152,-1.6757913
C1CNCN1,1.4898899,-0.777829,0.7372392,0.23384103,1.4553783,-1.4653177,0.61526936,-0.54094017,0.4078425,-1.6962417,0.27772623,1.8151639,-1.6479297,-1.3915082,2.845989,-1.6580545,-0.4438902,-1.6475989,2.7609866,-1.5585643,0.21246128,1.0554348,1.5286678,3.0181901,0.88724476,3.2748356,0.35524973,-0.079416715,-1.5873531,-1.4309564
C#C,-0.10176295,-0.9075423,0.46935904,-1.7145407,-0.022093482,-0.315981,-1.3897624,-1.2369201,0.28892234,-1.0759727,3.0780995,1.832284,-1.5562469,-1.3805226,-1.5353346,-1.7214117,-1.1658622,1.4693773,4.6103387,-1.0122592,1.123513,-1.3742585,2.2566085,0.0306697,-1.5400244,-1.3084936,0.3819085,1.1185563,0.61400634,3.4423661
C1=NN=CO1,0.23053886,0.24384925,-1.46405,-1.0222459,-0.55613184,0.7792218,1.3087453,-1.7142861,-1.2527866,-1.7463444,3.1846685,-1.4016241,-1.4520682,-1.4618027,-1.0321515,1.2183665,1.5624021,-1.3658055,1.5061715,3.5073822,0.18032771,-0.8293658,1.8604233,-0.22589897,-1.2348151,-0.59667206,0.34510654,-1.2397999,0.6049274,-1.6349927
C1=COC=N1,-0.66798353,1.2157793,-1.5963026,-1.5774978,0.9373979,0.20753963,-0.17331344,-1.5051384,-1.2970046,-1.7397947,2.7499588,-1.4367876,-1.4295841,-1.2237211,-1.0118468,0.43223992,0.33816552,-1.173082,2.086234,0.28721544,0.3037406,-0.1852683,2.6397147,1.0208873,-1.6166115,-0.95951533,0.94398105,-0.9759569,1.5053124,-1.5353024
C1=NNCC1,0.82251364,-1.5730178,0.5862352,-1.463084,0.08127942,-0.00032359426,-1.0169541,1.1778046,-0.9366949,-1.7498518,3.193301,0.56454515,-1.6726464,-1.0599873,-1.3330222,-0.36324188,-0.82916605,0.6417666,1.6881644,0.4336277,0.22683045,0.5588147,1.7557677,1.9530171,0.6220014,-0.21901494,1.6848676,1.3037151,-1.171459,-1.56982
C1COCO1,1.7174423,5.425152,0.6086059,-1.0036825,0.51987964,0.520315,0.27371436,-1.7264564,-0.30675185,-1.6198792,-1.1776844,2.4743366,-1.6189858,-1.6727823,-1.4851966,-1.6659985,1.7753531,-1.1112753,2.652617,-1.5687399,0.24901816,-1.1785154,-1.042981,0.30774984,-1.7507813,2.2244236,1.6082222,-1.3946252,1.2427735,-1.072187
C1=CN=CC=N1,0.40613428,-1.568297,-1.2349526,-1.5331984,-0.46918118,0.6452797,1.0761204,-1.0074832,-1.4596558,-1.7431631,1.8898783,-0.21927157,-1.4514649,-1.3684615,-1.3042065,1.3272989,1.647771,-0.37907276,2.2344828,0.6974968,0.16324583,-0.094737984,1.8250456,0.5825722,1.3661764,-0.36734602,1.0899739,1.3418146,-1.2077116,-1.6112878
C1=COCC1,1.1227347,1.745275,-0.34171513,-1.5811576,-0.40953597,0.82936126,-1.0102973,-1.60832,-0.21106435,-1.5979652,1.7949293,0.8949573,-1.6417639,-0.471404,-1.5962131,-1.6656338,-1.2148366,0.5024752,1.2186202,-1.5496094,0.5372273,-0.655187,0.7572111,0.93856525,-1.7102194,-0.5905553,0.055995602,-0.059992466,1.4687394,-0.6659595
C1CNCCNC1,3.5226426,-0.25317332,-0.62067956,0.8500163,-0.11851776,-0.5995081,-0.9047228,-1.7078694,-0.25086528,-1.7523787,-1.6758138,1.511284,-1.4343753,-1.4571705,-1.2687819,-1.5699621,0.40207434,-1.3695463,3.4085023,-1.3874869,-0.027945109,0.54459196,0.48811737,3.4023707,0.57267046,5.2032647,0.04193065,1.1063195,-1.4277248,-1.2938856
C1=NNCN1,0.8892046,-1.4021884,-1.5466468,-0.9269295,-0.3859221,-0.72825485,-0.4028367,-1.2087944,-1.3493792,-1.7574896,0.69658834,-1.488186,-1.2582707,-1.0308776,-0.49196386,1.6413578,0.6793253,-1.0678697,3.2390366,2.9487083,0.48301536,0.6302054,3.127393,1.333721,2.8921154,0.38350454,0.7328245,1.4516999,-1.7183876,-1.6209415
C1CCCNCC1,1.4798263,-0.7194195,-0.26638597,-0.23796794,-0.10156364,-0.9922282,-1.5108833,-1.59622,0.61988425,-1.6933953,-0.77689606,1.5033094,-1.6057326,-1.4167945,-1.4432985,-1.6541637,-0.5232083,-0.7571066,2.7529514,-1.6960909,0.7755032,0.31323647,0.20534639,2.0888908,-1.3571062,5.6820755,0.62017316,1.3114753,-1.2208046,-1.5504862
C1=CSCN1,0.20132327,-1.3466146,-1.7220238,-1.5383896,0.23918548,0.85448456,1.0386833,-1.6914725,2.4868448,-1.6610138,1.72326,-0.7526796,0.1330479,0.6842772,0.6309865,-1.259597,-1.55738,-1.0274562,1.8610196,-1.5735693,0.5306466,-0.9433528,5.113375,1.6320168,1.0093827,-1.1386226,-1.7526674,1.2524242,-1.626152,-1.5758865
C1=NNCCC1,3.617813,0.3768073,1.0340649,-1.053096,0.1636469,1.1385466,0.4452118,-1.5563344,-0.775153,-1.7471027,1.507718,1.5443383,-1.4136392,-1.3867408,-1.7187048,-1.183403,0.5584298,0.24207126,3.0774019,0.35638967,0.310792,0.462285,1.1424963,2.2989223,0.11068467,1.2434149,1.6339393,-0.46422675,-1.3144711,-1.5724891
C1=CCOCC1,3.631652,2.5136878,-0.48296222,-1.1119766,-1.1547415,1.0676457,-0.49515495,-1.6694871,-1.2207462,-1.710742,0.714399,-0.07433593,-1.6104807,0.92007935,-1.6874245,-1.6695677,0.2893964,-0.4428008,2.5288472,-0.50994396,0.54993147,0.462639,1.236296,1.1630642,-1.1751882,0.4268144,0.93562764,-1.5721565,1.7944719,0.2561082
C1COCN1,2.110467,1.4571894,1.0662751,0.28736198,1.468893,0.35854033,0.80801815,-1.5543685,1.1416264,-1.7536197,0.37932393,2.965534,-0.97141045,-1.2643232,-1.4552381,-1.5467491,1.2250566,-1.3594521,2.7178652,-0.5916529,0.35028794,0.15500176,0.52396184,1.3652576,-1.2684492,1.860867,-0.26746196,-1.2939522,-0.35659626,-1.518255
C1COCCO1,2.8810952,5.480396,-0.7173439,-1.4852722,-0.6160048,2.2135475,-1.0096133,-1.7472157,-0.80851775,-1.5940623,-1.388364,0.8069567,-1.6487898,-1.66286,-1.3637782,-1.5936246,1.4539173,-0.5417866,3.521898,-1.6226094,0.66461927,-1.2870688,-0.1889168,0.8703342,-1.7398311,1.5013379,-0.14403234,-1.1054596,0.4219706,-0.01555977
C1=NCCS1,0.6869873,-1.4448986,0.15415876,-1.5418642,-1.554564,3.945342,-0.45689183,-1.7078289,2.6807573,-1.6097885,1.2618936,0.5236122,-1.518866,-1.5045403,-1.6463673,-0.45040715,-0.7797692,-0.12414241,1.839648,-0.93941027,0.18200411,-0.4883494,3.1224437,0.0027413098,0.6046576,0.50875115,-1.7470843,3.0019133,-0.4175172,-1.5416706
C1=CCCN=C1,-0.25819856,-0.72039145,-1.077565,-1.5677301,0.8390208,-0.30249628,0.07877614,0.8524211,-1.196831,-1.743337,2.8623114,-0.016347168,-1.4116051,-0.8432695,-1.6391591,-0.03129496,-0.3200497,-1.4738799,2.1845276,-1.3970505,0.778268,0.4523292,0.9334139,0.69577324,-1.1765426,0.084703796,2.1709766,0.67285067,-0.7782521,-1.6736672
C1=CCCC1,2.5665004,-1.3308529,1.7544591,-0.78033674,1.361975,0.5595031,-1.5924928,1.0039104,0.10438053,-1.6336874,-0.1637387,0.7733735,-1.7105759,0.48728204,-1.6656522,-1.7219685,0.68542475,0.29659843,1.9983702,-1.676909,0.86593205,-0.86487156,0.95396286,2.022306,-1.0869949,4.052001,2.0931253,0.24353947,-0.33909115,-1.3728163
C1CNC1,2.4442625,-1.551174,0.53676915,-0.4796088,0.7134901,-1.2725979,-1.4448242,0.30557993,1.0157964,-1.6274532,-0.44965675,3.1478364,-1.641588,-1.5026202,-1.2026668,-1.7142998,-0.8838292,-1.3879668,2.7477596,-1.6945574,0.553461,0.1449104,1.1839508,1.891915,-1.3793494,3.8551507,1.2908247,1.1293437,-1.3498201,-1.1339895
C1=CSCC1,0.7333931,-1.4812651,-1.379375,-1.5256952,-1.3652971,1.9004034,-1.466875,-1.7234457,1.7961793,-1.0631924,1.8653656,-1.6079586,-1.6148831,0.032806255,-0.31288788,-1.6705395,-1.5201136,-0.25752676,0.5969845,-0.9688727,0.4431758,0.49599406,4.2189865,1.9784704,-0.8574752,-1.318731,-1.7535328,2.2591457,1.8693079,-1.0004853
NN,2.3418162,-1.4740934,-1.7267324,-1.5526761,1.01607,1.4157717,0.65372384,-1.7579595,-1.7166214,-1.6696763,5.764872,-1.4170116,-1.1173494,-1.6891701,0.80599636,-1.5973948,-0.120277934,-0.5919337,3.5906377,1.7812148,1.6867245,-1.0294063,2.2111654,4.8917294,0.55614775,1.3339376,1.2519147,-1.4570874,-0.7326811,-1.3935556
C1CNSC1,2.5860105,-0.4434198,0.8884513,-0.95977396,1.3537604,2.0594008,-1.3459433,-1.7168388,3.4561965,-1.7404313,-1.5351562,0.58635587,-0.8642967,-1.5516349,-1.4003009,-1.7395617,-1.0003793,-0.551332,2.7234342,-1.5575927,0.25252366,0.8461454,2.1734393,3.503105,-0.055234227,1.3516325,-1.752073,1.154497,-1.265588,0.7729867
C1=CNC=CC1,1.1015817,-0.40305623,-1.4456131,-1.6558521,0.7758906,-0.8789208,-0.7418477,1.0215397,-0.7327025,-1.6939899,3.2597868,2.032508,-1.2103649,-0.82306796,-1.6077113,-0.9452907,-1.4704194,-0.72008365,1.8498929,-1.3671358,-0.4208756,0.95711845,1.2789118,2.1805398,-1.5087066,-1.2085353,2.3277895,0.7033069,-1.2838944,-1.0239633
C1CSCCN1,2.8526986,-0.57505214,0.6984073,-0.92387605,-0.8047983,1.7468127,-1.0242678,-1.6215861,3.6237025,-1.693084,-0.68748564,1.7411053,-1.5419155,-1.5647937,-1.5064621,-1.6663481,-1.1619024,-1.1955343,2.450202,-1.5402577,0.7963135,0.52023256,1.998879,2.4841652,0.07466592,1.7775961,-1.7319762,1.8310125,-1.537158,-1.1616405
C1=COCCC1,4.136998,2.7386248,0.40119097,-1.4641978,1.1306356,0.5001715,-0.652094,-0.34437785,-1.0716765,-1.7275879,-0.14416313,1.6539286,-1.5766727,0.11610889,-1.7354349,-1.6963303,-0.86481184,-0.06398584,2.2254503,-1.5095681,0.2728388,0.58121884,2.3978212,2.1065714,-1.712002,0.297997,2.0082095,-1.1382012,2.2919292,-0.5875834
C1=CN=NC=C1,-1.5666922,-1.6785889,-0.06808641,-1.0634544,-1.267538,-0.7814383,1.2005502,2.0955188,0.12289961,-1.592065,1.881851,0.29774255,-1.3586221,-1.1786141,-0.92073494,0.93853664,0.09533615,-0.5872436,0.7145504,0.6305301,-0.4391809,-0.39053154,1.3648167,1.1272403,2.1427057,0.5184247,0.4952529,2.28175,-1.1234425,-1.620731
C=N,-1.2842802,-1.0724673,-1.5122696,-1.2204293,4.0158052,0.15842927,-1.7568568,4.1441464,-1.3125614,-1.6097147,-0.7406234,-1.5735686,1.3200262,-1.386057,2.1615224,0.3985841,-0.93056405,3.9075222,0.99798006,-0.9109325,-0.3730371,1.4803996,0.06111462,4.5233703,-1.6185659,0.033756617,0.8994356,3.4364936,-1.3607653,1.5654738
OS,5.365664,0.2659218,-0.74083614,-1.5817462,-0.49633783,2.337402,-0.50473094,-1.7555913,0.055857267,-1.1352198,-1.6370353,-0.95943046,-1.2711048,-1.6100373,-0.6165384,-1.7463998,-1.1706519,0.13175556,2.0415716,-0.66511506,0.7675073,-1.0605962,4.3083344,1.8106521,-0.048403643,-0.03908176,-1.7534277,1.3233485,2.1797204,3.2227433
C1=NCCNC1,1.9020672,0.29122445,0.8611591,-1.0220314,0.0012851617,0.74077636,1.0009204,-1.4066819,-1.4141005,-1.7539352,1.0004984,-1.2714659,-1.5035694,-1.1614164,-1.630324,0.08005535,1.2194674,2.0157714,2.8626826,1.3447517,-0.28270057,0.7098418,0.8114359,2.0083885,2.1972084,0.3782138,1.353878,-0.3748351,-1.5866325,-1.403574
C1=CN=CCC1,-0.6367793,-1.5384831,-0.21562338,-1.6376199,-0.146317,-0.6151851,0.982468,2.526799,-0.21514533,-1.7061368,3.470444,1.481276,-1.3654503,0.1638826,-1.7125767,-0.61679435,-1.3477755,-0.7571601,0.7880547,-1.367696,0.24560486,0.08727166,1.309252,1.550622,-0.1750515,-1.1641186,1.5864023,1.5795393,-0.49846888,-1.666697
C1=NCCO1,1.6987743,1.5919019,-0.19900575,-1.4463131,-0.18537162,2.7005262,-0.38310876,-1.5782814,-0.9924209,-1.709866,0.7381591,-0.71961063,-1.6524605,-1.5568688,-1.1215767,-0.3491801,1.5741099,0.617229,3.3383896,-0.56889397,-0.0031569302,-0.5078204,1.8838032,0.9411259,-1.5140121,-0.22279307,-0.5081185,-0.07955829,0.04433415,-1.3706449
C1=NC=NCC1,-1.0935144,-1.4910392,3.54597,0.10238736,-1.4934345,1.1871771,0.056538418,-0.684805,-0.71797264,-1.7457322,1.8406764,-0.20286416,-1.7150123,-0.78091186,-1.5677364,0.61961615,1.0849581,2.120776,0.40450725,2.835885,-0.44612372,0.26096722,-0.6841886,0.26387617,4.24908,2.3479977,1.5705214,0.054039575,-1.4850248,-1.446727
C1CNCCOC1,3.5897663,1.4966456,2.7571425,1.3731611,-0.02776204,0.10529,-0.35243198,-1.4343365,-0.41410685,-1.7344007,-1.5062026,3.0476804,-1.6926329,-1.6334002,-1.6677301,-1.6948615,1.5352814,-0.22873628,2.7512856,-0.73491335,-0.0941391,0.0064971168,-0.9342353,2.2419894,-1.5824689,3.866438,2.369186,-1.2383642,0.7443716,-1.041265
C1=CSN=C1,1.0149882,-1.3732779,-1.5230244,-1.595458,0.40202665,2.086972,0.12692574,-1.4635354,2.1728911,-1.7533675,1.0734831,0.76552325,-0.7028332,-0.6039865,-1.609951,0.16257428,-0.8361354,-0.24984275,1.5943949,-0.792692,0.2750051,0.00013970443,2.9888532,0.6564215,0.5747533,-0.687929,-1.7023267,2.0268798,-1.3700168,-1.1529523
C1=NNCS1,-0.29190004,-1.471319,-1.61977,-1.5801008,-1.332813,3.1456,1.9059834,-1.7551658,1.9468912,-1.7338878,3.1553566,-1.2946824,-0.9127821,-0.8079544,-1.6866045,0.06503209,-1.468226,-0.49559048,2.2778451,0.36763304,-0.15673888,-0.894769,3.7233613,1.1300795,1.2405158,-0.36576232,-1.7470587,1.9203333,-1.0507451,-1.5574819
C1=CSN=N1,1.8667555,-1.268331,-1.4603176,-1.5042713,-0.6260116,2.7361627,0.5777797,-1.6512593,1.6771806,-1.7488881,1.1589049,0.5757622,-1.2862226,-1.3686724,-1.4630214,1.040244,0.47682324,-0.67998326,1.5955924,0.30150428,-0.0765773,-0.6003495,2.8841674,-0.52943677,0.7010261,0.046688996,-1.6936361,1.3337412,-1.5187364,-1.5656788
C1=CNCN1,1.9744647,-0.4647964,-1.5892848,-0.80817235,2.7620323,-1.617221,1.7845265,0.038819764,-1.3267231,-1.7542489,2.6324706,1.5429165,-1.0841951,0.59408677,2.3703659,-0.8974541,0.11398594,-1.5598385,3.6646302,-1.3063152,0.35105684,0.9178883,3.0886397,1.5349175,0.7238626,0.7174761,2.6736443,-1.531567,-1.5467173,-1.6202141
C1CC2CCC1C2,1.0466305,-1.2061379,1.398736,-0.7048302,1.4102278,-0.03015913,-1.51553,-1.1283269,3.5188189,-1.7498294,1.276057,6.311662,-1.4987134,-0.6899787,-1.505679,-1.6799577,-1.5440288,-1.1226503,2.1720614,-1.6873,-0.68515676,-0.028243449,0.25719357,1.1534909,-1.2229614,6.8643594,0.14398393,0.7076174,-1.3790169,-1.3358321
C1CSCN1,2.6811576,-0.1409298,-0.95782286,-0.43205723,0.5990027,2.0791197,1.4107747,-1.7516624,2.3646092,-1.6623226,-1.0599848,-1.0148547,-1.0321134,-1.2877467,-0.29020515,-1.7386855,-1.428869,-1.1969519,1.6610811,-1.3549619,-0.6833852,0.41920573,3.6183748,2.7059443,0.2548762,1.0293038,-1.7545335,-0.7859061,-0.97940475,-1.110754
C1=NC=NC=N1,-1.3263357,-1.3108392,0.63102114,-0.0899614,-1.501727,1.1916242,2.7321765,-1.7280995,-1.5565021,-1.7333127,2.0692575,-1.1921036,-1.3626916,-1.2408304,0.13150881,1.8116764,2.8991675,1.203243,1.9963388,4.0657578,-0.9296448,-0.31767902,0.398672,1.1126443,5.731441,1.3380858,0.30716157,-1.1893651,-1.3024422,-1.495357
C1=CNNC1,2.9048765,-0.14206511,-1.5920593,-1.2658257,1.3626481,-0.5521787,-1.2130396,-0.6209777,-0.9642045,-1.7351009,1.1907768,1.1195717,-1.5122312,-1.3567915,-1.2342349,-0.19759883,-0.47864726,-0.5058195,1.9723706,-1.5444659,0.4351667,1.1873802,1.7714096,1.9441328,-0.92845875,-0.23803553,2.30877,0.32063055,-1.7033695,-1.6000389
C1=N[NH]N=N1,1.2138026,-1.6410248,0.7895067,-1.1050094,-0.3339297,1.6695426,2.1467738,-1.6546255,-1.375966,-1.7577014,4.7218018,0.4799492,-0.55537933,-1.3892109,-1.7233764,2.4387136,2.6383963,0.53003496,2.6540685,5.6102376,0.36439782,0.16196287,0.7789749,-0.5746683,3.3846962,-0.8697491,0.8151317,0.020630447,-1.1479136,-1.689962
C1CCCCCC1,1.3748974,-0.65675825,0.7389531,-1.2111692,0.8813975,0.5137796,-1.6339391,-1.340906,1.3091861,-1.5630463,-1.0537347,2.517178,-1.5906141,-0.7596782,-1.6445792,-1.7217327,-0.66068995,-0.35110417,3.22902,-1.7422638,0.46500126,-0.06647672,1.5903066,1.8224982,-1.2979702,6.1068916,0.35795233,1.4163564,-0.38642395,-1.457108
C1=COC=CC1,1.7167201,1.29212,-1.5076814,-1.6008682,1.2561642,-0.8978418,-1.0254121,-0.19968301,-1.143482,-1.6979885,2.0288591,0.81195503,-1.4718498,0.13295208,-1.6404926,-1.5495563,-1.2364435,0.23311189,1.0598538,-1.441529,0.5001527,0.26473114,2.3054798,2.1170492,-1.7263635,-0.8198923,2.2672455,-0.8107181,1.8220059,-0.8539804
C1=NOCC1,0.5581772,1.9530969,1.3070709,-1.0915737,0.4902364,-0.47696912,0.37760195,0.47546554,-0.410825,-1.753369,1.8982134,1.1778601,-1.67473,-1.1628562,-1.5167874,-0.54979837,0.6626199,-1.0199924,1.3819432,0.5698739,-0.4383866,-0.36347273,-0.36978546,0.24753621,-1.6965393,-0.5457874,2.1773384,-0.5263898,0.044895824,-1.5627708
C1=CCOC=C1,3.0404358,2.8637877,-1.578589,-1.4241648,-0.7907029,1.0868894,0.06449504,-1.7000035,-0.8282908,-1.6394641,1.5715553,0.4506986,-1.4964906,0.18561083,-1.445667,-1.5508322,-0.28923625,-0.291468,1.0888839,-1.2675484,0.48805004,0.19287865,1.4167923,1.1803235,-1.6431073,-1.4129087,-0.36866784,-1.5452077,1.6896738,-0.2432909
C1=NCCN=C1,-0.30911675,-0.980149,0.7879657,-1.1472123,1.2531767,-0.031553164,1.0130115,1.3265312,-1.5205323,-1.7567899,2.4356596,-1.0101784,-1.4581884,-0.60702133,-1.2938975,0.9101396,1.3499613,0.56658673,2.338489,1.1979661,-0.24527784,0.46920595,0.6294409,1.5138725,1.8032017,0.22274993,2.8165245,-0.44207355,-1.464096,-1.6567923
C1CNN=N1,0.6604895,-1.520557,-1.0732977,-1.3412454,-0.21198043,-0.39969003,1.8685292,-0.7042884,-1.4713578,-1.7548846,3.8917375,-0.5324884,-1.2810595,-1.4822639,-1.2604973,2.7885215,1.8202623,-1.5714475,2.8078923,3.570945,0.8568177,0.3072874,2.7292364,-1.0417376,1.8293415,-1.3025626,1.9696273,0.3805908,-1.09791,-1.7091486
C1=CNCC=N1,1.367091,-0.14101855,-1.4544139,-1.0242815,-0.20450968,-0.49773806,1.8006397,-1.4188057,-1.3442346,-1.7330059,1.365,-1.1530255,-1.1283634,-0.9397348,-0.30586594,0.7493914,1.0280716,-0.8261706,3.1477692,0.6629336,-0.31395432,0.26988176,1.9798144,0.9779897,1.9545494,0.26227558,1.103856,-1.0457011,-1.5451162,-1.4753522
C1=N[NH]N=C1,0.9698453,-1.5645568,0.4141142,-1.5106214,-0.688745,1.5035008,1.596878,-1.5593089,-1.488953,-1.7574517,3.5773025,0.58491546,-1.1759869,-1.3576264,-1.7086887,2.4569006,2.0128481,1.0355117,2.0771937,3.6794791,0.41687146,0.02882775,-0.49435058,-0.32662293,2.811655,-1.1992784,1.1229025,1.0869497,-1.4833872,-1.6479387
C1=CC=NN=C1,0.10681733,-1.6090512,-1.579849,-1.6353158,-0.46296865,0.5411385,0.75094646,-1.0382711,-1.5401809,-1.7400244,3.5121558,-1.1818208,-1.1154641,-1.0479778,-1.3317271,1.7183552,1.0206836,-0.47088036,2.5017233,1.3437656,0.2576863,0.1871,2.4054904,1.5845225,1.9911145,-1.3218372,1.0192662,1.2548659,-1.3017862,-1.6083872
C1=CCNC1,4.205713,-0.56331944,1.1382916,-0.6386028,-0.85025656,1.0927867,-1.3756557,-1.7015378,0.26725364,-1.7501928,-0.8383588,2.47795,-1.6648078,-0.9333169,-1.6414863,-1.6667228,-0.6602802,0.8140176,2.2621038,-1.1607156,0.080445044,0.7201927,0.18798693,1.9997176,0.3566622,2.83211,0.27425894,0.5712934,-1.4757552,0.1083791
C1=CCN=C1,0.008810669,-1.4942199,-1.3314904,-1.6184042,1.5474999,-0.43241856,0.9950182,2.179714,-0.9454003,-1.7515951,3.5581012,1.3026149,-1.3246152,-0.4909427,-1.4653894,0.87658,0.0085227,-0.16279945,1.2571229,-0.3798066,-0.19306967,-0.19833037,1.8558661,0.9592283,-0.19604321,-1.1905955,2.3377273,0.6047099,-1.4661276,-1.6287053
C1=COCCO1,5.8567677,5.742768,-1.5752429,-1.5203112,-0.26265165,2.525306,-0.80581456,-1.716608,-1.5418993,-1.5344404,-1.3622848,0.8653825,-1.6565948,-1.5327106,-1.0367014,-1.4699969,1.8650311,0.37302703,3.7116768,-1.6414955,0.09789893,-0.1850454,0.8523219,1.9753473,-1.7419344,-1.2430845,1.1641788,-1.492729,0.9272009,0.2684104
C1CN=NNC1,2.918225,-0.9693251,1.5512936,-0.11586099,-0.84135777,1.0447391,0.7429608,-1.6748885,-0.9610494,-1.7549019,0.70740396,1.0838917,-1.4360293,-1.5488136,-1.6743004,-0.40585092,1.654193,0.4052319,2.768018,2.5292764,0.15019973,0.46716782,0.22167489,1.7348428,2.5024843,2.1323786,0.9627773,0.31056866,-1.5632037,-1.4776722
C1=NSCC1,2.2933202,-0.7745657,2.2121887,-0.5769562,0.24653035,2.8689075,-0.8108086,-1.6835344,1.8269713,-1.7359043,-1.4939336,-0.5441885,-1.2852855,-1.5086513,-1.5646725,-1.6513823,0.8123234,0.98475826,2.1153078,-0.63141936,-0.43016565,0.8176325,2.4952562,1.7904631,1.5540134,0.5470097,-1.7402442,1.0205431,-0.64998275,-0.940927
C1=NON=C1,1.4585251,0.26484925,0.16830182,-0.9634051,-0.63203996,1.2670821,1.0775332,-1.4547446,-1.3128761,-1.757311,-1.091549,1.040701,-1.5724987,-1.6452271,-1.0019653,2.1778483,3.6339452,1.456332,2.1595192,2.1272511,-0.80218524,-1.3652394,-1.5662633,-0.83120924,0.64921665,0.05564468,0.9505462,1.4409837,-1.7424735,-1.237428
C1C2CC3CC1CC(C2)C3,-1.7045141,-1.7303268,1.2842574,-1.5895479,0.87190443,-1.1802734,-0.9268584,-1.3208101,3.1550121,-1.6085026,7.20187,6.7956986,-1.1127157,1.0283955,-1.6055223,-1.6885575,-1.7215124,-0.840422,0.5574631,-1.737735,0.441516,-0.90581816,-0.9673711,2.2223282,0.6490771,5.489501,0.12042133,1.8360626,-1.4794177,-1.7213117
C1=CNN=CC1,2.5592482,-1.1134691,-1.4021871,-1.4734688,0.2657283,0.057771116,0.79294056,-0.6579711,-1.2658781,-1.7487389,3.2105167,0.25459257,-1.1054027,-0.52408874,-1.6944673,0.14706673,-0.023344057,-0.81984156,2.5569334,0.5266849,0.66840017,0.9986271,2.346382,1.732894,0.57526606,-1.2635735,1.9756479,-0.20516673,-1.0376405,-1.6293272
C1=NN=CNC1,1.8816732,-1.3961205,-0.932149,-0.9157627,-0.9305272,1.582905,-1.1349299,-1.667141,-1.2970465,-1.7529135,4.305196,-1.2959136,-1.6794171,0.7646173,0.2648252,1.7052923,1.1654205,2.120742,1.3781176,3.0274572,0.95906854,0.43018854,1.4727136,0.22000204,5.0271134,0.74005944,1.2414088,-1.4871091,-1.7415873,-1.280595
C1COCCOC1,2.2578018,5.120731,1.5144985,0.14825925,0.042523026,0.99285966,-0.87390465,-1.7380517,-0.16749702,-1.7353425,-1.4780223,1.4756726,-1.6788117,-1.5477036,-1.5955802,-1.6789235,1.6465788,-0.59110004,2.0807235,-1.2641,0.13500138,-0.57220405,-1.1975335,0.2687717,-1.7381148,3.12325,0.9496717,-1.547567,2.185395,-0.85421485
C1=NNCCN1,4.66762,-1.3882145,-1.5246276,0.3761593,0.8185285,0.6958393,-0.682893,-1.6848196,-0.80508626,-1.7441341,0.75797385,-1.0036708,-0.8692361,-1.2708213,-0.93060845,-1.0890278,0.8644804,-0.86774135,3.886618,1.1402221,0.32275882,1.159154,4.1456366,3.367192,2.1996658,1.8732305,-0.39114466,-1.052776,-1.5098227,-1.5225358
C1=NNCO1,4.7763405,1.7485946,-1.4953521,-1.0660727,-0.6060532,2.9924724,0.16227041,-1.7403231,-1.3361982,-1.6994984,0.76379275,-0.99569196,-1.4688578,-1.6165599,-1.1833493,-0.5250596,1.8879328,0.17145821,3.7356625,1.4600301,0.16132215,-0.18637227,1.9867835,2.9913955,-0.7961257,-0.9704181,-0.68553317,-1.2917621,-1.3825959,-0.67086077
C1=COCO1,5.3411946,5.958982,-1.564995,-1.5441062,0.06347137,2.3109477,-0.97536236,-1.7194984,-1.4655697,-1.5093757,-1.5518684,0.8419131,-1.665395,-1.6115505,-0.9236279,-1.5629581,1.3369308,0.6749829,3.2386281,-1.6979429,-0.039885506,-0.3091416,1.1699963,1.8631996,-1.7502812,-1.2448219,0.648512,-1.3785127,1.024298,0.26174766
C1=NSC=N1,0.45917746,-1.5666217,-0.091340974,-1.2875985,-1.4705659,2.996123,-0.2632959,-1.6947263,0.67317766,-1.7467237,0.34933317,-1.5662946,-1.3912053,-1.5805919,-1.1982948,0.611386,0.48632556,0.42411217,1.4348514,2.803275,0.23241158,-0.14705022,3.2487493,0.6318432,3.1462765,-0.7061437,-1.7351801,1.841319,-1.0529118,-1.3501973
C1=CNC=NC1,1.4080982,-0.77161354,-0.9205563,-1.0872048,-0.72970444,2.6622064,-1.10721,-1.6228877,-1.0840112,-1.7514993,0.1961755,-0.5096317,-1.6910523,-1.229414,1.2211812,1.0948101,0.896506,2.7136638,1.4945596,0.2593985,-0.8912626,0.7111974,0.94514394,2.7281475,4.151819,1.4658563,-0.84518594,-0.7120304,-1.7341638,-0.6159241
C1=CNCCN1,4.2100263,-0.3361218,-1.3962531,-0.8935114,1.3456931,-0.42477888,0.24020675,-0.90419865,-0.88599664,-1.747242,1.0948114,0.6512012,-1.2666887,-0.6843521,-0.88553005,-1.3095798,-0.31865096,-1.1329496,3.8745525,-1.2324699,0.108708665,1.3778677,2.865135,2.6284406,0.5287629,0.47676462,1.0969312,-1.2196708,-1.493733,-1.3501607
C1=COCCN1,4.1691422,2.4349868,-0.9911513,-0.47345412,0.88562644,0.41664365,0.33468577,-1.4445765,-0.99379915,-1.7451934,-0.32532352,0.85023206,-1.4810131,-1.1502128,-1.4059098,-1.4340862,0.8393216,-1.2260796,3.1581273,-1.00156,0.3378731,0.5986338,2.0763443,1.0476879,-1.5658841,0.14499055,1.2598947,-1.5144397,0.4313257,-1.3088486
C1=NSCCN1,3.2827852,-1.1921579,1.0488256,0.16150703,0.40086412,2.8132803,-0.7396524,-1.6824892,1.4605025,-1.7525319,-1.4594901,-1.2350366,-1.2068647,-1.2989291,-1.0076716,-1.4878778,0.9799458,0.4650195,3.018048,0.5949948,-0.1660377,1.420002,3.8519838,1.57592,3.0667825,0.6723066,-1.7454773,0.19584897,-1.2069861,-0.7763772
C1CNCOC1,4.3677692,1.4081012,2.461784,0.119801074,-0.15996946,0.62848127,-0.022076087,-1.6027316,0.2492136,-1.7463981,-1.4104116,3.0694797,-1.6512668,-1.5719926,-1.7059025,-1.6941512,0.2711564,0.25911108,2.1139328,-0.5579982,-0.5187654,0.0094917435,-0.7251657,2.1385958,-1.4454933,2.917354,1.003535,-0.23803963,-0.35851654,-0.48073468
C1=NCNCC1,2.6413438,0.4722308,2.4853394,1.2274805,-1.4910705,1.0314215,-0.5091833,-1.5792058,-0.105621144,-1.7425642,-1.614382,1.0686222,-1.7274787,-1.5961173,-1.3497424,-1.2629906,0.89219934,2.8938482,1.2730302,0.090981774,-0.6713903,0.18095338,-1.5132124,2.0751224,2.8997548,3.5587826,0.8843198,0.33340868,-1.7425038,0.26177683
C1=CN=CC1,0.31881496,-1.2067462,-1.4088937,-1.2897015,1.6072898,-1.0295552,0.96530354,1.4939662,-1.4823592,-1.7484607,2.8846607,-0.4735078,-1.339103,0.6815607,-1.3474792,0.654274,1.4324818,-0.19319625,1.6759275,-0.36244798,0.40612864,0.3787902,1.6881821,-0.45789015,0.45455477,-0.95520204,3.254723,-1.2042788,-1.1746645,-1.6497517
C1=NNCNC1,3.2027187,-1.0187984,-0.042135473,-0.0196069,-0.7183308,0.30722383,-0.19975458,-1.67801,-1.369898,-1.7547433,1.3999336,-0.6821734,-1.5612019,-1.1541438,-1.4531007,-0.42409205,0.7342682,1.3959783,2.557416,2.08809,0.22008745,1.083154,1.2020782,2.5753305,3.455558,1.598369,1.7552933,-1.0221132,-1.7111969,-1.4259661
C1CCSNC1,2.7189026,0.010492846,2.0777154,0.025696376,0.5728783,3.2437356,-1.2717384,-1.7301927,3.5665255,-1.7426848,-1.6159954,2.0749264,-1.5214121,-1.3941652,-1.5894837,-1.7269297,-0.3031835,0.4509288,2.3760688,-1.6352193,-0.19596598,0.59777045,0.8667838,2.5164127,0.36291856,3.930736,-1.7440702,1.0597383,-1.3754933,0.42895833
C1COCOC1,2.5553083,4.567183,1.7034842,0.65533113,-0.57218915,0.18863538,0.8091717,-1.7437681,0.3344424,-1.7127495,-1.5206742,3.3185174,-1.6628995,-1.6373234,-1.6934199,-1.6350421,2.14048,-0.7708274,0.8168851,-1.2108502,-0.63920164,-0.6738827,-1.419368,-0.68802047,-1.7357959,3.106613,1.3051785,-1.419675,1.8611969,-1.5170624
C1CC2CNCC1CN2,3.890107,-0.9923308,1.838472,1.468166,0.82889307,-0.08709642,-1.3800706,-1.6521944,2.6868546,-1.7534186,-1.2510848,4.417895,-1.4998089,-1.278014,-1.3529059,-1.717912,-1.0346851,-1.4662985,3.064919,-1.076575,-0.9497659,0.86587733,1.0661429,2.6385005,0.3056387,7.026539,-0.835228,-0.49403003,-1.2032121,-0.92142135
C1CC2CCC1O2,1.7743244,-0.57325256,1.5391684,-0.38063058,0.9770447,-0.18421316,-1.1926212,-1.2488909,3.32578,-1.6852375,1.2659531,6.4869957,-1.529018,-1.169217,-1.578221,-1.7017409,-1.5410107,-0.6197244,1.028763,-1.6798217,-0.49315912,-0.88360137,0.7132604,0.43323827,-1.5868864,5.021683,0.36379763,0.04765272,-1.4360075,-1.5810759
C1=NOCN1,1.8280932,0.079573624,-0.23510632,0.22392547,1.0931102,0.14040342,0.79721874,-1.2188467,-0.4143155,-1.7571594,0.9699468,0.40809464,-1.5009974,-1.4528508,-0.34104225,-0.001317955,1.6913718,-1.2734029,2.9824255,2.0081875,-0.5535962,0.020710237,1.6914434,0.8687911,-1.2639096,0.26753962,0.26575974,-0.7575217,-1.064005,-1.5163838
C1=CNCN=N1,1.6815448,-1.1787207,-0.7481776,-0.81954104,0.065264486,-0.3228713,1.048472,-0.80706304,-0.6742772,-1.7542478,1.5909008,0.19800477,-1.5138768,-1.2545704,0.18554094,1.0816497,0.7063617,-0.47279027,2.1323276,1.5568116,0.11166822,0.07798395,1.3556552,0.95610565,2.9881496,0.7639856,0.9739956,-0.65300554,-1.7328528,-1.4448006
C1CCSCC1,2.698724,-1.0671489,0.82209647,-1.065225,-1.0594993,2.5254443,-1.5286645,-1.6960875,2.9532936,-1.570713,-1.3067865,0.45704022,-1.5866686,-1.408338,-1.6667051,-1.7293346,-1.3835268,0.6445636,2.238158,-1.6751999,0.5743538,0.8012385,2.0195243,2.3685532,-0.27056482,2.0774946,-1.7416707,2.2822366,-0.9131958,-0.3410849
C1=CCNCCC1,4.042056,0.35410708,-1.2158797,-1.1586028,1.0144862,0.13343304,-1.1837718,-0.32298395,0.03202178,-1.7328091,-0.7318826,1.2020795,-1.3972874,-0.4689826,-1.5922236,-1.5870184,-1.2092166,0.014219837,3.5098815,-1.6923013,-0.3892426,0.502776,1.7795845,3.2963357,-1.2926251,2.6110442,1.1815909,-0.35750166,-1.4019526,-0.9749499
C1CNCCSC1,2.7912862,-0.5623301,1.1256497,-0.118482865,-0.70786965,2.0495443,-1.2746608,-1.7232057,2.6569278,-1.6854085,-1.433638,0.7320116,-1.5580263,-1.4209732,-1.5618281,-1.7276611,-1.1384777,0.26373926,2.354013,-1.6185209,0.4010682,0.66323876,1.3665113,2.8695178,0.33655742,3.0942252,-1.731165,1.2612066,-1.3120173,-0.46490005
C1=CCCNCC1,3.61993,-0.663785,0.8405743,-0.37599337,0.741829,0.36202732,-1.6204443,-1.1207863,0.80442643,-1.7017443,-1.3129847,1.4270847,-1.6335344,-0.8072412,-1.6894492,-1.7303549,-0.9089731,0.41403726,3.2338262,-1.6550138,0.31529963,0.5459668,2.0875783,2.5800176,-1.3790357,4.0700703,0.4128251,0.66984946,-0.1888251,-0.93919206
C1=NC=NN=C1,-0.7225376,-1.3845642,0.22935158,-1.0225834,-1.5156678,2.3006775,1.0212287,-1.6583081,-1.2931099,-1.754947,2.9134738,-1.2334754,-1.644664,-1.2363734,-1.5691904,3.0571806,2.3419986,1.8598095,0.81306404,4.305755,0.105413914,0.009250552,0.21868311,-0.74986374,4.1447606,-0.24028781,0.6805315,-0.12018037,-1.6648391,-1.5926486
C1CC2CC1CO2,2.0246313,0.28927946,1.2274666,-0.77770543,0.84603345,0.10544858,-1.0795687,-1.5051767,3.1041803,-1.7189708,1.1648055,6.542054,-1.4790579,-1.3312014,-1.6169393,-1.6804976,-1.437879,-0.66303194,1.368459,-1.5567173,-0.82314175,-0.8020249,0.39100906,0.55055505,-1.6121972,4.726129,0.28885397,0.029052278,-1.2784625,-1.2956179
C1=CCOC1,4.719049,1.6868432,0.56272495,-0.61547583,-0.16321997,1.1111668,-0.99998736,-1.4739962,-0.23102775,-1.7272358,-1.2949959,2.2741773,-1.693849,-1.2678626,-1.5767264,-1.6399285,-0.12954228,1.1468703,0.8401991,-1.1618421,-0.43221515,0.35866162,1.1407236,0.9281914,-1.5101334,0.80837476,0.97011304,-1.1361884,-0.17626151,-0.3013988
C1CNCSC1,3.1030555,-0.29663554,0.10243609,-0.58021164,-1.074023,2.292467,-0.94963807,-1.7527882,3.0115736,-1.6849338,-1.4393345,0.32032686,-1.456104,-1.371784,-1.6253173,-1.729436,-1.4026515,0.6656921,1.6270233,-1.5250092,0.13155425,0.3264235,1.5730134,2.4966078,0.17259383,2.4047418,-1.748771,1.5471711,-1.3260022,-0.049063094
C1=CCCCCC1,3.0387304,-0.9514572,-0.36766386,-1.2491337,1.6161425,0.846758,-1.6935174,0.76029533,0.1623709,-1.6593901,-0.45924133,0.48215896,-1.626403,0.07255978,-1.6796564,-1.7027379,-0.57187885,0.069524266,3.3685083,-1.7218056,0.45977214,0.3427207,2.3597903,3.1194994,-1.4528332,4.327881,1.5470476,0.6301742,0.06561685,-1.1058465
C1NN=NN1,3.3481774,-1.4698725,-0.5461639,0.1526409,0.81473076,1.3746684,0.7076994,-1.6010065,-1.3196177,-1.7575645,2.628065,0.36807102,-0.9476827,-1.1542144,-1.7023965,1.7530764,2.6364236,-0.4310969,3.4027584,3.3507721,0.6443553,0.4880688,1.6892052,1.3500428,2.698773,2.0345914,2.3748477,-0.7682529,-1.6322544,-1.7307429
C1CNNC1,2.3235707,-1.2960163,-0.041539736,0.17073262,0.9590127,-0.3917185,-1.3890611,-1.4654032,1.0864003,-1.748272,1.7732872,1.6460588,-1.4891661,-0.45822278,-1.4665159,-1.60127,-1.1268281,-0.65093434,2.1282704,-1.2756468,1.0364376,1.4990234,0.8539462,2.681265,1.1366577,2.4373884,0.5351823,-0.3559563,-1.6810203,-1.4994447
C1COC1,0.4973331,2.292516,-0.3751784,-1.352349,-0.23642123,-0.60320765,-1.0277125,-1.6519333,0.47299957,-1.7146292,-0.02097484,2.3291378,-1.624336,-1.4973874,-1.5903445,-1.6301572,-0.5192118,-1.152721,0.90858483,-1.4764932,0.20706841,-0.67046046,-0.69997567,0.48422673,-1.7387068,2.2628825,0.96704656,0.24799065,1.1168948,-0.96090055
C1=CC2CCC1C2,2.092536,-0.9500912,0.24763946,-1.1430582,1.0962557,0.17041308,-1.4813296,-0.8726985,2.3867383,-1.7437539,1.3523036,5.2509346,-1.5111095,-0.22178194,-1.5650024,-1.6490867,-1.5323946,-0.74418586,2.129299,-1.6742167,-0.762634,0.124396384,1.0538886,1.4224789,-1.3509045,4.8419538,0.64247227,0.3078007,-1.1756989,-1.2386693
C1NCNCN1,4.08239,0.07752767,0.80709964,0.8105913,2.2782984,-0.61568755,-0.6283988,-1.2956313,-0.49689156,-1.755651,-0.6876576,3.055526,-1.5641165,-1.3381444,-0.26566982,-1.6027538,0.3028359,0.49535108,3.6388116,-1.5550461,-0.030312754,0.89409554,0.7402932,3.7905056,0.80618644,4.64761,2.5396783,-1.3209409,-1.7331835,-1.5026273
C1CCSC1,0.5410595,-1.0147039,1.2977114,-1.0472002,-1.1915025,1.8540801,-1.4642613,-1.7088432,3.0998309,-1.5351862,-1.0766269,0.40822673,-1.6601667,-1.4078879,-1.5411271,-1.7308718,-1.3883961,0.3825578,1.0192876,-1.6625372,0.57855153,0.34011617,1.0262743,1.9530089,-0.78874695,2.3452883,-1.7379929,2.605529,-0.511882,-0.32265532
C1CC2CC1CN2,2.813348,-1.1806378,1.5813102,0.4618298,0.82182986,-0.21250932,-1.5053378,-1.5441042,3.1225703,-1.7512786,-0.51283085,5.249736,-1.4809196,-1.2090623,-1.5391713,-1.7013768,-1.4166102,-1.3291299,2.3479466,-1.4107796,-0.9008545,0.5538524,0.96540874,1.7926444,-0.8608146,6.538563,-0.7707249,0.5599733,-1.0178831,-1.1415064
C1CCNNC1,4.329907,-0.011837074,-0.1659108,0.16334227,0.07100866,0.01199238,-1.0428553,-1.6741066,0.1611764,-1.7472829,-0.3844809,1.8025565,-1.5207464,-1.2789781,-1.6596389,-1.5969924,-0.043362156,-0.8693717,3.489389,-1.0382403,0.50879973,1.1385156,0.9885164,2.8928447,0.57080543,3.5851405,1.324568,-0.22039504,-1.5933561,-1.3304578
C1=NN=CCC1,1.4783051,-1.3752673,-0.15447906,-1.240421,-1.0595647,1.482831,-0.026740538,-1.4696566,-1.0579565,-1.7420758,2.3192105,-0.9079711,-1.5905077,-0.91845316,-1.6803961,0.56575286,1.3054742,0.6395759,1.8528637,1.6800693,0.26310804,0.15575957,1.6708007,0.31985041,1.8599852,0.6955537,0.9968646,0.13973768,-1.1564116,-1.6137497
C1CCCOCC1,2.802841,2.3682008,1.4642988,-0.9335776,-0.05966856,0.6085601,-1.0893239,-1.5532434,0.22512855,-1.6984137,-0.83742946,2.617696,-1.6335695,-1.2032031,-1.7372344,-1.7045345,0.2682897,-0.28974953,2.7537627,-1.6108468,0.21157482,0.072253615,-0.034590844,1.4676007,-1.6775541,3.502671,1.7771071,-0.7563759,1.5706718,-1.0868958
C1=COCN1,2.6985955,2.3209138,-1.3410136,-0.99179995,1.9991363,-1.0363315,0.9342046,-1.311823,-1.0666683,-1.745792,1.4864695,1.2548244,-1.3707465,-0.4995155,-0.48188844,-1.3416154,0.36849877,-1.2802361,2.9099073,-1.1379076,0.16165394,0.045486026,2.1808677,0.5552856,-1.6537852,-0.4105713,2.0785143,-1.6064911,0.20871246,-1.4265794
C1=CSNC1,2.9752574,-1.0719416,0.38150346,-1.0573568,0.39559603,3.175999,-1.000346,-1.6477269,2.2572465,-1.755189,-1.4452615,0.6996236,-1.488626,-0.81482786,-1.302923,-1.4416679,-0.48459476,1.2586263,1.06937,-1.3295655,-0.4353772,0.6047414,1.8392943,2.048209,1.7037953,1.3547539,-1.7393795,1.4971623,-1.6295264,-0.21302457
C1=CCC1,0.44217876,0.27977112,-1.3565097,-1.6083086,1.0100614,-0.8920206,-1.3381311,1.6981734,0.1715439,-1.6764592,1.6416479,1.5530932,-1.623246,0.1278585,-1.301185,-1.4829073,-1.3423468,-0.58584887,1.1626362,-1.7232002,0.60497415,0.10916544,2.0536504,1.3169388,-1.5820752,0.412514,1.9875977,0.52343386,-1.295094,-1.5133619
C1=COCOC1,2.9380987,4.4817944,-0.1095727,-0.8049859,-0.046840686,0.51897836,0.08862093,-1.699648,-1.2496932,-1.7393374,-0.16828956,0.61789554,-1.6302559,-1.0761917,-1.5842782,-1.565727,0.9094219,0.1744543,1.5107888,-0.5325651,0.18965438,-0.21369544,0.08456001,0.8098851,-1.7211729,-0.5111027,1.5743954,-1.6164535,2.0954156,-0.92595136
C1CC2CNCC1O2,2.460189,-0.2556053,1.6398419,0.6231463,0.7345754,-0.49559507,-1.0224907,-1.5053861,3.1614273,-1.7247796,0.33763146,6.428263,-1.528111,-1.3305033,-1.4775121,-1.6841942,-1.4632272,-0.7314099,0.81348306,-1.5892617,-0.6877227,-0.6244001,0.19620964,0.8934341,-1.3868941,5.551365,0.2635366,-0.25784886,-1.61925,-1.5890496
C1CSNCN1,3.1278255,-0.5389169,0.7348776,0.47514006,1.0864775,2.0340357,-0.19796444,-1.7308937,3.0440288,-1.7539955,-1.5075581,1.6725986,-1.2577431,-1.4524717,-0.8101317,-1.6726605,0.0037690916,-1.2937658,2.8336833,-1.4531943,0.07986912,0.9763577,2.0265477,2.2826045,1.0571059,3.396965,-1.7449384,0.47757387,-1.497314,-0.94233507
C1=NCCC1,2.087225,-1.2406341,1.7486101,-0.91125345,-0.9907801,1.3179759,-1.2412447,-1.0060719,-0.65072215,-1.7407665,0.39946717,0.14552528,-1.707659,-0.85362667,-1.6083645,-1.2008452,0.47760797,1.5372143,2.1077068,-0.0024557745,-0.22470677,0.5852793,1.1785858,1.3862073,2.124993,2.3440757,1.0322391,0.49484652,-1.5486037,-1.2644858
C1=NCNN=C1,2.2481318,-1.1188487,-0.34115845,-0.7268914,-0.911862,0.9849757,1.00394,-1.6060582,-1.43984,-1.755241,1.8316182,-1.0648347,-1.518127,-1.263116,-1.5686141,1.3212684,1.7281255,0.8546073,2.2654777,2.8055263,0.12176962,0.5820736,0.992948,0.95701706,3.089402,0.3897604,1.4561687,-0.73017013,-1.6466448,-1.5797534
NO,-0.9513142,1.3648409,-1.7559825,-1.7144799,-1.1729637,-0.14847296,4.4427056,-1.7568716,-1.3080311,-1.7443013,5.6379185,1.9467432,2.1305857,-1.4776077,-1.1247926,1.6432872,-1.1910994,-1.6873306,4.878974,0.42950687,0.5977097,-1.5864049,3.5625303,0.62508565,-1.607663,-1.7244846,-1.2610959,-0.35470185,0.28625154,-1.6615685
C1CC2CNC(C1)C2,-0.65935683,-1.5909302,1.4724301,-1.0750034,1.1140066,-0.6309405,-1.2450486,-1.4945555,2.7960105,-1.7070485,3.6743352,6.40675,-1.3540621,-1.0310041,-1.2884079,-1.7065206,-1.6850553,0.41491622,0.4504533,-1.6981866,-0.69674236,-0.83316517,-1.1115506,2.0961497,-1.069663,4.95056,-0.69563216,1.3660947,-1.662839,-1.5877551
C1=NCC=NN1,2.1063845,-1.57634,-0.8983092,-0.6085759,-0.67343444,1.6421307,-0.7436127,-1.6211181,-1.4489526,-1.7483101,1.9433745,-1.2811261,-1.5837376,-1.2098348,-0.85175675,1.0226939,1.8237342,1.6897144,3.0238626,2.8536487,0.040911186,0.89292985,2.349922,1.3025726,4.288786,1.087621,0.9638079,-0.6202804,-1.673789,-1.3024288
C1=NCNCN1,4.368188,-0.548723,-0.45940775,1.0042071,0.39268562,0.39662358,0.14793761,-1.5028399,-1.5225621,-1.7509644,-0.7943322,-0.4313326,-1.6317456,-1.4590613,1.5757692,-0.16651292,1.9580861,1.0766227,3.482336,0.85975677,-0.65001076,1.3059262,1.4352698,2.517429,3.4028625,2.1626537,1.8421297,-1.508373,-1.7350752,-1.0271288
C1NCC2CNCC1C2,3.7226977,0.15105094,1.5593976,0.7635761,1.3611106,0.083315544,-1.6361228,-1.2811329,2.3022974,-1.7567089,-1.2679234,5.465146,-1.5941974,-1.0210401,-1.5579684,-1.6615962,-1.2077916,-0.046600718,2.7089505,-1.6017517,-0.760316,0.4866332,-0.21673459,2.2209303,-0.7166129,7.4249353,1.570786,-0.25877732,-1.6992927,-1.1893545
C1=CN=NNC1,2.7186902,-1.5060686,-0.49530125,-0.67972124,-0.69326854,1.2291695,0.76501787,-1.6626655,-1.4225926,-1.7503083,2.1057892,-0.62132007,-1.5045252,-1.3783289,-1.4634823,0.6143911,1.8016757,0.55558443,2.4193034,2.8545077,0.38814887,0.09893082,1.374448,1.7234578,3.3023808,0.5887393,1.1702371,-0.6945838,-1.6445673,-1.4748448
C1=NCCSN1,3.3863647,-0.72528446,1.2162893,0.23157291,0.3372434,3.2345977,-0.47154137,-1.6929086,1.912213,-1.7564006,-1.4847789,0.11245242,-1.4963188,-1.2303965,-1.4418839,-1.2060994,1.1135025,0.6768856,2.54045,0.24066716,-0.47346848,0.9740433,2.857593,0.92489696,2.2489855,2.1954324,-1.7284403,0.20879161,-1.4328938,-1.0853435
C1=NC=NCN1,1.0208353,-1.1071646,0.37216347,0.14749193,-1.0852324,0.62004375,0.439836,-1.5047873,-1.3128434,-1.7507327,0.7156639,-1.1549945,-1.6311738,-1.3264309,0.38855675,1.1719003,1.5551759,1.1700988,2.1827462,2.7295077,-0.3584743,0.61489546,1.3366574,1.0170504,4.3899956,1.3871646,0.93801075,-0.8548113,-1.7026367,-1.2875102
C1=COCCCO1,5.0625305,4.673679,-1.3788894,-1.3446668,-0.11196078,2.2109997,-0.68443173,-1.6976573,-1.2900531,-1.5191424,-1.3226573,0.87924385,-1.6411177,-1.4837416,-1.4990313,-1.589113,1.3786167,0.17385809,3.4465644,-1.6237673,-0.072391324,-0.43308166,1.3377138,1.7729833,-1.7409558,0.04832108,0.8270839,-1.4628831,1.5472462,-0.11748766
C1=CSCCC1,2.9241936,-0.663114,-0.71558565,-1.3775829,-0.52103466,2.0320158,-1.3782089,-1.6027327,1.9400641,-1.6136167,-0.89385796,-0.58375186,-1.5619218,-0.42177314,-1.6397879,-1.713041,-1.4416316,0.54441905,1.7912934,-1.6342081,0.43998,0.6318449,3.1859963,2.6471095,-0.85067123,0.5661848,-1.7140493,1.2604116,0.019239519,-0.15937142
C1=CNCCNC1,4.337523,-0.29245156,-0.30849296,-0.5985542,0.27959928,0.33236998,-0.68100923,-1.363599,-1.2439163,-1.7454865,-0.21448472,0.40540946,-1.6185032,-0.74340165,-1.202667,-1.5482838,-0.28471997,0.5144299,3.006582,-1.1453881,0.03347103,1.02129,1.213644,3.621797,1.4435701,1.5674753,1.3058238,-1.1075145,-1.613474,-0.53510386
C1CC2CCC(C1)N2,1.6603234,-1.5273836,1.7500627,-0.86544496,0.34229547,0.39858186,-1.4923476,-1.6000444,2.2601688,-1.685073,2.3066285,5.184883,-1.4119806,-1.033258,-1.6691958,-1.7196882,-1.6214345,0.491261,1.5246288,-1.5923504,-0.49718142,-0.04229811,0.25354493,2.2153387,-1.0132115,4.845362,-0.8424722,1.3980899,-1.0561955,-1.4814162
C1=COCCCN1,4.3077474,2.1027565,-0.9104662,-0.6304548,1.0448693,0.2279547,-0.093520105,-1.2941566,-0.9628671,-1.7314973,-0.062161952,1.1712838,-1.5120798,-0.9298971,-1.4988707,-1.562357,0.5326659,-1.0699906,3.2523143,-1.3404237,0.17254318,0.41873857,1.9778563,1.4999119,-1.6185143,0.82691616,1.759609,-1.4692243,0.5427374,-1.2804943
C1NCNN1,4.9573545,0.94944924,-0.8134993,1.0474688,1.3205765,-0.090673774,-1.2141721,-1.6054963,0.18797575,-1.7577581,-1.1049455,2.5314984,-1.5360488,-1.0909814,-1.4346327,-0.9635066,0.8198206,-0.5640971,3.1522713,-1.047051,0.4438951,1.3784176,1.1450818,2.2750924,1.2320259,4.4878917,2.625333,-1.3336034,-1.7329353,-1.6531851
C1=NCCCNC1,3.5973837,-0.18941875,1.8904561,0.38273185,-0.6440867,1.0130328,-0.9030935,-1.3406776,-0.9339381,-1.746678,-1.1106253,0.4814525,-1.6941801,-1.2786617,-1.5135494,-1.3428266,0.9812117,1.5518696,2.6483388,0.085928306,-0.48544714,0.757302,0.507374,2.2484324,2.0865629,2.9583066,1.4680322,-0.7754822,-1.6253871,-0.9878079
C1=NCNN1,3.131083,-1.3272194,-1.2651345,-0.42829743,1.07864,0.06921158,-0.24033831,-1.502223,-1.070665,-1.756088,1.9539485,-0.34003207,-1.277289,-1.0177113,-0.37176454,0.36916736,0.6419305,0.20764631,2.7456796,1.3125541,0.1578208,1.4327695,2.7234254,2.0230708,2.615415,0.93062186,0.9522067,-0.8428724,-1.7146523,-1.619545
C1=CN=NCC1,1.1292102,-1.3877144,1.0050752,-0.9777485,-0.7462011,0.8870155,0.5977759,-0.64677906,-1.1853578,-1.748592,1.5142446,-0.26320934,-1.621068,-1.2539927,-1.4869701,0.65244496,1.3499335,0.8719862,1.9305944,1.4638807,-0.1954875,0.19314021,0.7711073,0.99546355,2.6440659,0.9219998,1.3884829,0.2665587,-1.5850813,-1.5313903
C1=NCCNCC1,3.5896666,-0.26753983,1.8806295,0.36096114,-0.79701644,1.1858851,-0.88458914,-1.4045485,-0.8881736,-1.7485209,-1.0158057,0.3768622,-1.6900306,-1.2802461,-1.5520092,-1.3244997,0.9090523,1.5719758,2.5857658,0.27313396,-0.47922465,0.84142333,0.44782922,2.310539,2.19833,2.7896624,1.255467,-0.7541999,-1.6108238,-0.98048097
C1=CNSCC1,3.8985076,-0.84023124,0.027132897,-0.94537956,0.75880104,1.8504649,-1.1991689,-1.5716175,1.832485,-1.737483,-1.4410439,-0.52480775,-1.2964616,-1.0646704,-1.4934834,-1.700622,-0.9470338,-0.082503855,2.4128067,-1.4257537,0.25462276,1.2441207,3.5963483,2.6382957,0.4046774,0.05755686,-1.7290837,0.62499446,-0.74640286,-0.069473214
C1=NCNC1,1.9149009,-1.0527558,2.2194061,0.4048713,-1.0229926,0.6298801,-0.4044991,-1.4580228,-1.1547639,-1.7538035,-0.54338896,0.03536267,-1.7071933,-1.4086759,-1.2266562,-0.71401304,1.0415828,2.1585734,1.6503129,1.5480037,-0.45778924,0.7223966,-0.29432186,1.6544789,3.1662846,2.1866276,1.3538454,0.035353795,-1.7053213,-1.0550241
C1=NCCCO1,4.254645,2.0897903,0.362094,-1.070459,-1.0375928,3.0407724,-0.6251179,-1.606283,-1.154214,-1.661413,-1.1545094,0.28417775,-1.6902436,-1.5331613,-1.5466211,-1.2831948,1.5810498,1.308678,3.427592,-0.9162139,-0.62003005,0.041467108,1.2472771,1.5189322,-1.1629204,0.7710946,0.3269987,-0.9804376,-0.7722335,-0.23596916
C1=CC2CCC1O2,1.8090856,-0.31959543,0.6967987,-0.8071301,1.0936033,0.03639608,-1.0096593,-0.78117454,2.9166622,-1.7077279,1.9356859,6.047103,-1.5144712,-0.6210844,-1.5750831,-1.6430422,-1.5736871,-0.24080244,0.56354713,-1.6335207,-0.6167301,-0.84124845,1.2979114,0.52490973,-1.607015,3.6333332,0.5969334,-0.52650166,-1.4299382,-1.6037852
C1=CNSC1,3.4499226,-1.1882479,-0.19829004,-1.0886165,0.79812604,1.9447725,-1.0893131,-1.6118039,1.75524,-1.7443479,-1.384321,-0.84994715,-1.1588615,-1.1941088,-1.338033,-1.6741413,-0.97101456,0.14848779,1.955836,-1.2698077,0.25400412,1.203607,3.5479162,2.460947,0.99354744,-0.7805568,-1.7409381,1.0331111,-1.1669947,-0.25143483
C1CC2CCC(CN1)N2,2.388137,-1.506063,1.1623065,-0.36805284,0.94219404,0.10677957,-1.3636367,-1.575911,1.9512783,-1.7252287,2.016339,4.8575892,-1.2986053,-0.92659014,-1.5223153,-1.7141535,-1.5363008,-0.42809865,2.112257,-1.5418065,-0.6603276,0.08899914,0.80767226,2.3681302,-0.8155595,4.970051,-0.74338824,0.56410515,-1.2134373,-1.5213778
C1=CCNNC1,4.445509,0.26159605,-1.4442571,-0.7851544,0.22366314,0.20609371,-0.915848,-1.612067,-1.0610754,-1.7493716,0.4600726,0.30584532,-1.451841,-0.6886614,-1.5648226,-1.2678097,-0.23301123,0.0898846,3.0092633,-0.8818656,0.3378074,1.2524856,1.9586456,2.7633219,0.76822937,1.1684924,1.5501249,-1.0046903,-1.6191747,-1.3580617
C1=NCCOC1,3.249908,2.0664682,2.1283805,-0.051643252,-0.8888329,1.5267974,-0.307818,-1.5955501,-1.1683122,-1.7458469,-0.94833636,0.5419174,-1.7127681,-1.3575106,-1.6367275,-1.3694581,1.6420292,1.5490973,1.715617,0.7829041,-0.440841,0.10450929,-0.11108075,0.8352881,-0.8140086,1.4529396,1.6141702,-1.34423,-0.38173717,-0.83190644
C1CNSNC1,3.058418,-0.67592794,1.9234465,0.36814335,1.3145536,2.4310987,-1.0088774,-1.6932139,2.8411136,-1.7559028,-1.6512324,1.8800936,-1.3024467,-1.5754731,-1.2608973,-1.6935025,0.4155963,-0.20908254,2.6570745,-1.4368367,-0.05409442,0.9625077,1.1105177,2.9684112,1.6465256,3.2769477,-1.7367055,0.88140416,-1.6223553,-0.061180376
C1=CN=NC=N1,-0.6764141,-1.4027512,-0.27123192,-0.9033903,-1.0909084,0.907276,1.7935891,-1.2624404,-1.409936,-1.7499446,2.4949496,-0.9789202,-1.4734477,-1.4260004,-0.53998345,2.6858299,2.2508373,0.39445645,1.6747578,3.4221811,-0.46482283,0.022067687,0.9246429,0.08745434,3.5428305,-0.24045233,0.930616,-0.36809078,-1.5677917,-1.6122897
C1=CNNCC1,4.195446,-0.626988,-1.5035828,-1.0022151,0.5713547,0.15151128,-0.8599748,-1.576965,-0.91049236,-1.743519,0.9262953,0.27510363,-1.3717668,-0.66767186,-1.4432279,-1.3895816,-0.68777263,-0.013127783,2.882442,-1.1010793,0.3717576,1.1552593,2.387424,3.0920355,0.7872085,0.83789694,0.92905575,-0.7496348,-1.6067265,-1.359203
C1CC2CCCC(C1)C2,0.10228785,-1.5338215,1.5070834,-1.2417029,1.2764817,-0.39047724,-1.4401021,-1.2332824,2.877305,-1.6283202,3.507554,6.3959303,-1.3345621,-0.7730995,-1.6230968,-1.7280488,-1.6780877,0.29071724,1.2645187,-1.7314352,-0.32867998,-0.7116039,-0.22378618,2.0131776,-1.449673,5.22927,-0.1460219,1.2904564,-1.3872044,-1.6019323
C1CSCNN1,3.5124016,-1.1193222,-1.605565,-0.70179063,0.008211201,1.4042853,0.5018102,-1.7536622,2.4428642,-1.6968586,0.31387258,-0.42615843,-0.27941996,-1.3939543,-1.2314243,-1.6607928,-1.3117689,-1.4813997,2.9420023,-1.2234268,0.7456145,0.73706263,3.9970093,3.1903434,0.68062043,1.0166848,-1.7491522,0.6490577,-1.376138,-1.4345757
C1=CNCCN=C1,2.3405614,-1.0305091,-1.1361532,-1.1800718,0.4950975,-0.17256272,0.05790958,-0.3711646,-1.2241931,-1.7431761,0.9993726,0.2893184,-1.5012774,-1.0988138,-1.17656,-0.7513804,0.33151188,-0.060761843,2.4159899,-0.9488605,0.04685516,0.607737,1.3441272,2.228851,0.8313247,0.48212525,1.5748788,-0.3183371,-1.5344552,-1.3699327
C1=NC=NC1,-0.6722327,-1.5503563,2.443694,-0.6756689,-1.6489007,2.0999608,-0.92150885,-1.6747148,-1.1665277,-1.7419277,0.8399356,-0.53296757,-1.7327871,-1.4539609,-1.2999661,0.18159994,0.70426184,3.9960692,0.2097491,2.57402,-0.31663015,0.121087536,-0.9895872,0.97844964,4.206222,1.3865513,-0.081292786,1.4333726,-1.6626705,-0.20597728
C1=CCSNC1,3.3602498,-0.12165708,0.14395094,-0.90762466,0.35779455,2.6776404,-1.1701006,-1.6799847,2.202323,-1.7495283,-1.4578121,0.66125625,-1.4728824,-0.5914611,-1.5923736,-1.6277322,-0.7590675,0.7082126,1.8964878,-1.5317651,-0.038669407,0.83157915,2.160964,2.0892994,0.5176203,1.7100089,-1.7218021,0.8093037,-1.2901759,-0.16416372
C1CSN=N1,-0.115439005,-1.5031024,0.97072333,-1.0122854,-0.6932246,3.2061384,1.1220404,-1.6966951,2.6717505,-1.7555717,0.47255692,1.2050368,-1.2069486,-1.5679752,-1.5352293,0.44007176,1.41513,-1.0321051,1.9269025,1.2288859,-0.048803944,-0.517181,1.5210593,-0.77389944,2.15355,1.8573476,-1.7379991,2.0768342,-1.3303757,-1.5623237
C1=CN=COC1,2.096337,0.9118175,-0.7044421,-1.100198,0.3263817,0.33773428,1.0137911,-1.2744544,-1.2993888,-1.7450665,1.5314045,0.6009857,-1.5015594,-1.1067463,-1.5312378,-0.82087874,1.1757493,-0.2530244,1.737755,0.49853685,0.19987954,-0.060197752,0.66030806,0.8211988,-1.2092061,-0.91559005,1.8356898,-1.3378519,0.1001619,-1.3123887
C1C2CN3CC1CN(C2)C3,-1.41581,-1.7432978,1.6737992,-1.2979739,1.4160162,-1.340674,0.11820431,-1.3482565,2.9756842,-1.740772,6.0328274,6.9687686,-0.7837693,0.29729262,-1.54336,-1.6839354,-1.6814872,-1.2139297,1.1085306,-1.6254128,0.23013823,-0.72251594,-0.6538139,2.3877914,1.5870694,5.444772,-0.05987751,1.3529178,-1.6540916,-1.7075404
C1COC2CCC(C2)N1,1.6210148,-0.7511401,1.8446776,-0.9315531,1.0442319,0.5112286,-0.5957494,-1.6058407,2.0900352,-1.7289817,3.4555387,6.1290655,-1.419159,-0.64510524,-1.6265894,-1.7178657,-1.5229603,-0.5710558,1.6937808,-1.564482,-0.49391633,-0.5885473,-0.34612125,1.5478941,-1.5050281,4.228075,0.19198596,-0.90860623,-0.7230526,-1.4854487
C1=NNCSC1,3.3492906,-0.9065237,-0.76386684,-0.74251854,-1.5654038,3.443694,-0.68122995,-1.7535567,0.9439643,-1.7224225,-0.2897948,-1.6158507,-1.5998385,-1.3115809,-1.5640974,-1.409143,-0.5304884,1.8121111,1.6040471,1.33814,0.052753024,0.63667554,2.7895064,2.364925,2.7894063,0.11825884,-1.7409916,0.5898587,-1.5457995,-0.71857613
C1=NCCCC1,2.4967847,-0.90197664,1.8872707,-0.7860692,-1.0081084,1.436755,-1.3503647,-0.95198965,-0.3719171,-1.7283921,-0.20853291,0.59085673,-1.7021694,-0.9615802,-1.6855556,-1.4120513,0.43244505,1.5343964,2.2387798,-0.7809129,-0.1669585,0.3776079,0.8634454,1.511634,0.9171154,2.7494004,1.1364006,0.43357506,-1.2311134,-1.150596
C1CNSN1,2.3410192,-1.0403371,1.1523501,0.26544613,2.5590377,1.4621397,-0.2135958,-1.6255481,3.1831408,-1.7565159,-1.4759282,2.199228,-0.6324981,-1.5718099,0.00016289194,-1.6806977,0.53540033,-1.53817,3.192591,-1.4985434,0.24607609,0.8257504,2.4462335,2.4375405,0.9037662,2.6860807,-1.7427102,0.50731045,-1.4908003,-1.2673938
C1CC2CCOC(C2)N1,1.5972422,-0.6636495,1.7198224,-0.9874986,1.0500212,0.49495557,-0.5090052,-1.6168497,2.033801,-1.7255327,3.4767337,6.095054,-1.4216964,-0.6464093,-1.6266357,-1.715039,-1.5227448,-0.6243379,1.5877051,-1.5791501,-0.49299365,-0.62128454,-0.3845023,1.4619188,-1.5074223,4.1472626,0.26737368,-0.9333707,-0.80850357,-1.5107486
C1=CONC1,3.3813148,2.0635548,-1.2967161,-1.1991241,-0.1530165,1.0252352,-1.0570831,-1.7301567,-0.47954154,-1.7345239,-1.3669443,0.44616556,-1.6130617,-1.1695476,-1.3345672,-1.4090221,0.45981354,1.2187796,1.9395227,-1.2025528,-0.25946707,-0.46840814,0.45157343,0.6772941,-1.3957537,0.9625904,-0.36350837,-0.035775818,-1.4977095,0.16165021
C1=NC=NNC1,1.6895057,-1.5057166,-0.056361567,-0.4327613,-1.5566592,1.7176619,0.0954289,-1.7387879,-1.5441989,-1.7514008,1.3134648,-1.4915016,-1.6002172,-1.2690772,-1.5642781,0.9343908,1.548691,2.5855722,2.4203408,4.022599,0.15891337,0.8841044,1.0501603,1.3113323,5.181063,0.8453266,0.30727962,0.29633573,-1.6688322,-0.94180965
C1CC2CC(C1)C2,-1.2117635,-1.644031,1.4526603,-1.3861428,1.4151073,-0.72207063,-1.3326296,-1.3063878,3.392276,-1.6603457,4.6804338,7.034822,-1.2681262,-0.83814937,-1.4946533,-1.718707,-1.7167691,-0.012864024,0.29233074,-1.7218871,-0.5021231,-0.9534973,-0.78519106,1.6077808,-1.4455346,4.961889,-0.7875366,1.749603,-1.5278617,-1.6296314
C1=COCCCC1,3.8331444,1.9884261,0.43473023,-1.0435448,0.2678745,1.0483873,-1.0847403,-1.2795303,-0.7091286,-1.7178938,-0.7532102,1.259232,-1.6496702,-0.7371627,-1.7075304,-1.6539702,0.24699108,0.30461758,2.4033446,-1.5044769,0.039367404,0.16326787,1.1075865,1.5894234,-1.6445519,1.6860001,1.6438762,-1.095768,1.1229467,-1.0155317
C1COCSN1,3.5488107,2.3157475,0.7412212,0.11014971,0.7806984,2.4929497,0.18848233,-1.7461207,2.9791777,-1.7520982,-1.6126376,2.171638,-1.2524556,-1.4867312,-1.5209901,-1.6723254,0.8788456,-1.219818,2.4850562,-1.208539,-0.10139409,0.16379659,1.421627,1.0539851,-1.423816,2.1345575,-1.7366925,-0.62519604,0.1537659,-0.356934
C1=CCC=CC1,1.1794533,-0.4146809,-1.6113019,-1.5851241,0.673942,0.112774685,-1.5286251,-0.22067839,-0.30054635,-1.6109358,0.96991664,0.3466935,-1.5648271,0.1440065,-1.3455738,-1.5222133,-1.1753508,-0.0715422,1.9712443,-1.7131413,0.52985734,0.47343796,2.611526,1.8892,-1.4917191,1.134632,0.8230887,0.53387284,-0.12571742,-1.1178299
C1NC2CCOC(C2)N1,2.6691117,0.2821935,2.0867186,-0.36006775,1.0639236,0.79283464,-0.8990948,-1.6011808,1.619511,-1.7491958,2.4440997,6.077355,-1.4988781,-0.58172965,-1.662734,-1.701432,-1.4320222,0.481051,1.5586071,-1.5366386,-0.5979334,-0.29356223,-0.9656426,1.8377764,-1.4060354,4.536847,1.1396059,-1.2367114,-1.4059072,-1.5108705
C1=CCSCC1,2.8228877,-0.7398289,-0.88638943,-1.409945,-0.7449433,2.2560823,-1.3150048,-1.6679225,2.1388586,-1.6130369,-0.76414025,-0.31989828,-1.5170805,-0.5197564,-1.6502004,-1.7043957,-1.4702241,0.68220913,1.8016069,-1.6480333,0.3389693,0.5286319,3.0206735,2.5139186,-0.7548141,0.6411167,-1.7285173,1.4346796,-0.3256184,-0.3651208
C1=COCCNC1,4.313912,2.0715494,0.25300422,-0.43690547,0.2502851,0.70658994,-0.39735657,-1.5145261,-1.0837268,-1.7363838,-0.8987816,0.943326,-1.651851,-1.1348284,-1.5617412,-1.5971534,0.45598403,0.38577905,2.2954535,-1.1034187,-0.04829791,0.456773,0.55080247,2.1613512,-1.3856856,1.0039657,1.5967013,-1.4022453,-0.6790023,-0.6493034
C1OC2CC3CC1C2C3,-1.3502537,-1.5584544,2.1316352,-0.95646757,1.1042721,-1.1820602,-0.6788916,-1.2438143,3.5335813,-1.732457,4.7218885,7.503988,-1.2173344,0.9185119,-1.6922102,-1.6898662,-1.6608201,-1.2260493,0.4518742,-1.6930195,0.14214534,-0.6696186,-0.95935595,1.1186795,-0.49136215,6.437512,1.2216942,0.28414458,-1.3475301,-1.7179054
C1=NCN=C1,0.14959864,-1.4412246,0.8659804,-1.1340733,-0.9468829,0.8002665,0.84302443,-0.6279142,-1.2095716,-1.751816,1.9542134,-0.5233005,-1.6444061,-1.3557248,-1.3307146,1.3000374,1.4128948,0.9871947,1.2537848,2.1578052,-0.27555707,0.08739944,0.45811215,0.31809384,2.6629171,0.20842928,1.2044665,0.47993267,-1.6205785,-1.5352373
C1NC2CC3CC1CC(C3)C2,-1.4683132,-1.684911,1.5894291,-1.3617747,1.0273085,-1.065884,-1.3723657,-1.2334433,2.6268792,-1.7111886,4.9029565,6.439995,-1.2886844,0.63522696,-1.6551285,-1.7000929,-1.6843606,0.14453684,0.9748251,-1.732862,0.20938009,-0.68164784,-1.1187048,2.4969974,0.23908512,6.1365314,0.9614767,1.4195012,-1.5770918,-1.703522
C1=CCOCCC1,3.722959,2.189486,0.6355109,-0.8354467,0.4501109,0.9028771,-1.2826612,-1.1414979,-0.61683625,-1.7240573,-1.0501231,0.98341507,-1.6677153,-0.49571222,-1.7103177,-1.6497749,0.5642828,0.20761141,2.4536595,-1.4927021,-0.121288426,0.24102005,1.1217967,1.1323559,-1.680208,2.1863263,1.8638908,-1.1010079,1.6027222,-1.0383222
C1CC2CCC1CC2,1.8536295,-1.0813302,1.459602,-0.5233309,1.1551951,-0.26986513,-1.586444,-1.1879151,3.2571175,-1.745141,0.70307004,6.0713706,-1.523413,-0.80959857,-1.6324868,-1.706584,-1.5175751,-1.1476461,2.4077086,-1.6929224,-0.38851807,0.08002743,0.55325633,1.3104124,-1.3391976,7.1158743,0.5613644,0.6456605,-1.1956452,-1.3607252
C1=CSCCN1,3.0253036,-0.9634325,-1.5604626,-1.2962908,0.20005861,1.6836947,-0.49564013,-1.6841898,1.7273269,-1.6796689,-0.13752033,-0.86609393,-1.1368923,-0.55177736,-1.1483017,-1.6396211,-1.3395053,-1.0128124,2.62785,-1.5508782,0.31344405,0.60856104,4.55629,2.530313,0.14894807,0.0092882365,-1.7361338,0.57157147,-0.92512745,-1.2128872
C1=CNCCCC1,3.6029868,-0.2079967,-0.53152066,-0.94897914,0.5304805,0.38490725,-1.3328683,-0.6923934,-0.38794738,-1.7122213,-0.5670429,0.97418076,-1.6036612,-0.5905681,-1.5458795,-1.6268252,-0.715098,0.057880986,3.044576,-1.6424216,0.1287908,0.72290313,1.7099959,2.8859277,-0.6638284,2.3951054,1.154754,-0.17536838,-1.2744278,-1.135284
C1=NCN=CO1,2.1889544,0.8231314,-0.6764568,-1.2781762,-0.8190812,2.0872793,1.2403753,-1.5581354,-1.4530014,-1.7245201,0.84118485,-0.5846579,-1.604242,-1.6327761,-0.79480094,1.1074888,2.4216022,0.43267918,2.7677164,1.3910489,-0.4161965,-0.67040974,0.78011286,0.75189924,0.2510379,-0.9322987,0.678596,-0.87890536,-1.447304,-1.2933302
C1=CSCNC1,3.408776,-0.3928303,-1.3230157,-1.1863923,-0.95658946,2.0044,-0.6712799,-1.7235323,1.1559552,-1.6962556,-1.0983112,-1.1016994,-1.5097737,-1.0177842,-1.2044834,-1.6322199,-1.3262252,0.81630033,1.4862481,-1.4060501,0.020285174,0.8264652,2.7751837,2.9168165,0.95637476,-0.40001816,-1.7308533,0.7057712,-1.4947163,-0.16454098
C1=CC2CC(C1)C2,-0.8525673,-1.5897862,0.2581136,-1.5244398,1.2453103,-0.21279916,-1.2928675,-1.13521,2.624277,-1.6579564,4.8566008,6.0893855,-1.3399158,-0.18886733,-1.4219621,-1.6851633,-1.7160484,0.5080917,0.21847412,-1.7144548,-0.6583986,-0.91006386,0.15112086,1.9861051,-1.4587718,3.37338,-0.5339351,1.2786751,-1.5262092,-1.5811254
C1=CC=CCC=C1,0.2125201,-0.8269888,-1.7144375,-1.6957586,0.19319718,-0.25338647,-1.4646109,-1.1559469,-1.0124062,-1.5969526,2.0760067,-0.11146942,-1.2332896,0.17035168,-1.4767522,-1.3715878,-1.4211345,-0.28051263,1.9262142,-1.6953738,0.59326744,0.49520722,2.5285985,2.3941844,-1.327534,0.30078223,0.61593044,1.1143428,0.29228875,-1.2033718
C1CNSCCN1,4.1580515,-0.83209777,0.6702352,0.6406674,1.4785287,1.0931262,-0.413707,-1.667836,2.3735037,-1.7446061,-1.599182,0.7030392,-0.9111429,-1.5463376,-0.83026856,-1.7191317,-0.014796054,-1.4734637,3.7798817,-1.4441575,0.29360342,1.2064731,3.2928016,3.1506321,0.9219765,2.5099118,-1.7329733,0.06895289,-1.2185857,-1.0760468
C1CCOCNC1,4.332777,3.2741516,0.7216676,0.42157653,-1.1593012,1.408594,-0.7048181,-1.7259969,0.14345881,-1.7391942,-1.5548314,1.6531065,-1.6665163,-1.4301219,-1.6695497,-1.6188923,1.1612475,-0.24343269,2.3713875,-1.1464494,-0.46734408,0.5318307,-1.2325128,1.962025,-1.4566884,2.7135,0.22213297,-1.1690387,-0.33121634,-0.43353057
C1=COCNC1,4.007301,2.0527115,-0.04638726,-0.54038364,0.24294016,0.5363652,0.03997581,-1.592031,-1.1394621,-1.7416978,-0.68881124,0.86518246,-1.6453445,-1.1864113,-1.4163047,-1.5623775,0.4165552,0.33460683,1.7671938,-0.7526838,-0.04688051,0.32224858,0.4183561,1.9385782,-1.4035978,0.42850477,1.3245382,-1.4096656,-0.7827412,-0.5398158
C1=NCN=CN1,1.4097983,-1.342131,-0.098769814,-0.4801447,0.28886798,0.08751418,1.5823296,-0.43961474,-1.2722461,-1.7540528,1.6584401,-0.3785095,-1.4618772,-1.3805218,0.01330804,1.4762998,1.8096988,-0.7089079,2.5165026,2.2847946,-0.31704724,0.35556343,1.5412434,0.853081,3.0176737,0.6129892,1.4774692,-0.81657356,-1.6742593,-1.60507
C1CC2C3CC1C2CO3,-0.7966615,-1.5429014,1.4247429,-1.2050711,1.0127761,-0.93311864,-0.99712783,-1.4422169,3.1198428,-1.7289209,3.9232962,7.0367684,-1.2975128,0.2571476,-1.642799,-1.6859846,-1.6177121,-1.2114588,1.4038051,-1.6781427,0.04425635,-0.7139463,-0.42913073,1.1546247,-0.6248809,6.0864587,0.8257498,0.5575473,-1.3668629,-1.6357495
C1CSCCO1,3.2574348,2.2580135,-0.92990834,-1.3841677,-0.967805,3.595873,-1.0861424,-1.7540927,2.231347,-0.94119483,-1.4535382,0.46947798,-1.5475711,-1.6023633,-1.4029714,-1.7238412,-0.2843834,0.13763465,2.99753,-1.6771185,0.41723624,-0.485891,2.2234943,1.9332873,-1.664762,0.8238811,-1.7485148,0.6853011,0.5651181,0.7211147
C1CC2CNCC1C2,2.3173182,-1.0516082,1.458073,0.183365,1.1601348,-0.2775965,-1.4347153,-1.4668751,2.9952154,-1.7523785,0.29095456,5.891701,-1.5054227,-1.1451313,-1.4130595,-1.6804425,-1.4356294,-1.0565495,2.178769,-1.5882488,-0.82869565,0.20876005,0.06701197,1.6966848,-0.71155906,6.745834,0.16818105,0.29923037,-1.5901254,-1.2294544
C1=CNSN=C1,2.4304,-1.1526176,-0.5548893,-1.134182,1.2919128,1.8503193,-0.13643815,-1.2326964,1.3408166,-1.7564946,-1.0229989,0.5762214,-0.71806604,-1.2818766,-1.4009511,-0.77895516,0.9451061,-0.36089668,2.3233519,-0.6726414,0.05957906,0.8008199,2.3833554,1.320814,1.2271743,-0.25268206,-1.6743672,0.8065631,-1.365002,-1.1377381
C1=CCC=C1,0.27584437,-1.0295464,-1.6508683,-1.6843097,0.25600055,-0.3003248,-1.4991467,-0.3046055,-0.54033846,-1.641959,1.9998583,0.3300933,-1.4735754,0.11502241,-1.4944977,-1.3838531,-1.4091798,-0.18086183,1.7755572,-1.6888906,0.59341234,0.36084238,2.50156,1.8352755,-1.4085284,0.32525352,0.8451023,1.4545468,-0.35600576,-1.2383678
C1CC2CCC1N2,3.754381,-0.48025453,2.000772,0.5252387,1.1658019,0.29276246,-1.6626422,-1.2693353,3.0216117,-1.7550353,-1.0941073,5.618707,-1.5674089,-0.8303212,-1.7058271,-1.7018893,-1.3434293,-0.7909799,2.5258987,-1.5926385,-0.6863762,0.5781596,0.7891176,1.7080324,-1.2949121,7.327,0.9289781,0.2429735,-1.207674,-1.3950939
C1=CC2CCC(C1)N2,2.0581455,-1.5409306,0.8271501,-1.1202444,0.7878299,0.5176232,-1.4545045,-1.4108288,1.675987,-1.7049601,2.8935287,4.4611115,-1.3971996,-0.47315055,-1.6324515,-1.6922034,-1.6249441,0.63591176,1.2054745,-1.5364342,-0.64067805,0.02475985,0.8581769,2.2261183,-1.0972623,3.4645314,-0.5122522,0.8988617,-1.107233,-1.462832
N=S,-1.1950241,-1.6236327,0.6147999,-1.3427647,-0.70812815,1.662021,3.844369,-1.4621108,-0.87312603,-1.6252469,2.6665034,-1.1015769,-0.52346015,-1.594241,-1.588932,2.617039,2.625996,0.03941164,1.2097318,3.0068257,-0.43840796,-1.3266344,0.6843338,-1.2041787,1.6343038,-0.044303805,-1.2848616,1.4378446,0.58790386,-1.702874
C1=CNOC1,2.1781976,1.585553,-1.3463848,-1.0226353,1.2792964,-1.0008649,0.27590123,-0.6038925,-0.2507806,-1.7532634,0.5911158,1.531698,-1.4571025,-1.2125525,-1.1585246,-1.2622308,-0.44409853,-1.364922,1.8254541,-1.2327003,-0.041101918,0.155144,0.7148823,1.414601,-1.7050917,-0.7780898,1.2874259,-0.68117803,-0.97294337,-1.3128743
C1OC2CNC1C2,2.6506038,0.5248584,2.1246452,0.8360092,1.2948629,-0.29002365,-0.99722433,-1.5919302,3.0939097,-1.7545986,0.32089442,6.770521,-1.5479653,-1.2519355,-1.4235557,-1.678388,-1.4276046,-0.9463948,0.66639286,-1.3822596,-1.0480018,-0.11582432,-0.837764,0.6605988,-1.4973997,5.9585204,0.4807228,-1.0218773,-1.5602841,-1.4116918
C1CC2CCCC(C1)N2,1.9699715,-1.4898248,1.6924506,-0.7832793,0.49460557,0.36679956,-1.5311108,-1.5799689,2.173382,-1.6872241,1.9247193,4.9518948,-1.41565,-1.02635,-1.6833289,-1.7232463,-1.5894023,0.41903925,1.8666332,-1.6233376,-0.42818382,0.05123025,0.44392043,2.250271,-1.0993165,5.1486053,-0.6322703,1.2571089,-0.9162237,-1.477531
C1=CCCCC=C1,1.4810767,-0.79369026,-1.56367,-1.6116476,0.41760516,0.15388998,-1.5554032,-0.43775052,-0.4592651,-1.6011988,1.1767507,0.48945895,-1.474577,0.06660624,-1.6175282,-1.5685173,-1.3119775,-0.1611248,2.403888,-1.7033616,0.532567,0.5374139,2.54265,2.3496702,-1.4352711,1.532363,0.9461121,1.0077341,0.30504453,-1.2191147
C1N=NNCN1,3.0001178,-1.1317331,0.6428495,0.6688008,0.4381086,0.845738,0.7786603,-1.5273967,-1.2173312,-1.7576686,0.7324142,1.033339,-1.4849613,-1.4298027,-1.5538765,1.2915603,2.473702,0.15077206,3.0866048,2.3013165,0.23901153,0.51241493,0.55598783,1.1595349,3.0635705,3.0579116,2.5584705,-0.98375344,-1.7167819,-1.6951704
C1=NCCCS1,1.6295521,-1.2039013,0.3518079,-1.3414552,-1.2497678,3.3997376,-0.081171855,-1.7233866,2.0750904,-1.6876765,0.32714385,0.3148704,-1.580616,-1.1589775,-1.6518078,-1.3410119,-0.77571493,0.53665805,2.1452627,-1.2014351,-0.377077,-0.5925868,2.5731409,1.0934107,0.71993065,2.0610147,-1.7240617,1.6865704,-0.74570113,-1.3902342
C1CC2CNCC(C1)C2,0.2989524,-1.5506408,1.53629,-0.9786513,1.0219795,-0.37224993,-1.2756197,-1.4970384,2.5823789,-1.7047684,3.237682,6.164797,-1.3782953,-1.0103663,-1.441353,-1.7150607,-1.6638472,0.33874682,0.9511116,-1.6972132,-0.5827335,-0.6726616,-0.8459557,2.3205671,-0.9740886,5.1342654,-0.44034997,1.0506486,-1.6333486,-1.5734619
C1=CC2CCC1CC2,2.4070196,-0.7916482,0.37140802,-0.9567613,1.0166825,0.20548697,-1.5519472,-0.8236315,2.4373734,-1.743321,0.87366617,5.097772,-1.5504045,-0.1927467,-1.5836893,-1.6622651,-1.5170562,-0.64502215,2.2916663,-1.677319,-0.70404917,0.11527129,1.2139245,1.527959,-1.3472667,5.258506,0.7321697,0.16809158,-1.2138773,-1.1905107
C1=NCOC1,2.534693,2.1353738,2.0181026,-0.14553872,-1.0895337,1.3759214,-0.29417494,-1.6516013,-1.1489325,-1.7484894,-0.57085276,0.23551734,-1.719487,-1.3989247,-1.548915,-1.1732274,1.4825896,1.645665,1.127705,1.3067063,-0.26022846,0.034998283,-0.40649673,0.3203884,-0.7237475,0.97872674,1.3389351,-1.3387239,-0.7745223,-0.85269976
C1CC2NCC1CN2,3.4485674,-1.0679313,1.4293996,0.55799305,0.18474658,0.19283235,-1.3717647,-1.6623065,2.348385,-1.753877,-0.9518875,4.353618,-1.5189003,-1.2805134,-1.5586967,-1.6742162,-1.1403311,-1.1470587,2.593446,-1.0404601,-0.8025437,0.6441765,0.6549847,2.090708,0.44152015,6.1562696,-0.6836352,0.43564004,-1.3695775,-1.0051262
C1CC2COCC1N2,4.664318,1.6498644,2.2623901,1.0271823,0.8750979,0.7314569,-1.5455664,-1.6103169,2.5658247,-1.7550486,-1.4522995,5.524877,-1.5853759,-1.0630854,-1.7111998,-1.7027197,-0.75667226,-0.59553564,2.1876369,-1.2940224,-0.9817332,0.36484653,0.19952543,1.0534779,-1.6060151,6.3836536,0.8610704,-1.0664241,-0.31787738,-1.1079932
C1NC2CNC1C2,3.1948729,-0.24647613,1.7954237,0.717769,1.4300221,0.06789982,-1.5364463,-1.4986157,2.4893224,-1.7574941,-0.6593028,6.2227,-1.5683497,-0.99761224,-1.4352465,-1.6181196,-1.3059336,0.22258008,1.8838766,-1.4389225,-0.9217906,0.43888387,-0.88109183,1.9303643,0.04879345,7.120463,1.2678275,-0.40388766,-1.7243854,-1.2038796
C1CC2COC(C1)O2,0.21965629,-0.54216045,1.6471028,-0.97469294,0.74494404,-0.05755042,-0.103231385,-1.6166979,2.446011,-1.6120073,3.2135808,6.128741,-1.4453464,-1.2565289,-1.566913,-1.7101806,-1.6107256,0.62066805,-0.51858264,-1.6079172,-0.7567353,-1.2322568,-0.60404736,0.71100086,-1.6767902,3.22927,-0.5828885,0.097991295,-1.0196835,-1.6194661
C1=CCCC=CC1,1.5476899,-0.8069861,-1.552285,-1.6046575,0.4633837,0.20946379,-1.5513572,-0.5383421,-0.4371509,-1.5957642,1.0393394,0.5145226,-1.4572941,0.03569704,-1.6183561,-1.589561,-1.2934572,-0.12444138,2.542171,-1.7071279,0.51486033,0.5364892,2.5736995,2.4170918,-1.4245503,1.6133296,0.8493158,1.008931,0.34253147,-1.192163
C1=CC2C=CC1CC2,1.1812041,-1.0044508,-1.2221024,-1.3850056,0.90059245,-0.16896619,-1.4755955,-1.0751373,2.0248246,-1.7370225,1.7072551,4.4724007,-1.4027575,-0.04759644,-1.419042,-1.5527325,-1.5739803,-0.7598429,1.8141595,-1.6783983,-0.6584354,0.1746971,1.4127623,1.4493446,-1.315138,3.9151354,0.37108746,0.5070832,-1.2032012,-1.2266343
C1=CC2CC(NCN2)O1,3.3823752,-0.74435997,0.05843838,-1.0576507,0.7253083,1.386813,-0.8365458,-1.6449863,1.2452592,-1.7162932,2.0709114,3.819724,-1.4859958,-0.9896082,-1.3763459,-1.6668022,-1.4305458,-0.3575,2.291244,-1.5178059,-0.5878897,0.01799333,1.5642655,2.6014998,-1.2276864,2.6063585,-0.8756257,-0.7240671,-1.2779771,-1.3268538
C1CC2CCC(C1)C2,-0.6171163,-1.6027554,1.727033,-1.2728535,1.4663279,-0.59151417,-1.3821824,-1.2939222,3.159396,-1.6550852,4.1050153,6.830561,-1.2813697,-0.8676721,-1.5856416,-1.7273917,-1.6958176,0.15746027,0.781646,-1.7239348,-0.3891423,-0.8518959,-0.687907,1.7790948,-1.446255,5.1902475,-0.38254175,1.4245788,-1.4712088,-1.6313937
C1CC2C3CC1C2CN3,-0.9427417,-1.714154,1.6644752,-1.0525285,1.3836269,-1.3010391,-0.8815288,-1.149519,3.3019915,-1.7477759,4.387944,7.0735736,-1.1305568,0.41687384,-1.6144493,-1.679262,-1.6461588,-1.3881058,1.5721806,-1.6420946,0.0723392,-0.38074762,-0.18837848,1.9431869,1.0794456,6.7003884,0.79912245,0.98380035,-1.5964092,-1.6801347
C1=NCCN=N1,0.7976619,-1.4341519,1.9412512,0.2803286,-1.0242697,1.2983633,1.649218,-0.91655743,-1.2629184,-1.7539861,1.4025395,-0.6733662,-1.6225048,-1.4302231,-1.2289835,2.0478616,2.8951852,0.53168905,2.210917,3.9021685,-0.68065864,0.13690507,0.77287537,-0.01278826,4.2671533,1.5763369,1.536088,-0.58698446,-1.6112647,-1.6148673
C1=CNC=CNC1,2.320456,-0.75305855,-1.5769613,-1.2540826,0.35589385,-0.56566435,-0.51450986,-1.4970148,-1.2444257,-1.7345057,0.832748,0.1286137,-1.4304034,-0.9811361,-0.15827847,-1.223445,-0.91226834,0.26490283,2.2300754,-1.4286638,0.19161764,1.0154293,1.3949015,3.2763598,1.0603262,0.47939608,0.7964473,-0.48136616,-1.6416432,-1.048131
C1=CC2COCC(C1)C2,0.8473038,-0.686997,0.93393856,-1.2412851,0.9928143,0.27263173,-0.9761754,-1.4817683,1.9175262,-1.6759256,3.3757465,5.6007833,-1.4453483,-0.5438041,-1.5874068,-1.6979344,-1.6314933,0.6127132,0.3644873,-1.6640784,-0.8474284,-0.8096381,-0.40891227,1.513141,-1.6189979,3.2322855,0.21703793,-0.24885656,-1.0525736,-1.4908767
C1NCSN1,4.145488,0.30635226,1.2774972,0.638128,1.3695568,2.8593016,-1.301303,-1.6935998,3.455151,-1.7568756,-1.6715392,2.722422,-1.4775841,-1.2423496,-1.5785424,-1.6222851,0.054839503,0.23285724,2.157541,-1.647717,-0.19439957,0.94167304,1.5770085,2.0752237,0.36879858,4.800055,-1.7077203,0.63261294,-1.6501876,-1.3971298
C1CCCSCC1,2.4694421,-0.6745737,0.97801256,-0.95576185,-0.6722736,2.2281961,-1.473007,-1.7110914,2.8622804,-1.5256991,-1.2864255,0.94586635,-1.5702114,-1.2377776,-1.6957073,-1.7390226,-1.2000979,0.46303964,2.597614,-1.6929251,0.44648135,0.34497318,1.9445792,2.3296096,-0.98670214,3.3179076,-1.7195967,1.6428477,0.03899811,-0.35017866
C1=CNCOC1,3.7378428,2.3385282,-0.25351536,-0.6760651,0.2704665,0.41582978,0.0011552114,-1.5605034,-1.1375017,-1.7399554,-0.5501055,0.83124554,-1.6410084,-1.1830243,-1.4317466,-1.5331706,0.35039648,0.33311173,1.8296872,-0.9629731,-0.042163767,0.39945015,0.42675278,1.794792,-1.4516792,0.31065798,1.530744,-1.4338248,-0.81354916,-0.6675325
C1CC2CNCC1N2,4.4221597,-0.37669986,2.145074,1.2206076,1.1572894,0.3980114,-1.585623,-1.4959555,2.521563,-1.7564046,-1.3820616,5.1050754,-1.558723,-1.0084172,-1.6507748,-1.6969715,-1.1185044,-0.63678026,2.6274972,-1.4187598,-0.9011357,0.8234535,0.507024,2.2790463,-0.58334726,7.187392,0.63019663,-0.42226052,-1.5086496,-1.3158776
C1=NCCCCC1,2.8037312,-0.5637857,1.97604,-0.3733913,-0.6147895,1.3068337,-1.416716,-0.7459192,-0.29116568,-1.7268045,-0.9385302,0.5973442,-1.7005306,-0.87488204,-1.6822724,-1.5212305,0.5915018,1.399203,2.7074578,-1.2030008,-0.14513496,0.37949878,0.9278122,1.6640409,0.57559514,3.5691183,1.3596258,0.1464051,-1.0979562,-1.1661763
C1CC2COC(C1)C2,-0.13876462,-0.98849523,1.8331088,-1.0260866,1.1237456,-0.2915056,-0.89125264,-1.5951799,2.8101227,-1.6794587,3.4937606,6.7281375,-1.3873281,-1.0506204,-1.5664265,-1.7183236,-1.6493744,0.17805026,0.06486844,-1.6690502,-0.8456675,-0.98608726,-1.1528015,1.0487573,-1.6380509,4.503316,-0.33257356,0.3361273,-1.1769184,-1.5571676
C1=NNSC1,3.6139946,-1.2709752,-0.21522172,-0.9422983,-0.67419994,3.0497165,-0.773221,-1.7206361,1.2630922,-1.7540371,-1.092612,-1.5377651,-1.1643353,-1.3832673,-1.5614988,-1.1848887,0.045497518,0.9513908,1.9638122,1.7770218,0.19197434,1.26478,4.127674,1.84504,2.802524,-0.97353834,-1.7458793,1.1824907,-1.370777,-0.96464074
C1=CC2CC1CN2,3.2795632,-1.0418018,0.42494315,-0.1837351,1.1386017,0.04486745,-1.4269377,-1.3321135,2.3645272,-1.7518514,0.3532185,4.3752894,-1.4929186,-0.69407374,-1.4145206,-1.6482165,-1.3997759,-1.1814208,2.0893245,-1.3556701,-0.95461434,0.5273701,1.6595263,1.8035766,-1.0241524,4.620033,-0.20078583,-0.18476708,-1.1401138,-1.1515577
C1COCCSN1,3.839615,2.1256788,0.8742583,0.09238823,0.9178066,2.4546473,0.0401734,-1.7422539,2.754556,-1.7477784,-1.5870473,2.6062124,-1.2994461,-1.4719332,-1.6106097,-1.6970087,0.7708449,-1.1900711,2.7480578,-1.4229345,-0.112557255,0.1066633,1.2431372,1.4039994,-1.5189059,2.7610254,-1.7141569,-0.7065689,0.42634362,-0.45574877
C1CC2CCC1CN2,3.1352916,-1.1054223,1.6105845,0.49953878,0.8436494,-0.2527162,-1.5085962,-1.517169,2.8842142,-1.7488562,-0.6102837,5.109824,-1.4990315,-1.1651084,-1.5887773,-1.7102456,-1.322972,-1.3624557,2.6567242,-1.4928,-0.756584,0.5420298,1.0434401,1.9038937,-0.89221245,6.7383046,-0.25872052,0.31170142,-0.91404706,-1.2375939
C1CCNCNC1,3.570957,-0.6137772,1.2871128,0.6718948,0.6544608,-0.2696456,-0.85396606,-1.5453191,0.22527698,-1.7434688,-1.2066019,1.9798623,-1.6123267,-1.4269211,-1.178563,-1.6619012,-0.0099563915,-0.5797104,2.9753911,-1.4451098,0.032500487,0.85238475,-0.15825038,3.3008883,1.1251943,4.4739456,0.8888807,-0.4075721,-1.6717299,-1.1082208
C1=CC2CCC1NN2,4.919753,0.090787865,0.0135896625,0.43779364,0.97320867,0.6959126,-1.6097763,-1.4497024,1.955341,-1.7546585,-0.53814834,4.086664,-1.5192586,0.01649721,-1.6760832,-1.6345812,-1.2333026,-0.30607226,2.3962884,-1.4313571,-0.7738963,0.79488915,1.7585428,2.3598373,-1.1368818,5.3463693,1.0864257,-0.9636622,-1.2853968,-1.4013499
C1=CSNCC1,3.4104927,-0.27212748,-0.0083691245,-1.0065968,0.27139598,2.6087074,-1.2102478,-1.65884,2.2257843,-1.7483436,-1.4310135,0.7023464,-1.4996141,-0.65073943,-1.5873948,-1.6200931,-0.8901144,0.65409565,1.8656815,-1.5417372,-0.06377783,0.7822221,2.2587404,2.181465,0.45501664,1.6616749,-1.7172763,0.94799906,-1.3387746,-0.13465911
C1CSNS1,-0.04696675,-1.0644059,1.2737659,-1.2483273,1.7793571,4.268232,0.60445136,-1.7531234,5.6105995,-1.7373555,-0.7195107,2.5818791,-0.029355071,-1.5479572,-1.3914093,-1.715063,-0.98989767,-0.990835,2.046756,-1.6464766,0.20126177,-0.76697075,2.2672062,1.6766675,-0.6487933,1.7657458,-1.757798,1.8812068,-0.71044016,-0.37110507
C1=NCCOCC1,3.5652947,1.9561688,2.204417,0.13929982,-0.92985314,1.615713,-0.6947558,-1.5822003,-1.0481557,-1.7423762,-1.0850015,0.7412934,-1.7094481,-1.317495,-1.6766193,-1.4828943,1.5024028,1.4539983,2.0473046,0.3692532,-0.43775186,0.15405226,-0.15373252,1.1905774,-0.8257272,2.1748164,1.6360962,-1.3207822,-0.055681266,-0.851655
C1CNCN=N1,0.8796442,-1.4344567,1.267319,0.5720611,-0.2101555,0.07239495,1.8029917,-1.2915562,-0.654352,-1.7545313,0.8606794,0.93319386,-1.4529676,-1.5644034,-0.3403169,0.97627914,2.2351449,-1.1995116,2.6722598,2.3159492,-0.37864164,0.23450284,0.26131973,0.8697185,3.5937917,2.791096,1.0685213,-0.3102025,-1.6726503,-1.6357821
C1=NCC=NCC1,1.0904393,-1.0883753,1.6918617,-0.4436817,-1.469134,1.6839628,-0.8152282,-1.5504323,-1.091356,-1.739377,0.17954414,-0.5607615,-1.6861993,-1.3231049,-1.5534099,-0.13937733,1.2082913,2.3702035,1.8057809,1.4344968,-0.58286536,0.3928145,0.10337006,1.4815696,3.2574735,2.413194,0.7678179,0.3169126,-1.5488247,-1.1067641
C1NC2CC1C2,2.2553833,-0.5162293,1.7904118,0.22931325,1.5710549,0.07976849,-1.6228628,-1.2022882,3.4774938,-1.7567289,0.076321624,6.9745016,-1.5522833,-0.755103,-1.5952495,-1.657043,-1.5109363,-0.19603232,1.5881002,-1.6337541,-0.8427892,0.114080854,-0.5829512,1.3316981,-1.1668665,7.385335,1.0958525,0.32297358,-1.6776297,-1.3733729
C1=NCCSC1,2.7261324,-0.8413976,1.4063067,-0.6205799,-1.4493893,3.3537192,-1.0135456,-1.7229965,1.537006,-1.7167323,-1.2803835,-1.2112137,-1.6731384,-1.2481663,-1.6014279,-1.5912379,-0.54365975,2.0780237,1.1575408,-0.07757229,-0.2061832,0.3566743,1.9165617,1.8615671,1.9342952,1.3101611,-1.7343496,1.0318799,-1.3025055,-0.5010267
C1=CSNCN1,3.7748535,-0.50020987,-1.230438,-0.6875871,1.0702391,1.8229992,-0.19400722,-1.6912162,1.7702726,-1.7545047,-1.1964395,0.42346486,-1.1852162,-0.9991597,-0.78274786,-1.3857714,-0.34256926,-0.66865903,2.7577662,-1.3547986,0.04338628,1.0956354,3.5540402,1.9918673,1.1748418,1.15281,-1.7209113,0.09382873,-1.5487266,-1.1334805
C1=CNSC=C1,2.0786088,-1.2062474,-1.5733383,-1.4775573,0.5971472,1.1787425,-1.0343952,-1.6196231,0.9507293,-1.7260028,-0.30711788,-0.9625091,-0.606922,-0.8508851,-1.1403242,-1.587024,-1.2507546,-0.09242807,1.8607234,-1.4796847,0.5041952,1.1527281,3.5185614,2.7857535,0.5987011,-1.3435605,-1.7220956,0.96031296,-0.8372817,-0.5186685
C1CC2CNCC(C1)N2,2.222004,-1.4782494,1.6982087,-0.23396032,0.34458923,0.3361976,-1.366648,-1.655926,1.9084083,-1.7269901,1.6966974,4.859414,-1.4023117,-1.107505,-1.6054462,-1.7123661,-1.5675504,0.44777346,1.5806814,-1.4672744,-0.69008154,0.13175301,-0.01552435,2.5643158,-0.27170253,4.9392586,-0.847802,0.86696506,-1.439735,-1.4435536
C1NNCS1,3.2982953,-0.28700233,-1.5059088,-1.0901266,-0.12061599,3.0253038,-0.75048107,-1.7542195,3.1073577,-1.7377245,-0.46204722,1.9178386,-1.0802559,-1.1666692,-1.688668,-1.5163559,-1.2932724,-0.2682419,2.629565,-1.672529,0.38423434,0.06254061,2.3161347,2.3465831,-0.77337235,3.2602777,-1.7267514,1.458365,-1.5616359,-1.5781525
C1=CCSC1,2.4018931,-0.9276559,-1.1778978,-1.4659485,-1.193358,2.4519353,-1.1738116,-1.7060112,1.8763716,-1.6485864,-0.71968114,-1.1253873,-1.5346309,-0.4011919,-1.6110523,-1.6702831,-1.4241545,1.0148622,1.4349253,-1.5005566,0.34322047,0.47902632,3.1439698,2.0384762,0.25076097,-0.30311424,-1.7413255,1.7172538,-0.84840757,-0.0068363477
C1=CN=CSC1,1.3144437,-1.3772216,-1.4272645,-1.4728009,-0.9514977,1.8992921,0.46720824,-1.6410266,1.0865921,-1.7064338,1.1011603,-1.0775791,-1.3018984,-0.9460538,-1.4616632,-1.1506641,-0.95606804,0.0031128346,1.1794914,-0.8126699,0.2581456,0.19663961,2.81367,1.597705,0.9751606,-1.1729974,-1.7112173,1.1957352,-1.1069869,-1.297622
C1=CNCCCN1,3.9802778,-0.18864979,-1.2699221,-0.46587428,1.4046364,-0.69349843,-0.5831487,-0.7278291,-0.8291077,-1.7389605,0.20658138,0.8703168,-1.4247789,-0.7714268,-0.59516656,-1.4883019,-0.12509853,-1.1145868,3.8121035,-1.5189893,0.17716548,1.0297761,2.5414152,2.8006415,0.1703787,1.8144339,1.4593166,-1.1642833,-1.5252395,-1.3934051
C1=NN=CN=N1,0.13010307,-1.6338342,0.1279081,-0.80550426,-0.6491781,1.2574484,2.6663063,-1.1871344,-1.5494938,-1.7565776,4.054705,-1.2290502,-1.3289906,-1.3900634,-1.4150298,3.8428364,3.171563,-0.122225575,2.10807,5.5908337,0.10028529,-0.047381617,1.6083534,-0.72729045,4.2562637,-0.6180357,1.7095361,-0.41739845,-1.5727981,-1.7106953
C1=CCCNC=C1,1.9376501,-0.78375703,-1.5587542,-1.4723979,0.27433822,-0.19214687,-1.1754758,-1.1886246,-0.9598793,-1.6948073,0.94559366,0.34527355,-1.4668525,-0.45838016,-1.2849257,-1.4246036,-1.0973037,0.085842244,2.412653,-1.6362381,0.29076195,0.72896683,1.897487,2.8211224,-0.30200744,0.9893644,0.8979149,0.256712,-1.2753633,-1.1732074
C1=NC2CC(C1)CN2,1.0103066,-1.6019733,2.1325362,-0.6343317,0.31329846,0.6805208,-1.0013007,-1.5948603,1.745571,-1.7353792,3.0906768,4.4442053,-1.5554177,-0.9693309,-1.3918827,-1.6522079,-1.5444975,1.0723816,0.4096554,-0.9735968,-0.9590818,-0.3918998,-0.13570452,2.233752,0.52877855,3.840629,-0.9606588,0.6074458,-1.5860823,-1.5305578
C1=CSCO1,3.4305706,1.9602177,-1.6345654,-1.6181008,-0.8436521,3.5895085,-0.7121094,-1.7478243,1.3666624,-1.0376015,-0.8931426,-1.0299956,-1.4798328,-1.4070023,-1.081795,-1.6398497,-1.0898527,0.11406054,2.2315204,-1.6063738,0.20305596,-0.5094076,3.7766564,1.9716178,-1.6497474,-1.5234507,-1.7479168,0.5510274,0.2494161,0.3041233
C1=CSCS1,0.7881541,-1.0594876,-1.5410336,-1.6680353,-0.9861858,4.3932796,0.28132322,-1.7556722,4.3874283,-1.3202635,1.1679717,-0.86345434,-1.0817648,-0.66326606,-1.493991,-1.6648965,-1.6364403,-0.25692618,1.1407517,-1.6053082,0.29090592,-0.7325845,4.784814,1.3131227,-0.858757,-1.2753953,-1.7579169,2.279535,0.46420732,-0.68524176
C1CSCO1,2.6108463,2.235805,-1.2542914,-1.5114845,-1.0467477,3.817631,-0.80569196,-1.756111,2.4892495,-0.81405854,-1.2459774,0.12691733,-1.5039812,-1.6286194,-1.1878884,-1.7122343,-0.56032735,-0.18333721,2.5533047,-1.6410198,0.3872668,-0.6660955,2.3271642,1.6646378,-1.6749517,-0.27663472,-1.7541227,0.9006784,0.5361722,0.73290205
C1CCNSCC1,3.492592,-0.7761183,1.543008,-0.29188138,0.6760845,1.9074514,-1.3036621,-1.6496267,2.629405,-1.7133608,-1.6023989,1.0432873,-1.4135346,-1.4781944,-1.5671743,-1.738523,-0.57680655,-0.3969153,3.0619352,-1.6038756,0.23056068,0.709688,2.2484226,3.0832047,0.16461292,2.6853418,-1.7258815,0.9649453,-0.9741476,-0.05870616
C1CC2COCC(C1)N2,2.4690425,-0.44901982,1.8918867,-0.3480095,0.24526417,0.5429706,-1.221125,-1.6885587,1.7883319,-1.7104993,1.5313131,5.1144233,-1.447203,-1.167654,-1.6811918,-1.7180243,-1.4512554,0.42227852,1.2484397,-1.3516215,-0.85094464,-0.28408474,-0.43049458,1.6726421,-1.4911927,4.3824906,-0.34959057,0.07015104,-0.1977315,-1.3049779
C1NCC2CC1CN2,4.3949704,-0.37273133,2.1093554,1.1992807,1.1299425,0.36695844,-1.584906,-1.5014805,2.5257044,-1.7564342,-1.3720428,5.121933,-1.5599691,-1.0047975,-1.6497115,-1.6954128,-1.1331013,-0.6591219,2.580795,-1.4154311,-0.8831589,0.8048954,0.49260166,2.2388508,-0.59032476,7.1708975,0.6344002,-0.39617702,-1.5105891,-1.3176095
C1NCC2COCC1N2,6.064094,2.3448565,2.879826,1.6784425,1.0439816,1.3402878,-1.6048784,-1.580298,1.9538307,-1.7572072,-1.6396011,5.122003,-1.6290133,-0.85663354,-1.7350502,-1.6969811,-0.26641238,0.63307977,2.416494,-1.208627,-0.9171971,0.6997824,-0.072149366,1.6453861,-1.5120788,6.8271055,1.7779288,-1.3756824,-1.2003639,-1.2612612
C1CNNCN1,4.1425247,-0.90983987,-1.4191684,0.4070074,1.4455131,-1.0708274,0.16898432,-1.6666415,-0.31452522,-1.7522181,0.5376778,1.2500994,-1.0888292,-1.3928472,-0.032566596,-1.426588,0.12267091,-1.5553284,4.0730844,-0.7981707,0.51622087,1.1228079,2.2427278,3.111343,1.2564394,2.8319466,0.83109415,-1.0384897,-1.6976426,-1.5749794
C1=NCNS1,2.4315047,-1.3804741,0.7710077,-1.0238258,0.3604542,2.9708762,0.42080137,-1.7051035,1.7464029,-1.7524058,-0.81721735,0.04214281,-1.2528002,-1.531671,-1.3112993,-0.90181065,0.36824298,-0.016403232,2.5880451,0.38655028,-0.34938413,0.39542887,3.1400166,0.89971375,2.0140936,0.86233675,-1.7368091,1.313082,-1.3345126,-1.2148488
C1=CC2C3NSC2C13,0.86190206,-1.631876,1.2588862,-1.1939763,0.99998116,0.68449956,-1.1801533,-1.5477018,3.692812,-1.7528718,2.3128996,4.92589,-1.2013216,0.3905645,-1.6409715,-1.6519126,-1.6390254,0.078358516,0.9675027,-1.5567077,-0.23453405,0.3526324,1.618184,1.6262987,1.3095078,4.238564,-1.5757911,0.976759,-1.4864128,-1.5314771
C1=CC1,-0.38327456,-1.0494925,-1.4293963,-1.6800014,0.54220635,-0.41679087,-1.3938019,0.74046355,0.20063058,-1.6918545,2.618061,0.78737986,-1.6035789,0.1622572,-1.3552032,-1.3968432,-1.4451698,-0.55365974,1.1915421,-1.665237,0.6578506,-0.008983513,2.3354795,1.1765571,-1.4840158,-0.25619003,0.8455833,1.4985315,-1.0436896,-1.4100317
C1=CCC2CCC(C1)N2,2.4498467,-1.4629633,0.9057217,-1.017596,0.7051855,0.68937707,-1.471924,-1.4626722,1.6016034,-1.6978093,2.3971372,4.1914816,-1.4239551,-0.39724892,-1.659679,-1.7058393,-1.5943583,0.7920956,1.5393748,-1.5772232,-0.5660857,0.09967315,1.0267016,2.4248886,-1.1107819,3.7086346,-0.52158093,0.7232617,-0.87365985,-1.41946
C1CCOCOC1,3.3079321,4.6252313,1.6701605,0.08184002,-0.52379113,0.8033613,0.07174817,-1.7335429,-0.13381346,-1.7238381,-1.3794817,2.7286906,-1.6556363,-1.5174344,-1.7116497,-1.6988279,1.3671645,-0.24390414,2.1601136,-1.1119633,0.0037049227,-0.6194865,-1.0519938,0.8206154,-1.7335707,2.5740595,1.3104277,-1.5042559,2.4207885,-0.6694571
C1=NCN=CC1,1.0775769,-1.342078,0.9653885,-0.92035186,-0.6545657,0.75435483,0.5550923,-0.53642017,-1.1608864,-1.749232,1.3733522,-0.105460286,-1.6348548,-1.2517437,-1.4263879,0.637658,1.3715026,0.8890827,1.7936337,1.4219882,-0.26898688,0.19432017,0.73266655,0.735486,2.494257,0.95461243,1.4764369,0.13931608,-1.6013728,-1.5172888
C1=CC2CCNC(C1)C2,0.7070918,-1.5030684,0.5621196,-1.26645,1.0986575,-0.0052263406,-1.2003232,-1.3764315,2.0070405,-1.7052714,3.6530743,5.4322743,-1.3837924,-0.50440633,-1.3566903,-1.6874306,-1.668516,0.6032615,0.7921827,-1.6836025,-0.6893932,-0.6002141,0.005404039,2.527068,-1.0274686,3.6632278,-0.2140006,0.5656131,-1.6228199,-1.5264032
C1=CSN=CN1,2.132465,-1.3273724,-1.4741168,-1.3036343,1.1069341,1.752256,0.9072003,-1.5333521,1.4048219,-1.7549716,0.5723108,0.3016854,-0.6499302,-0.9670304,-1.1442426,0.07048703,0.38183835,-1.1532978,2.4327698,-0.57390594,0.15745947,0.48380893,3.5848284,0.6440655,1.0960538,-0.39757705,-1.6964759,0.55277824,-1.3615034,-1.5034236
