fragment,0,1,2,3,4,5,6,7,8,9,10,11,12,13,14,15,16,17,18,19,20,21,22,23,24,25,26,27,28,29,30,31,32,33,34,35,36,37,38,39,40,41,42,43,44,45,46,47,48,49,50,51,52,53,54,55,56,57,58,59,60,61,62,63,64,65,66,67,68,69,70,71,72,73,74,75,76,77,78,79,80,81,82,83,84,85,86,87,88,89,90,91,92,93,94,95,96,97,98,99
CC,0.10236573219299316,0.23677843809127808,-0.21241846680641174,0.09784907102584839,0.35394856333732605,0.06613574922084808,0.2515203654766083,0.1417674869298935,-0.13516828417778015,0.23012739419937134,-0.0795813649892807,-0.25271499156951904,-0.17952726781368256,0.21304401755332947,0.6151862144470215,0.08838125318288803,0.3427136540412903,-0.6418733596801758,-0.03328486531972885,-0.08120524138212204,0.1455153226852417,0.10305917263031006,0.0035979351960122585,0.08442243933677673,-0.48910653591156006,0.12145732343196869,0.4148024022579193,0.22880485653877258,-0.305376261472702,-0.49908313155174255,0.8774697184562683,0.27880409359931946,-0.20152321457862854,0.047721248120069504,0.07085077464580536,0.0456998348236084,0.2394600361585617,0.035853512585163116,0.1405111402273178,-0.04527488350868225,0.16384270787239075,-0.05778995901346207,0.7170273661613464,0.5787676572799683,0.0816970020532608,0.03862833231687546,0.052324824035167694,-0.10348492115736008,-0.16765937209129333,-0.3484595715999603,-0.03465103358030319,-0.2857605814933777,-0.061045512557029724,-0.0005042950506322086,-0.5309110283851624,0.2985475957393646,0.1751893013715744,-0.026049528270959854,0.06631790101528168,-0.4995546340942383,-0.18032363057136536,-0.2717524766921997,0.12944424152374268,-0.09586755931377411,0.5473024845123291,-0.057271625846624374,0.3792927861213684,-0.20296025276184082,0.012817591428756714,-0.2254028022289276,-0.09457500278949738,-0.15930303931236267,0.08708691596984863,-0.00752568244934082,0.2528599500656128,0.17256659269332886,-0.006495118141174316,0.28290805220603943,-0.14691802859306335,0.13477233052253723,-0.3155248463153839,-0.03454836830496788,-0.14394739270210266,0.5163928866386414,-0.11690106987953186,-0.5575875043869019,-0.29906100034713745,0.06940632313489914,-0.25958600640296936,0.18470506370067596,0.7077906131744385,-0.0006941258907318115,-0.05599721521139145,0.3992398679256439,-0.14945518970489502,0.41748619079589844,0.3695994019508362,-0.18946367502212524,-0.13322067260742188,0.05911007151007652
CN,0.13585029542446136,0.2261645644903183,-0.4349239766597748,0.3031193017959595,-0.014222979545593262,0.13224172592163086,0.3683851957321167,0.06819795072078705,-0.05937068164348602,0.2875101566314697,-0.06333144009113312,-0.13543468713760376,-0.02483178675174713,0.48823797702789307,0.7300397753715515,0.05862623453140259,0.5170594453811646,-0.3490017056465149,0.2671254277229309,-0.11775472015142441,0.37105488777160645,-0.09904800355434418,0.12364157289266586,-0.10345107316970825,-0.7663273215293884,-0.18134860694408417,0.3289286494255066,0.22585710883140564,-0.36959367990493774,-0.47758930921554565,0.1681777834892273,0.28808146715164185,-0.34537845849990845,0.01112058013677597,0.009782195091247559,-0.12927064299583435,0.21501970291137695,-0.14055004715919495,0.15542654693126678,-0.22801701724529266,-0.06191418692469597,0.03081996738910675,0.6090396642684937,0.36797428131103516,0.03116639517247677,0.18082576990127563,0.09635339677333832,-0.17661979794502258,0.1471049189567566,-0.12988601624965668,-0.29171431064605713,-0.08256715536117554,0.19660550355911255,-0.11637924611568451,-0.41949981451034546,0.47102388739585876,-0.10326223075389862,0.2058965414762497,0.3105643391609192,-0.11214756965637207,-0.2098507583141327,0.03794662281870842,-0.10469754040241241,-0.23135781288146973,0.4296466112136841,-0.009435336105525494,0.30711793899536133,0.0925413966178894,0.42906638979911804,-0.39858946204185486,-0.18305978178977966,0.009035846218466759,0.38970744609832764,0.42142003774642944,0.25953686237335205,-0.009646078571677208,0.3583570718765259,0.5817104578018188,-0.1390800029039383,0.3325659930706024,-0.11163133382797241,-0.1393999457359314,0.06680967658758163,0.12486444413661957,-0.12437738478183746,-0.1046663373708725,-0.1798478066921234,-0.009456595405936241,-0.025765221565961838,-0.09498360008001328,0.6172885894775391,-0.11380988359451294,0.0438985675573349,0.38536685705184937,0.09385933727025986,0.15643545985221863,0.3811146914958954,-0.14298121631145477,0.027193984016776085,-0.06320430338382721
C,0.17188042402267456,0.4916435182094574,-0.04973432421684265,0.32191744446754456,0.16542401909828186,0.33438625931739807,0.26099884510040283,-0.05212482810020447,0.4008410573005676,0.3255535662174225,0.4771958589553833,0.011932820081710815,0.38178518414497375,-0.07480937242507935,0.5089558362960815,0.2559606432914734,-0.010353684425354004,-0.24526917934417725,0.13008445501327515,-0.013552188873291016,0.3696475327014923,0.1839914619922638,-0.2644139528274536,0.24532310664653778,-0.4239135980606079,0.23623642325401306,0.37520572543144226,-0.1454688459634781,-0.5752899646759033,-0.5035036206245422,0.5930397510528564,0.45079103112220764,-0.2245871126651764,0.37536200881004333,0.34057241678237915,-0.27662423253059387,0.16734473407268524,0.09906978160142899,0.4587627947330475,-0.16698484122753143,0.09104834496974945,-0.10230717062950134,0.375645250082016,0.17813482880592346,0.1727551966905594,0.0635301023721695,0.34555742144584656,0.1039944440126419,-0.2338661402463913,0.0032848864793777466,-0.4335096478462219,-0.37253671884536743,-0.20519497990608215,0.20903614163398743,-0.176179438829422,0.19262297451496124,-0.1730787754058838,-0.19228796660900116,-0.1709819734096527,-0.3566376268863678,0.10313093662261963,0.049735311418771744,0.4168299734592438,0.35860785841941833,0.5464022159576416,0.1977483332157135,0.4356321096420288,-0.35001927614212036,0.17424564063549042,-0.3723723888397217,0.027463648468255997,0.19856034219264984,0.261073499917984,0.09847673773765564,0.5697705745697021,0.18053540587425232,0.3159075975418091,0.40500855445861816,-0.29567015171051025,0.25612449645996094,-0.4755055010318756,-0.04492879658937454,0.1500622183084488,0.5115306377410889,0.021629437804222107,0.32633912563323975,-0.23825180530548096,-0.19698035717010498,-0.09850332140922546,-0.1003664880990982,0.741188645362854,-0.041642606258392334,0.16113309562206268,0.34530022740364075,0.041167110204696655,0.4793100953102112,0.25198638439178467,-0.28587815165519714,0.11465886235237122,-0.3483356237411499
</s>,0.38669413328170776,-0.3031702935695648,0.43858781456947327,-0.36982250213623047,-0.05918014422059059,0.24950022995471954,0.16632893681526184,-0.05671674758195877,0.4920486509799957,-0.3278430700302124,-0.14949195086956024,-0.001483116764575243,-0.1569097638130188,-0.006733993999660015,0.2725934386253357,0.05424480885267258,0.13100197911262512,0.030518893152475357,-0.09085205942392349,-1.2400046586990356,0.7076188921928406,0.3801654875278473,0.0007897171308286488,-0.21993008255958557,0.4127151668071747,-1.473990559577942,-0.06029420718550682,0.39384666085243225,-0.40570247173309326,-0.2316267341375351,-0.14264658093452454,-0.07068417221307755,0.9060373306274414,-0.5101640224456787,0.9714659452438354,-0.3812456429004669,0.18067672848701477,-0.5916855931282043,0.27548038959503174,-0.13201572000980377,-0.6881490349769592,0.3450893461704254,0.06854777783155441,0.35776135325431824,0.31695303320884705,-0.039528898894786835,-0.6202342510223389,-0.19299562275409698,0.499172180891037,0.40059328079223633,-0.5947396755218506,-0.5125584006309509,-0.9110797643661499,1.3066215515136719,0.6012735366821289,0.03386421874165535,-0.055527351796627045,-0.8644336462020874,0.3411270081996918,0.690031111240387,-0.03592498227953911,0.3110864758491516,-0.24980796873569489,0.28618156909942627,-0.9687767624855042,-0.22375039756298065,-0.5857781171798706,0.22008393704891205,-0.08198750764131546,-0.1225055679678917,-0.18757127225399017,1.1160844564437866,-0.1310834437608719,-0.3064919710159302,-0.98247230052948,1.0127372741699219,-0.28538253903388977,-0.08181546628475189,0.10894766449928284,-0.084795743227005,0.7563914656639099,-0.18721869587898254,-0.020783158019185066,-0.3365525007247925,0.28471681475639343,0.25480788946151733,0.8477365970611572,0.27136215567588806,1.2919939756393433,0.4875510632991791,-1.13975191116333,-0.6200113296508789,-0.07797739654779434,-0.6160286664962769,-0.47354060411453247,-0.2535364329814911,-0.6485770344734192,0.576038122177124,-0.28523877263069153,1.291926383972168
C=O,-0.028826236724853516,0.6185992956161499,0.07521721720695496,0.3478691279888153,0.27089428901672363,0.03132209554314613,-0.2010977566242218,0.3891536295413971,0.09108126163482666,0.019888170063495636,-0.47089049220085144,0.09303297102451324,-0.19751229882240295,0.17899076640605927,0.4418429732322693,0.09823927283287048,0.6557419896125793,-0.7810747623443604,0.44375714659690857,0.36112940311431885,0.25116825103759766,-0.2537253201007843,0.25771814584732056,0.307295560836792,-0.38622111082077026,0.15955643355846405,0.38157904148101807,-0.04702906683087349,0.05420758202672005,-0.057679563760757446,0.46199166774749756,0.18160104751586914,-0.31048208475112915,0.3554724156856537,-0.21612708270549774,0.29071521759033203,0.10000927001237869,0.044826507568359375,0.15350905060768127,0.3165871500968933,0.2107284814119339,-0.12416556477546692,0.24126920104026794,0.6122241616249084,0.03602539002895355,-0.04141761362552643,0.2841724157333374,-0.07628574967384338,0.3657921552658081,0.04842561483383179,-0.05348101258277893,0.3842637538909912,0.4043949842453003,-0.11455698311328888,0.22732453048229218,0.04039628803730011,-0.20606358349323273,0.044551119208335876,0.5347438454627991,-0.10362021625041962,-0.7283450365066528,-0.46667933464050293,-0.04306577891111374,-0.08692900836467743,0.8546502590179443,-0.1401347517967224,0.14817452430725098,0.16845062375068665,0.3560788631439209,-0.4012349843978882,0.06705495715141296,0.18077711760997772,0.13694149255752563,0.699481725692749,0.29579299688339233,0.02923126518726349,0.5564885139465332,0.3609910011291504,-0.17938664555549622,-0.07068565487861633,-0.2983049750328064,-0.19906948506832123,-0.21576234698295593,0.5257045030593872,-0.04608902335166931,-0.32209205627441406,-0.14677119255065918,-0.1370796263217926,-0.04561338573694229,0.04476190358400345,1.0272470712661743,0.32476261258125305,-0.377694308757782,0.6013607978820801,-0.2585723400115967,0.3190459609031677,0.05462518334388733,-0.25375497341156006,-0.23535782098770142,-0.15542452037334442
C1=CC=CC=C1,0.10433916747570038,0.49310702085494995,-0.31720995903015137,0.17516332864761353,0.3037710189819336,0.1910807341337204,0.3678972125053406,-0.03285399079322815,-0.1064952164888382,0.24278435111045837,0.029757408425211906,0.14499539136886597,0.05450653284788132,0.2045804262161255,0.19648048281669617,0.4482143819332123,0.22431564331054688,-0.1067456305027008,-0.23392364382743835,0.3601621091365814,0.4335193634033203,0.29749739170074463,-0.36385130882263184,-0.41394278407096863,-0.267581582069397,0.4108351469039917,0.41170570254325867,0.04873533546924591,-0.5216830372810364,-0.3319244086742401,0.20906484127044678,0.5705180168151855,-0.3206573724746704,0.14352887868881226,-0.10796445608139038,-0.08063119649887085,0.4129558801651001,-0.01848231814801693,0.016629979014396667,0.2018672078847885,0.02671487256884575,0.04906855523586273,0.3347420394420624,0.4386321008205414,-0.04429461807012558,0.25284311175346375,0.1724545806646347,0.15482409298419952,-0.03769443556666374,-0.3427811563014984,0.1268862634897232,0.29056644439697266,0.19719378650188446,-0.19314801692962646,0.3839125335216522,-0.18342727422714233,-0.09910016506910324,0.32014304399490356,-0.09699936211109161,-0.01380572747439146,0.06945398449897766,-0.37678825855255127,0.23743781447410583,-0.2820861339569092,0.23769354820251465,-0.24689733982086182,0.33507952094078064,-0.24837438762187958,-0.18612979352474213,-0.3647300601005554,0.2153215855360031,-0.2947484850883484,-0.10766661167144775,-0.4173102378845215,0.170127272605896,0.1995031088590622,-0.05945234000682831,0.2381831407546997,-0.18185153603553772,0.4857262372970581,0.18597519397735596,0.6462393999099731,-0.08204673230648041,0.5233772993087769,-0.13290812075138092,0.17060065269470215,-0.40553101897239685,-0.010344408452510834,0.06598693132400513,-0.09167163074016571,0.7487706542015076,0.558975875377655,0.3305332064628601,0.26481884717941284,0.4169992208480835,0.6724581718444824,0.2130368947982788,-0.09100528061389923,-0.0836668312549591,-0.5213781595230103
CO,-0.011926214210689068,0.8466967940330505,0.12766596674919128,0.1664399802684784,0.2664905786514282,0.6930080652236938,0.01356484554708004,0.11683875322341919,-0.0370093397796154,-0.15776951611042023,-0.8310078382492065,-0.169617161154747,0.4725010395050049,-0.31299418210983276,-0.10339968651533127,-0.5615179538726807,0.3315051794052124,-0.2890397906303406,0.46447134017944336,0.04294808954000473,0.1181241124868393,0.3550419807434082,-0.1237679123878479,-0.017422020435333252,-0.8540005683898926,0.36076557636260986,0.06312185525894165,-0.42016109824180603,-0.05212874710559845,-0.4025803208351135,0.9867009520530701,0.3410802483558655,-0.5011632442474365,0.5650472044944763,0.4754754900932312,-0.058508120477199554,0.10790049284696579,0.6399894952774048,0.30419594049453735,0.2239876240491867,-0.3434804677963257,-0.2619214355945587,0.45145344734191895,0.9766016006469727,0.19862905144691467,0.06390523910522461,-0.024663656949996948,0.06841139495372772,-0.03962168097496033,-0.2699769139289856,0.2573584318161011,0.3309784531593323,-0.031882673501968384,0.020935814827680588,0.20365190505981445,-0.08546672761440277,-0.1322716921567917,0.08253377676010132,0.06813131272792816,-0.41954919695854187,-0.12028934806585312,-0.25394973158836365,-0.5482044219970703,0.20596890151500702,0.6025111079216003,0.15590903162956238,0.6692239046096802,-0.08905055373907089,0.426084041595459,0.41588127613067627,-0.22657394409179688,0.46172094345092773,0.09423315525054932,0.3539031147956848,0.027396101504564285,0.5642532706260681,-0.001063525676727295,0.08482654392719269,-0.41310644149780273,0.18030297756195068,-0.29817911982536316,-0.18758103251457214,-0.1044888123869896,0.2746674418449402,-0.05108284950256348,-0.2889704406261444,-0.27340900897979736,0.21382522583007812,-0.580003023147583,0.4909493923187256,0.7835450172424316,0.18708327412605286,0.2647055983543396,0.14124074578285217,0.020590275526046753,0.2215176671743393,-0.5080610513687134,-0.2513585090637207,0.27244535088539124,-0.05875474214553833
CF,-0.11961731314659119,0.507189154624939,-0.50873202085495,0.5099465250968933,-0.07629457861185074,-0.040152519941329956,0.31162166595458984,0.19247350096702576,0.4946663975715637,0.44106924533843994,-0.3735043406486511,-0.3427777886390686,0.31368324160575867,0.5623859763145447,0.14884483814239502,-0.14147600531578064,0.6297241449356079,-0.49615880846977234,0.705784022808075,-0.08368642628192902,0.05215328931808472,-0.3049700856208801,-0.3329468369483948,0.2247091382741928,-0.6568089723587036,0.0073320940136909485,-0.033526524901390076,-0.20818910002708435,-0.027130495756864548,-0.21011656522750854,0.45078715682029724,0.3392522931098938,-0.3159407377243042,0.03315018117427826,0.35340428352355957,0.13119497895240784,0.3257687985897064,0.16401243209838867,-0.09207829087972641,0.06871505081653595,-0.02241959236562252,0.003852352499961853,0.662211537361145,0.42379245162010193,0.409738153219223,0.024768857285380363,0.20973919332027435,0.09000198543071747,-0.22125469148159027,-0.6994647979736328,0.0791669487953186,0.3018665909767151,0.04933949559926987,-0.11598312854766846,-0.36933577060699463,0.31668710708618164,-0.04125933349132538,0.14617055654525757,-0.11866312474012375,-0.4634511172771454,-0.24511155486106873,-0.3390313982963562,-0.05210840329527855,0.19146446883678436,0.5643000602722168,0.12441465258598328,0.5325835943222046,0.13622036576271057,0.2325950562953949,-0.17030489444732666,-0.1963474154472351,0.12799356877803802,0.6877197027206421,0.853419303894043,0.12094449996948242,0.8665441274642944,0.5124835968017578,0.28822723031044006,-0.3697165846824646,0.5305954217910767,-0.006407718174159527,0.0706188976764679,-0.03519102558493614,0.5395019054412842,-0.1961362063884735,-0.021732619032263756,0.1545802354812622,0.03287825733423233,-0.023503398522734642,0.7336585521697998,0.2195226550102234,-0.04007306694984436,-0.3620482385158539,0.10625907778739929,-0.3603387773036957,0.0845666378736496,0.27196329832077026,-0.5590944290161133,-0.03858151286840439,-0.13268771767616272
N,-0.08132196217775345,-0.44046226143836975,0.09892261028289795,1.0010026693344116,0.3378962278366089,-0.340278685092926,0.9672598838806152,0.3404615521430969,-0.3097401559352875,-0.09183332324028015,-0.4172492027282715,-0.37115100026130676,0.1069350615143776,0.10024583339691162,0.5051350593566895,0.4812873303890228,0.25856173038482666,-0.4176444709300995,0.5674686431884766,0.17972895503044128,0.0868573933839798,-0.19596204161643982,-0.10145199298858643,-0.01430925726890564,-0.7407611608505249,-0.1801115870475769,0.4827003479003906,-0.2811908721923828,-0.8036699295043945,0.1619754433631897,0.656015157699585,0.1056479960680008,-0.186292827129364,0.06913933157920837,0.6646884083747864,-0.677146315574646,-0.03047803044319153,0.5727275609970093,0.15312469005584717,0.5317888259887695,0.3701261281967163,-0.4607524275779724,0.36346590518951416,-0.2478802353143692,0.15611505508422852,0.39360734820365906,0.23508836328983307,0.20188435912132263,0.5562496185302734,-0.3714393377304077,-0.11734209954738617,-0.5020325183868408,0.311774879693985,-0.13340091705322266,0.01152060367166996,0.5351474285125732,0.20921486616134644,-0.40998518466949463,0.0031108856201171875,-0.015569925308227539,-0.13293254375457764,-0.5115796327590942,0.4038020670413971,0.06493335962295532,0.555363118648529,-0.2883002758026123,-0.19393134117126465,-0.14474719762802124,0.16983693838119507,-0.76796555519104,-0.7961469292640686,0.05491691827774048,0.19375409185886383,0.03346303105354309,-0.42850059270858765,0.452566534280777,0.9569492340087891,0.12235167622566223,-0.28280386328697205,1.186146855354309,0.3449974060058594,0.28837212920188904,-0.28417477011680603,-0.0705392062664032,-0.9789337515830994,0.7877967357635498,0.7348190546035767,-0.19665604829788208,0.4012543261051178,0.7877750992774963,0.027623921632766724,0.3085092604160309,-0.10523607581853867,0.18652987480163574,0.04122424125671387,0.02426174283027649,-0.6468014717102051,0.21994751691818237,0.32079413533210754,-0.4331290125846863
CS,0.6507599353790283,-1.1663037538528442,-0.008900146000087261,0.7272869348526001,0.43008339405059814,-0.41753411293029785,1.1572649478912354,0.2138909548521042,-0.2998902499675751,0.5565412044525146,-0.37368273735046387,-0.24975721538066864,0.6135271787643433,0.47777998447418213,0.9206103682518005,-0.0815361812710762,-0.09816138446331024,0.10492540895938873,0.20768937468528748,-0.049084629863500595,-0.5466437339782715,-0.41253721714019775,-1.155602216720581,0.045692503452301025,-0.3515014052391052,-0.034351348876953125,-0.8749326467514038,-0.01082948874682188,0.11810391396284103,0.43233156204223633,-0.28786641359329224,0.06284509599208832,-0.35323449969291687,-1.3987727165222168,0.8120218515396118,-1.2858169078826904,0.005945007316768169,-0.06603579223155975,-0.9895445704460144,-0.9227852821350098,-0.6370832920074463,0.10001103579998016,0.3187485933303833,-0.023042520508170128,0.15282557904720306,0.4609731137752533,-0.4011874198913574,-0.2736928462982178,0.2987698018550873,-0.8502671122550964,0.5432626605033875,0.3817905783653259,-0.022384773939847946,-0.7871972322463989,-0.007482742425054312,0.5731768608093262,0.6325771808624268,-0.96808260679245,-0.2762184143066406,-0.4454985558986664,0.7849994897842407,0.023590903729200363,0.46821969747543335,0.3355350196361542,-0.4549844264984131,-1.1732637882232666,0.2770571708679199,0.189453125,-1.134035348892212,-0.3874514102935791,-0.8752093315124512,-0.1169353723526001,0.4291865825653076,-0.24379508197307587,-0.44171327352523804,0.6724492907524109,0.5098722577095032,0.04854388162493706,-0.049871306866407394,0.9463405013084412,1.9563230276107788,0.5131937265396118,-0.7294272184371948,-1.1967618465423584,-1.080855131149292,0.8503462672233582,0.5787653923034668,0.280017614364624,-0.17895925045013428,0.7875468134880066,0.04083327576518059,-0.06343024969100952,0.11540523171424866,0.6673398017883301,0.10374617576599121,-0.7093042135238647,0.04944319650530815,0.08634959161281586,0.31781551241874695,-0.48147711157798767
S,-0.17695288360118866,-1.337865948677063,0.7154257297515869,1.4038269519805908,-0.9574905037879944,-1.8873722553253174,1.2242801189422607,0.06494299322366714,-0.05794316530227661,1.2817531824111938,-0.5767027139663696,-0.9289222359657288,1.0944507122039795,0.5359280705451965,-1.040076494216919,-0.3153590261936188,-0.21137872338294983,0.8093820214271545,-0.9007762670516968,-0.6811526417732239,0.3038821816444397,0.579414963722229,-0.5565754175186157,-1.7306323051452637,0.792001485824585,-0.5113955736160278,1.173518180847168,-1.4896948337554932,-0.4179847538471222,1.7639178037643433,-1.03195059299469,-0.28723183274269104,0.7641074061393738,-1.2793540954589844,0.982639491558075,-0.7747762203216553,0.25935137271881104,-0.7338200211524963,-1.1847381591796875,0.12313050031661987,-0.5599421858787537,0.4205392003059387,0.04625248163938522,0.7657109498977661,-0.15300506353378296,0.7198699712753296,-0.035644665360450745,0.1799134463071823,0.11691765487194061,-0.9747326374053955,-0.34050020575523376,0.1676587611436844,-1.205987811088562,-0.8035016655921936,-0.8163458108901978,0.2530561089515686,-0.4297911822795868,0.24556906521320343,-0.923326849937439,-0.1433543860912323,0.19241845607757568,-1.1995410919189453,0.9338263273239136,0.1945362240076065,-0.5479679703712463,-1.1756480932235718,-0.4784664511680603,0.237912118434906,-0.5126118659973145,-0.9333255290985107,-0.2229682207107544,-0.2887505888938904,-0.3050388693809509,0.3481121361255646,-0.070995032787323,0.6504918336868286,0.07400906085968018,-0.9506582021713257,-1.3889288902282715,2.530165672302246,1.1448705196380615,0.22555097937583923,0.32882601022720337,-1.2913142442703247,-0.5586051940917969,1.6347343921661377,0.09982705116271973,-0.7681899070739746,-0.9492720365524292,0.702151894569397,-0.6036885976791382,0.9787919521331787,1.0579191446304321,-0.586855947971344,1.0905733108520508,-1.4917770624160767,0.5689020752906799,1.2989709377288818,1.6157227754592896,-1.099888563156128
O=S,0.6877881288528442,-0.6790763735771179,0.09262748062610626,1.4347710609436035,-0.5198211669921875,-1.2995800971984863,0.739865779876709,0.7620030045509338,0.43491917848587036,1.7530152797698975,-0.839942455291748,-0.03877171128988266,0.9484108686447144,0.26244792342185974,0.3678131699562073,-0.4378052353858948,-1.07670259475708,0.5544444918632507,0.35400766134262085,-0.7314707636833191,0.012390613555908203,-0.4347473978996277,-0.5317413806915283,-0.4466264843940735,0.5070645809173584,0.5409641861915588,-0.1650862842798233,-0.07480460405349731,-0.22709889709949493,0.6370306015014648,-0.48165106773376465,0.11777772009372711,-1.5699677467346191,-0.5947322845458984,0.7805610299110413,-0.7915176153182983,-0.4392003118991852,-0.5463934540748596,-1.7844654321670532,-0.1305924952030182,-0.19928160309791565,0.8407112956047058,-0.5817732214927673,0.5254294276237488,-0.3955172598361969,0.4402526021003723,-0.3241879940032959,0.9526857733726501,-0.007497996091842651,-0.4006318747997284,0.31774336099624634,0.4267529547214508,-0.487371563911438,-1.6944001913070679,0.4949813783168793,0.7737053632736206,0.024936996400356293,-0.6698189377784729,-0.3948485851287842,0.7890190482139587,0.29736411571502686,-0.2966538965702057,0.8799529075622559,-0.5173759460449219,0.13078764081001282,-1.9018282890319824,-0.09069731086492538,0.7204189300537109,-1.579582691192627,-0.48406046628952026,-0.8777164220809937,-0.7995038032531738,-0.8312077522277832,-0.31300824880599976,-0.8640751838684082,1.0114672183990479,0.6943708658218384,-0.46456342935562134,-0.6237165927886963,1.7082170248031616,1.2597417831420898,0.9472724795341492,0.042638808488845825,-1.7827352285385132,-1.3186410665512085,2.3721086978912354,0.7842971682548523,0.1587294638156891,-0.48563647270202637,0.8382056951522827,0.4243878722190857,0.45350751280784607,0.1683454066514969,-0.503635823726654,0.9333042502403259,-1.5426156520843506,0.16631200909614563,0.5033633708953857,1.2801913022994995,-1.390824317932129
C1=C[NH]N=C1,0.14620108902454376,0.02388734184205532,-0.0752643495798111,0.6926234364509583,-0.23789188265800476,0.1631580889225006,0.3937321603298187,-0.04612806439399719,0.1828908622264862,0.23373578488826752,-0.09877027571201324,0.02031630277633667,0.16218627989292145,0.29991865158081055,0.45586326718330383,0.35641029477119446,0.05680520087480545,-0.23276515305042267,0.6058210730552673,0.07241813093423843,0.5138097405433655,0.41144421696662903,-0.11161205917596817,-0.15239402651786804,-0.6051046252250671,0.3605319559574127,0.5967023968696594,-0.03490397334098816,-0.3560710847377777,-0.21533739566802979,0.529019832611084,0.49504968523979187,-0.505962610244751,0.558146595954895,0.24121449887752533,-0.3734877109527588,0.29193300008773804,-0.032485295087099075,0.25474852323532104,0.08867716044187546,0.07890363782644272,-0.06024691462516785,0.506999671459198,0.4231921136379242,-0.1858939528465271,0.3520122170448303,0.1499743014574051,0.1772584468126297,0.2958466708660126,-0.29051217436790466,0.07882427424192429,-0.03858537971973419,0.27618807554244995,0.46570101380348206,0.3094934821128845,0.25334635376930237,0.035949066281318665,0.30253538489341736,-0.21225687861442566,-0.27389395236968994,0.14871333539485931,-0.5562565326690674,0.3047350347042084,-0.0701807290315628,0.3661177158355713,-0.1190212070941925,0.03845043107867241,-0.6258116960525513,0.08999382704496384,-0.4673610031604767,-0.28119999170303345,0.3569832742214203,0.13083532452583313,0.3004167079925537,0.09345605224370956,0.4913385510444641,0.6120570302009583,0.056583818048238754,-0.23215565085411072,0.4253796637058258,-0.2636207044124603,0.39540988206863403,-0.44470176100730896,0.577925443649292,-0.10249476879835129,0.31522274017333984,0.367633581161499,-0.29449406266212463,0.166344553232193,-0.4651103615760803,1.0309734344482422,0.22080856561660767,0.08158757537603378,0.42355310916900635,0.00734120886772871,0.5314098596572876,0.20125988125801086,-0.08584612607955933,0.0640159472823143,-0.09421083331108093
NS,0.5582678318023682,-0.2800144553184509,0.25505703687667847,1.0028433799743652,-1.0900533199310303,-0.8157576322555542,0.5173839330673218,0.33731305599212646,0.23960837721824646,1.3288896083831787,-0.5831710696220398,0.19829058647155762,0.697752833366394,0.7619385123252869,0.7824193239212036,0.042711786925792694,-0.7580631971359253,0.4145723283290863,0.9032266139984131,-0.7898552417755127,0.11135383695363998,-0.36283940076828003,-0.877372145652771,-0.6481064558029175,0.3026329278945923,0.29520654678344727,0.14477774500846863,-0.44120246171951294,-0.022578388452529907,0.531228244304657,-0.7707988619804382,0.5798511505126953,-1.1927368640899658,-0.3502763509750366,0.9133743047714233,-0.41693469882011414,-0.5951718091964722,-0.5207443237304688,-0.9725620150566101,-0.0705232247710228,-0.20093409717082977,1.1925339698791504,-0.17800182104110718,0.09412908554077148,-0.708751380443573,0.2203136384487152,-0.7781214118003845,0.046099953353405,-0.29392510652542114,-0.19765159487724304,0.3199465870857239,-0.03358439728617668,-0.09891626238822937,-0.33624765276908875,0.48911333084106445,0.7952431440353394,-0.3126012682914734,-0.8779246211051941,-0.42633020877838135,0.5785788297653198,0.6985539197921753,-0.14721107482910156,0.3722594380378723,-0.14177191257476807,0.10275618731975555,-2.0793862342834473,0.3329847753047943,0.4885443449020386,-1.3776466846466064,-0.6192371845245361,-0.3282926082611084,-1.517119288444519,-0.08125573396682739,0.049496911466121674,-0.2770097255706787,0.5133856534957886,0.6846879720687866,0.37066850066185,-0.36642521619796753,0.9596835970878601,1.6961112022399902,0.40922126173973083,0.1807122677564621,-1.763258934020996,-1.1580002307891846,2.0390231609344482,0.4576984643936157,0.2531965672969818,0.48859161138534546,0.2782272696495056,0.5638142824172974,-0.5053412318229675,-0.357548326253891,0.006623963825404644,-0.05547920987010002,-0.6946396827697754,0.5916198492050171,0.5232133865356445,1.5783202648162842,-0.9324490427970886
C1=CC=NC=C1,-0.2961028218269348,0.3363003134727478,-0.1647433638572693,0.5555447340011597,-0.19368670880794525,0.11797536909580231,0.5567626357078552,-0.4681544303894043,0.2314283549785614,0.31513017416000366,-0.06611432135105133,-0.13667279481887817,0.0736931562423706,-0.10446208715438843,0.27578088641166687,0.826217770576477,0.12957917153835297,-0.16015778481960297,0.028605565428733826,0.19572895765304565,0.5018088817596436,0.4562545418739319,-0.39601466059684753,0.11482241749763489,-0.4529262185096741,0.3608759641647339,0.37496718764305115,-0.09329816699028015,-0.512843668460846,-0.6963338255882263,0.3372421860694885,0.5722354054450989,-0.2436286062002182,0.5505446195602417,-0.16171950101852417,-0.22706304490566254,0.6216781139373779,0.2428056299686432,0.16468864679336548,0.27403873205184937,0.08644594997167587,0.15485340356826782,0.8547147512435913,0.750403881072998,0.23791854083538055,0.5714915990829468,0.04328196868300438,-0.2884542644023895,-0.08536684513092041,0.0022023767232894897,-0.049451928585767746,0.0645950436592102,0.5606078505516052,-0.12274705618619919,0.15612193942070007,0.04549062252044678,-0.059198834002017975,0.4542386531829834,-0.05452726408839226,-0.3138570189476013,-0.15405939519405365,-0.2906716465950012,0.004137502517551184,-0.16536185145378113,0.3194931745529175,-0.3607315421104431,0.2999250888824463,-0.6125682592391968,-0.20071542263031006,-0.04833584278821945,-0.12260650843381882,-0.16388973593711853,0.04670923575758934,0.0042461855337023735,0.4630267024040222,0.33368295431137085,0.23655888438224792,0.37611061334609985,-0.21680259704589844,0.049721501767635345,-0.14672383666038513,0.28366994857788086,-0.252958208322525,0.12725193798542023,-0.17879173159599304,-0.0035921037197113037,-0.34086698293685913,-0.1582590937614441,-0.10105141997337341,-0.10067429393529892,0.754464864730835,0.14966212213039398,0.16510742902755737,0.34100863337516785,0.22533836960792542,0.6977960467338562,0.49731940031051636,0.20269981026649475,-0.016094256192445755,-0.20680581033229828
C1CCNCC1,0.2595244348049164,-0.10934024304151535,-0.7225894927978516,0.18845918774604797,-0.4838499426841736,0.039619773626327515,0.5582715272903442,0.10812927782535553,-0.2878032922744751,0.2072155624628067,0.17773239314556122,-0.37595638632774353,0.18398520350456238,0.40870901942253113,0.5951245427131653,0.10867626219987869,-0.25524964928627014,-0.2791360020637512,0.14894671738147736,0.028248051181435585,-0.006568127311766148,0.23918618261814117,-0.30094844102859497,-0.2586353123188019,-0.7522501349449158,0.06452243775129318,0.3623919188976288,-0.19569721817970276,-0.7922336459159851,-0.466763973236084,0.25393322110176086,0.34070077538490295,-0.2084331512451172,0.14414487779140472,-0.15843410789966583,-0.5863085985183716,0.7381812930107117,0.5098922252655029,0.21139894425868988,0.05165921896696091,0.18249021470546722,-0.36476969718933105,0.8027070760726929,0.3982786238193512,0.330659419298172,0.3873979151248932,0.2283790111541748,0.03524481877684593,0.025809818878769875,-0.03038789890706539,-0.13267940282821655,-0.4397233724594116,0.16509991884231567,0.06671006232500076,-0.1548694521188736,0.5096476078033447,-0.1406095325946808,0.09565965086221695,-0.32965385913848877,-0.4776039123535156,0.033833496272563934,-0.25635841488838196,0.026045899838209152,-0.5842504501342773,0.04517822340130806,-0.3925116956233978,0.31482282280921936,-0.19000013172626495,0.6190674304962158,-0.5802861452102661,-0.40810054540634155,-0.12914298474788666,0.08109791576862335,0.0855771005153656,0.03272349387407303,0.1898646354675293,-0.16988816857337952,0.23830576241016388,-0.3560411036014557,0.5578974485397339,0.028021186590194702,0.14405955374240875,-0.39481908082962036,0.44363370537757874,-0.2727809548377991,0.09611960500478745,-0.20520135760307312,-0.22704662382602692,-0.28205105662345886,0.2707105576992035,0.7063205242156982,0.5346174240112305,0.36046871542930603,0.13844645023345947,0.10853935778141022,0.3252283036708832,0.1226765587925911,-0.12223904579877853,0.18658851087093353,-0.21146221458911896
CCl,-0.2802264988422394,0.31438058614730835,-0.39186158776283264,0.7634041905403137,-0.1291850060224533,0.06563954800367355,0.19734103977680206,0.4662666916847229,0.13831397891044617,0.47524598240852356,-0.4909326434135437,-0.20371122658252716,0.14245013892650604,0.5876843929290771,0.005149081349372864,-0.19649338722229004,0.6288089156150818,-0.017977088689804077,0.17699994146823883,0.03734825924038887,0.11894262582063675,-0.2874338924884796,-0.6325374841690063,0.2519975006580353,-0.4856180250644684,0.2892138659954071,-0.4466676115989685,0.0926227867603302,-0.4775844216346741,-0.2062011957168579,0.8953603506088257,0.2752284109592438,-0.4485095143318176,-0.12809528410434723,0.1798376739025116,-0.14695215225219727,0.05708973854780197,-0.041344135999679565,0.1473335325717926,-0.031892336905002594,-0.03628446161746979,-0.0841563269495964,0.3732406198978424,0.6615545749664307,0.5253578424453735,-0.28617072105407715,0.008822660893201828,-0.025893881916999817,0.46330565214157104,-0.531914472579956,-0.12988096475601196,-0.06573005765676498,-0.14390164613723755,-0.23447154462337494,-0.8030150532722473,0.06459034979343414,-0.02403121255338192,0.015715153887867928,0.051681071519851685,-0.38963547348976135,-0.21259114146232605,-0.20893391966819763,0.2092665284872055,0.12362999469041824,0.625108540058136,-0.013501368463039398,0.2097298800945282,-0.01580169051885605,0.4732969105243683,-0.2605842053890228,0.011546947062015533,-0.7044427394866943,0.41207441687583923,0.2074202299118042,0.30429378151893616,0.4293753504753113,0.46244123578071594,0.6724578738212585,-0.17736296355724335,0.49588727951049805,0.11392039060592651,-0.15712948143482208,-0.28947925567626953,0.4513966143131256,0.1484929621219635,-0.24861380457878113,-0.18355776369571686,0.018339423462748528,-0.28111639618873596,0.35060954093933105,0.20957276225090027,0.038321878761053085,-0.20932722091674805,0.2970079183578491,0.10959653556346893,-0.19886472821235657,0.48502856492996216,-0.3278528153896332,-0.033528026193380356,0.16534481942653656
C1CCNC1,0.15625502169132233,0.06833472847938538,-0.3618028461933136,0.16678601503372192,-0.7376973032951355,0.1879393309354782,0.5932098031044006,0.27706319093704224,-0.25731146335601807,0.2137783318758011,0.24248671531677246,-0.3514595627784729,0.10190512984991074,0.1322530210018158,0.631498396396637,0.15539760887622833,-0.2788204848766327,-0.20859745144844055,0.0013077929615974426,-0.36090943217277527,0.43877917528152466,0.3361467123031616,-0.18055595457553864,-0.1527683585882187,-0.6714274883270264,0.24847126007080078,0.4446519911289215,-0.25554198026657104,-0.8543393611907959,-0.33897918462753296,0.37264305353164673,0.24228613078594208,-0.28780192136764526,0.15053269267082214,0.04101232439279556,-0.23788481950759888,0.4624210596084595,0.5918626189231873,0.2906753420829773,-0.20839311182498932,0.146874338388443,-0.3821883201599121,0.7575796246528625,0.1288505494594574,0.3789680004119873,0.5239269733428955,0.4883590638637543,-0.1965576559305191,-0.015112340450286865,-0.09083063900470734,0.1387173980474472,-0.36019566655158997,0.19219347834587097,0.18761499226093292,-0.36676451563835144,0.46325185894966125,-0.00737396627664566,0.2432253211736679,-0.3464484214782715,-0.4801301956176758,0.4505084455013275,-0.2504120469093323,0.11409181356430054,-0.49546194076538086,0.1561373919248581,-0.1291140913963318,0.3298019468784332,-0.11818821728229523,0.31212037801742554,-0.6228524446487427,-0.5412094593048096,0.05079437419772148,0.4969775080680847,0.07083413749933243,0.17993319034576416,0.22013360261917114,0.16389743983745575,0.28861698508262634,-0.463075190782547,0.31663742661476135,-0.22188325226306915,0.1808159053325653,-0.3790203928947449,0.4720129370689392,-0.22496230900287628,0.03827910125255585,-0.09515415877103806,-0.39870402216911316,-0.38876858353614807,0.11706668138504028,0.7302635908126831,0.4008864462375641,0.2126191407442093,0.15559454262256622,-0.08194173127412796,0.2873396873474121,0.30737876892089844,-0.19043083488941193,0.09789999574422836,-0.3187622129917145
C1=CSC=C1,0.8481402397155762,-0.14812657237052917,-0.2713477611541748,0.47355008125305176,0.06927948445081711,0.009353362023830414,0.5661630034446716,-0.19346801936626434,0.0741799995303154,0.4532310664653778,0.011553007178008556,0.057858627289533615,-0.33334073424339294,0.2899581491947174,0.7705908417701721,0.5702576637268066,0.509965717792511,0.18556497991085052,0.6527101397514343,-0.0881071537733078,0.35339412093162537,0.020484888926148415,-0.4236368238925934,-0.12578412890434265,-0.9302181601524353,0.5726661086082458,0.3738815188407898,-0.47736358642578125,-0.5332386493682861,-0.03720424696803093,0.1628868132829666,0.39999768137931824,0.05953433737158775,0.13635170459747314,0.12443723529577255,-0.20443223416805267,0.28687262535095215,0.21424482762813568,-0.1276412308216095,-0.26671549677848816,0.14405620098114014,-0.018694324418902397,0.667893648147583,0.39614447951316833,-0.14186036586761475,0.3513151705265045,-0.1298035830259323,0.4803779125213623,0.1135396882891655,-0.4183642864227295,0.3841334283351898,0.1404990404844284,-0.15345609188079834,-0.06162739917635918,0.23759572207927704,-0.037062253803014755,0.05171928554773331,-0.23860672116279602,0.25276270508766174,-0.2037847489118576,-0.0875626653432846,-0.5695117115974426,0.4766331613063812,-0.11441035568714142,0.30596327781677246,-0.5516065955162048,0.1372847557067871,-0.5618075728416443,-0.36246827244758606,-0.5435103178024292,-0.2305721789598465,-0.1685318797826767,0.3949110209941864,-0.019908536225557327,0.3036014139652252,0.21470169723033905,0.4501195549964905,0.029404619708657265,-0.39538562297821045,-0.024246014654636383,-0.15700088441371918,0.13606417179107666,-0.45465970039367676,0.14439289271831512,0.20383405685424805,0.007971799932420254,-0.5322152972221375,0.017002228647470474,0.14908532798290253,-0.24512962996959686,1.2469247579574585,0.5164301991462708,0.5088071227073669,0.6499029994010925,-0.4389283359050751,0.5769354701042175,0.07423090189695358,0.5923500657081604,0.043492626398801804,-0.02810579538345337
C1=CSC=N1,0.5663133263587952,0.41260576248168945,-0.45819908380508423,0.5551952719688416,-0.2900368869304657,0.12375570833683014,0.4391508102416992,-0.14001797139644623,0.2884751260280609,0.16048210859298706,0.11162041872739792,-0.1857079118490219,-0.07310899347066879,-0.0744457095861435,0.6995993256568909,0.48960980772972107,0.42537686228752136,0.04415198042988777,0.6750573515892029,-0.24287071824073792,0.35021886229515076,-0.003318584058433771,-0.4335019588470459,-0.1708831638097763,-0.6949123740196228,0.41377827525138855,0.6637033224105835,-0.3824058473110199,-0.5630265474319458,-0.2790137231349945,0.6969832181930542,0.7351937890052795,-0.029719948768615723,0.6982623338699341,0.19473834335803986,-0.06629613041877747,0.22843103110790253,0.004875981714576483,0.3447570502758026,-0.16906417906284332,-0.24278710782527924,-0.02384783700108528,0.4688764214515686,0.47044187784194946,0.03981390222907066,0.1233443170785904,0.006101697683334351,0.17282025516033173,0.26679250597953796,0.11674342304468155,0.08274122327566147,-0.26978999376296997,0.28676387667655945,0.3817079961299896,0.4693058133125305,0.33896490931510925,0.03722606226801872,0.012977580539882183,0.035199832171201706,-0.12799249589443207,0.1150127649307251,-0.2286786139011383,-0.06046266481280327,0.020059019327163696,0.5902923941612244,-0.1882767379283905,0.048900481313467026,-0.3238624632358551,0.267893522977829,-0.6643616557121277,-0.4382762610912323,0.27626296877861023,0.4194079041481018,0.15257947146892548,0.4362981915473938,0.3494519293308258,0.6544091701507568,0.5077791810035706,-0.503777027130127,0.23829293251037598,-0.20182643830776215,0.186696395277977,-0.041587863117456436,0.33516451716423035,0.13228167593479156,0.2516298294067383,-0.018490342423319817,-0.11914358288049698,-0.009958493523299694,-0.06264247745275497,0.7693364024162292,0.10619614273309708,-0.0009410261991433799,0.47815075516700745,-0.11975963413715363,0.6210237741470337,0.08984813839197159,-0.11667823046445847,0.5095045566558838,-0.25998255610466003
C#N,-0.2227376252412796,0.2900128662586212,-0.10328218340873718,0.5717769265174866,-0.11941137909889221,0.15762388706207275,0.02057032473385334,-0.04808788746595383,0.11273139715194702,0.0625225156545639,-0.019487034529447556,-0.28001171350479126,0.5093348622322083,0.3851284384727478,0.038089483976364136,-0.05450449883937836,0.6544130444526672,-0.11178474128246307,0.5482087731361389,-0.17002986371517181,-0.15322068333625793,-0.947155237197876,-0.06639862060546875,-0.14418856799602509,-0.5842331647872925,0.2372625321149826,0.33764952421188354,0.030390016734600067,-0.4174191951751709,-0.6195028424263,0.40382492542266846,0.3672451376914978,-0.45463213324546814,0.1975347399711609,0.9690475463867188,-0.6534705758094788,-0.14210161566734314,-0.20180682837963104,0.46016454696655273,-0.41504397988319397,-0.667168378829956,0.3265107274055481,0.6758026480674744,0.6408675909042358,0.45580029487609863,-0.008911028504371643,0.33949151635169983,0.1493581384420395,0.2983105778694153,-0.17987722158432007,0.2958361506462097,-0.14956606924533844,0.19862224161624908,-0.1426626741886139,-0.06382835656404495,0.30604904890060425,-0.3352835178375244,0.031151287257671356,0.32792603969573975,-0.6951562762260437,0.043398648500442505,-0.8701905012130737,-0.14064478874206543,0.6844193935394287,0.48451873660087585,0.20507201552391052,0.28344449400901794,0.2916242778301239,0.10160812735557556,-0.5090726613998413,-0.024228662252426147,0.021077975630760193,0.11166632175445557,0.5010846257209778,0.41624152660369873,0.9502220749855042,0.5545176267623901,0.3616976737976074,-0.39059773087501526,0.30307167768478394,-0.14033177495002747,-0.0652780681848526,-0.21854530274868011,0.2477719634771347,-0.1024361327290535,0.2989485263824463,0.07397674024105072,-0.0905349850654602,0.07389920204877853,0.32136693596839905,0.45929935574531555,-0.0505853146314621,0.14257873594760895,0.41201186180114746,-0.12686502933502197,0.15126430988311768,0.040545105934143066,-0.15012243390083313,0.059783533215522766,-0.209712952375412
C1CNCCN1,0.24510757625102997,-0.37695449590682983,-0.643980085849762,0.43719974160194397,0.06432129442691803,-0.18263861536979675,0.7770140171051025,-0.058748047798871994,-0.5625208020210266,-0.17141278088092804,-0.044738564640283585,-0.4279056191444397,0.27532193064689636,0.2748550772666931,0.45492592453956604,0.2903575897216797,-0.07571925222873688,-0.136844664812088,0.2016010880470276,-0.020914915949106216,0.21296162903308868,0.1342296451330185,-0.09782905876636505,-0.3428114950656891,-0.7295514941215515,0.1404224932193756,0.6134318113327026,-0.5055204629898071,-0.8355120420455933,-0.6349304914474487,0.5031251907348633,0.15932597219944,-0.316453218460083,0.1498747169971466,0.11871777474880219,-0.5560792684555054,0.6599166393280029,0.6008502840995789,0.0812777504324913,-0.28311586380004883,0.4811551868915558,-0.3277667462825775,0.859891951084137,0.26880231499671936,0.27265575528144836,0.5062210559844971,-0.1827726662158966,-0.059552114456892014,0.14912401139736176,0.19328981637954712,-0.4366411566734314,-0.359814316034317,0.17612974345684052,0.11456862837076187,-0.5062296986579895,0.435110479593277,0.1413375586271286,-0.04577916860580444,-0.43522849678993225,-0.3183424770832062,0.16671109199523926,-0.14821910858154297,-0.058597445487976074,-0.48347771167755127,0.14697712659835815,-0.14954370260238647,0.21903885900974274,-0.3679303228855133,0.4715535342693329,-0.38303691148757935,-0.730444610118866,-0.07651722431182861,0.1295858770608902,-0.07902655750513077,0.021100588142871857,0.2015833556652069,0.18078632652759552,0.17828378081321716,-0.3827761709690094,0.6747131943702698,0.009909480810165405,0.17980477213859558,-0.5816226005554199,0.654475748538971,-0.47467973828315735,0.11318380385637283,-0.02148210071027279,-0.07831381261348724,-0.27462098002433777,0.19600024819374084,0.6161682605743408,0.6157310009002686,0.22495879232883453,0.30267030000686646,-0.10919282585382462,0.32188114523887634,0.03457006439566612,-0.07877560704946518,0.04348614066839218,-0.5295293927192688
C1CC1,0.36258575320243835,0.13120190799236298,-0.37433451414108276,0.42682692408561707,-0.2374151647090912,0.5224592089653015,0.3066638112068176,-0.11373734474182129,-0.055570028722286224,0.493656724691391,0.13606642186641693,-0.298848420381546,-0.17586755752563477,0.3854624927043915,0.7849336862564087,0.5787888765335083,0.3773469924926758,-0.0747128501534462,0.006688445806503296,-0.11883781850337982,0.06836235523223877,0.2006765455007553,0.053855013102293015,0.05013960227370262,-0.7214415073394775,0.0463322252035141,0.6644623279571533,-0.1467437744140625,-0.5787553191184998,-0.4624107778072357,0.5726176500320435,0.694903552532196,-0.2557150721549988,-0.39381688833236694,0.09891676157712936,-0.11892102658748627,0.934673547744751,-0.10070735216140747,-0.06419196724891663,-0.43831130862236023,-0.018742283806204796,0.015288065187633038,1.0294795036315918,0.554397463798523,0.38598448038101196,0.6552464365959167,0.21425756812095642,-0.4384163022041321,-0.13528046011924744,-0.1980808973312378,-0.3149532377719879,-0.3449656367301941,0.05445992201566696,-0.02265813574194908,-0.1777397096157074,0.21622876822948456,0.051065556704998016,0.22919046878814697,-0.33489274978637695,-0.6645943522453308,0.07170149683952332,-0.2276225984096527,0.19978120923042297,-0.2023424208164215,0.48412203788757324,-0.0619022473692894,-0.020599156618118286,0.08722899854183197,-0.047598324716091156,-0.7402429580688477,-0.37830719351768494,-0.007182624191045761,0.16046297550201416,0.3047575056552887,0.7791499495506287,0.054264746606349945,0.1363850235939026,0.3456870913505554,-0.17495065927505493,0.35950565338134766,0.2362326681613922,0.028613746166229248,-0.13917133212089539,0.08581214398145676,-0.08830060809850693,-0.20808863639831543,-0.3329852521419525,-0.3090880513191223,-0.024772783741354942,0.3220149874687195,1.099600911140442,0.25735098123550415,0.20592239499092102,0.20434878766536713,0.20720747113227844,0.5759624242782593,0.5850027799606323,-0.10521124303340912,-0.3991274833679199,-0.2705037295818329
C1COCCN1,-0.15633435547351837,-0.2764936089515686,-0.3593309223651886,0.6013653874397278,-0.006875336170196533,0.15940146148204803,0.5423739552497864,-0.15424007177352905,-0.1972765475511551,0.12482880055904388,-0.06878237426280975,-0.14769692718982697,0.19818289577960968,0.028388453647494316,0.5723688006401062,0.15544137358665466,-0.036835987120866776,-0.11078958958387375,0.5457550883293152,-0.12602949142456055,0.30499374866485596,0.07575653493404388,-0.2897780239582062,-0.30381113290786743,-0.7080835700035095,0.1054072305560112,0.43416085839271545,-0.18563933670520782,-0.7158110737800598,-0.4627467393875122,0.6490786075592041,0.3516879379749298,-0.2159135341644287,0.11267510801553726,0.13663356006145477,-0.6023271679878235,0.2876714766025543,0.8070902228355408,0.1499321162700653,-0.006266036070883274,0.12903009355068207,-0.31353238224983215,0.7176123261451721,0.4179781675338745,0.07972864806652069,0.15825913846492767,0.43886908888816833,-0.10527811199426651,0.08652320504188538,-0.1500745266675949,-0.07636506110429764,-0.1913725584745407,-0.006707243621349335,0.22733174264431,-0.34196147322654724,0.421914279460907,-0.22423052787780762,0.16387109458446503,-0.39479610323905945,-0.5049581527709961,-0.06611650437116623,-0.18109366297721863,-0.03813745081424713,-0.3542692959308624,0.40205442905426025,-0.04152878001332283,-0.1688411980867386,-0.14716306328773499,0.49699586629867554,-0.3537159860134125,-0.5712191462516785,-0.03224211931228638,0.16130706667900085,-0.02486971952021122,0.3545474112033844,0.4713767468929291,0.5857624411582947,0.25321972370147705,-0.3117287755012512,0.5667489171028137,-0.32701194286346436,0.1568593978881836,-0.20229502022266388,0.47836366295814514,-0.45029163360595703,0.23383919894695282,-0.0195815060287714,-0.017632126808166504,-0.059989068657159805,0.16681168973445892,0.7696316838264465,0.6794664263725281,-0.04301758110523224,0.38330695033073425,-0.11674266308546066,0.01642548479139805,0.20377062261104584,-0.06767626851797104,0.050469476729631424,-0.3635384142398834
C1=COC=C1,0.511483371257782,0.1463603526353836,-0.1739107221364975,0.7330397367477417,-0.006101095583289862,0.1543019413948059,0.3305029571056366,-0.049753233790397644,0.11284496635198593,0.3616251051425934,-0.141658216714859,0.04024624451994896,0.18925678730010986,0.36536353826522827,0.765626847743988,0.5174548625946045,0.2753954529762268,-0.1985529661178589,0.44248390197753906,-0.19721312820911407,0.27701449394226074,0.16537615656852722,-0.19688042998313904,0.061003416776657104,-0.7461966872215271,0.1723298877477646,0.6194598078727722,-0.28167739510536194,-0.62247633934021,-0.231075718998909,0.17188279330730438,0.619857668876648,-0.23753468692302704,0.15171563625335693,-0.2236146777868271,-0.1993488073348999,0.25980421900749207,0.08775968849658966,0.19755275547504425,-0.17393706738948822,-0.07958944141864777,0.19308026134967804,0.5017198324203491,0.5874401926994324,0.14376862347126007,0.20680752396583557,0.2753392159938812,-0.18979941308498383,-0.08411484211683273,-0.2785521447658539,0.3584478497505188,0.09658925980329514,-0.10506957769393921,-0.20320449769496918,0.15362845361232758,0.008050954900681973,-0.3282279670238495,0.11236484348773956,0.08859316259622574,-0.17883944511413574,0.014597803354263306,-0.45558151602745056,0.32289212942123413,0.15255537629127502,0.5129058957099915,-0.34321433305740356,-0.00555493263527751,-0.31582608819007874,0.10845255851745605,-0.48193296790122986,-0.2665264308452606,-0.037533801048994064,0.2714763283729553,0.20928993821144104,0.42156705260276794,0.44105464220046997,0.10108055174350739,0.24173390865325928,-0.15670998394489288,-0.02628537453711033,-0.2990029752254486,0.2837693393230438,-0.36698010563850403,0.22152672708034515,-0.3257671892642975,0.03223017603158951,-0.5080723166465759,0.044768091291189194,-0.24486152827739716,-0.10592968761920929,0.908778190612793,0.39344000816345215,0.4532470405101776,0.5044247508049011,-0.1533268541097641,0.4604247212409973,0.17327582836151123,0.05005797743797302,-0.02267373539507389,-0.33746299147605896
C1=CN=CN=C1,-0.24423125386238098,0.7561274766921997,0.060614101588726044,0.23760360479354858,-0.02372608706355095,-0.14141762256622314,0.6369671821594238,-0.4940145015716553,-0.1106773167848587,0.37344855070114136,0.2973483204841614,-0.01218504086136818,-0.06816542148590088,-0.5348365306854248,0.6737274527549744,0.5727958679199219,0.0008512487402185798,0.00883420743048191,0.38969430327415466,0.275721937417984,0.5328847765922546,0.488401859998703,-0.6296887397766113,0.13605552911758423,-0.16166341304779053,0.14417393505573273,0.7556579113006592,-0.37476521730422974,-0.6480470895767212,-0.3260994553565979,0.3349343538284302,0.27154290676116943,-0.5015066862106323,0.9003239870071411,-0.13518160581588745,-0.13109007477760315,0.4798492193222046,0.3646771311759949,0.14560046792030334,0.5000244379043579,-0.3197212517261505,0.3358880877494812,0.7586667537689209,0.4518662095069885,-0.2856976389884949,0.38937270641326904,0.24093887209892273,-0.5198488235473633,-0.14859293401241302,0.19678542017936707,-0.29204386472702026,0.03840961307287216,0.3207556903362274,0.2592504322528839,0.10566245019435883,0.3015841543674469,-0.15864838659763336,0.2962449789047241,-0.08926007151603699,-0.9011184573173523,-0.004311159253120422,-0.2618987560272217,0.09927870333194733,0.02104107104241848,0.18144115805625916,-0.11643430590629578,0.047521576285362244,-0.6732744574546814,0.003031134605407715,-0.24484068155288696,-0.3632469177246094,-0.07330488413572311,0.42022356390953064,0.32680028676986694,0.3694574534893036,0.37555131316185,-0.03698062151670456,0.5553284287452698,-0.766822099685669,0.5101969242095947,-0.24077829718589783,-0.1956971138715744,0.5226147770881653,0.13560441136360168,0.513569712638855,0.13472898304462433,-0.6838962435722351,-0.12640565633773804,0.2785320580005646,-0.5628196001052856,1.030461311340332,-0.13573674857616425,0.24340085685253143,0.4898889660835266,0.03247442841529846,0.745125949382782,1.131625771522522,0.32830244302749634,0.10744820535182953,-0.4517424702644348
C1=CCNC=C1,0.5908809304237366,0.07734953612089157,-0.8952534794807434,-0.08338262140750885,0.5859987735748291,0.19121478497982025,0.40432029962539673,0.2410959005355835,-0.3905904293060303,0.2878906726837158,0.379268079996109,-0.4533095061779022,0.1133137196302414,0.10534345358610153,0.8143532872200012,0.8687050938606262,-0.0417596660554409,-0.07727724313735962,0.6193218231201172,-0.009684192016720772,-0.38363543152809143,0.8622716069221497,0.03040294349193573,0.07244287431240082,-0.8502399325370789,0.3621232807636261,0.2041793316602707,-0.6687633395195007,-0.4969876706600189,-0.8188096880912781,0.18766959011554718,0.40982022881507874,-0.6291399002075195,0.5546793937683105,0.11585754156112671,-0.23463815450668335,0.5510244369506836,0.4648134112358093,0.38206249475479126,-0.2185710370540619,0.37968316674232483,0.12909744679927826,0.42712053656578064,0.3410852253437042,0.033965323120355606,0.2284708023071289,0.05124839395284653,-0.1849518120288849,0.24554823338985443,-0.275235652923584,-0.33435454964637756,0.12279858440160751,0.5838454961776733,0.2441033571958542,0.23891161382198334,0.009037451818585396,0.5570815801620483,0.2922300398349762,-0.0858800858259201,-0.02942943572998047,0.36456888914108276,0.05250351130962372,-0.04439347982406616,0.5563433170318604,0.38037019968032837,0.06457982212305069,0.24655546247959137,-0.5533247590065002,0.07802070677280426,-0.41110023856163025,-0.24665594100952148,0.18592986464500427,0.7139437198638916,-0.22172482311725616,0.13995182514190674,0.1273389756679535,0.64874267578125,0.4180803894996643,0.12925203144550323,0.4717133343219757,-0.334795743227005,0.3254189193248749,-1.0369641780853271,0.9038934111595154,0.2509462237358093,-0.024680236354470253,-0.21855099499225616,0.2878144383430481,-0.0649489313364029,-0.738673210144043,0.4520413875579834,0.638779878616333,0.21012991666793823,0.9178643822669983,-0.24707506597042084,1.0329906940460205,0.6584307551383972,0.433884859085083,-0.1536562293767929,-0.06411068141460419
C1=C[NH]C=C1,0.29270800948143005,0.2766781747341156,-0.15708960592746735,0.8815739750862122,-0.06708615273237228,0.034237686544656754,0.4660286605358124,-0.273756206035614,-0.5005388259887695,0.17674681544303894,-0.08356637507677078,0.08255447447299957,-0.04834113270044327,0.5475963354110718,0.6360898017883301,0.24024544656276703,-0.0048645599745213985,-0.3508215844631195,0.5073312520980835,-0.1267121136188507,0.6436624526977539,-0.2112024426460266,-0.30784472823143005,-0.1142607033252716,-0.8999273777008057,0.11021992564201355,0.40126025676727295,-0.2704786956310272,-0.5863113403320312,-0.23081868886947632,0.37569671869277954,0.6606277823448181,-0.47690603137016296,0.4269540011882782,0.38417530059814453,0.006832677870988846,0.1743144690990448,0.36823442578315735,-0.024203572422266006,-0.1415833681821823,0.1814834028482437,0.04537287726998329,0.6936726570129395,0.5528295636177063,-0.05150577798485756,0.2460741400718689,0.35072553157806396,0.2151462435722351,0.41801759600639343,-0.24164362251758575,0.29808589816093445,-0.018783237785100937,0.44891124963760376,0.2305546998977661,0.5667014122009277,-0.08625214546918869,0.0048685031943023205,0.22774170339107513,-0.27139315009117126,-0.16702711582183838,-0.15563420951366425,-0.4124191105365753,0.18343421816825867,0.4019787013530731,0.583352267742157,-0.679283618927002,0.06977298855781555,-0.37259766459465027,-0.015762934461236,-0.6669401526451111,-0.052437491714954376,0.45032986998558044,0.49045732617378235,0.38394948840141296,-0.010888769291341305,0.18612241744995117,0.24206040799617767,0.5306211709976196,0.004537000320851803,-0.13026399910449982,-0.3350299894809723,0.29883474111557007,-0.17471244931221008,0.3976156413555145,-0.17308643460273743,0.3341115117073059,-0.16579309105873108,-0.06070088595151901,-0.23592621088027954,-0.21486952900886536,0.8872227668762207,0.07168702036142349,-0.13311728835105896,-0.025795552879571915,0.013589132577180862,0.7904607653617859,0.10319259762763977,-0.04401974752545357,0.0422421470284462,-0.1316843181848526
C1=CON=C1,0.4590016305446625,0.3956630229949951,0.10777457803487778,0.7238466143608093,-0.17654119431972504,0.10909384489059448,0.49007970094680786,-0.3646254241466522,0.16442644596099854,0.2770271897315979,-0.05209348723292351,0.08633264154195786,0.27168768644332886,-0.06004076823592186,0.5598262548446655,0.2604578733444214,0.06376206129789352,-0.017124531790614128,0.7873746752738953,-0.10341162979602814,0.34889745712280273,0.007519209291785955,-0.16855882108211517,-0.3204350471496582,-0.6357281804084778,0.37357884645462036,0.41701674461364746,-0.2604309022426605,-0.43970727920532227,-0.040551405400037766,0.26838821172714233,0.5113315582275391,-0.5103923678398132,0.5632984042167664,0.11377359926700592,-0.30010169744491577,0.4715992510318756,0.10867307335138321,0.14299629628658295,-0.1926255077123642,-0.29009658098220825,0.02105852961540222,0.3105883300304413,0.5498473048210144,-0.19892995059490204,0.3029703199863434,0.15767531096935272,0.19309870898723602,-0.048448290675878525,0.11667213588953018,0.03191949054598808,-0.001288232277147472,0.2041042149066925,0.19657690823078156,0.38618531823158264,0.0546112060546875,-0.5489950180053711,0.31564992666244507,-0.1482928842306137,-0.21981029212474823,0.04284987971186638,-0.36902400851249695,0.2914924621582031,0.14933457970619202,0.5828171968460083,-0.48321887850761414,-0.09627079218626022,-0.20509390532970428,0.17676475644111633,-0.638318657875061,-0.15067635476589203,0.2756166160106659,0.4884280264377594,0.22021321952342987,0.5555947422981262,0.4763675630092621,0.3523271679878235,0.35607385635375977,-0.40770313143730164,0.4705359637737274,-0.31028857827186584,0.182010680437088,0.04677615687251091,0.28905630111694336,0.14951716363430023,0.4588528573513031,0.1338249295949936,-0.27392199635505676,-0.04952347278594971,0.026660596951842308,0.8625628352165222,0.42258596420288086,0.4687264561653137,0.41777101159095764,0.24137257039546967,0.5720319151878357,0.37014466524124146,0.08245193213224411,0.23778775334358215,-0.44214826822280884
C1=C[NH]C=N1,-0.2821313738822937,0.05306398123502731,0.07662001997232437,0.6180436015129089,-0.36926889419555664,0.27832549810409546,0.28295597434043884,0.3051697313785553,0.1283862143754959,-0.26160475611686707,0.06999724358320236,0.06133231893181801,0.03599408268928528,0.49142858386039734,0.1977546215057373,0.29886236786842346,0.16043083369731903,-0.32735171914100647,0.03903575614094734,-0.16516633331775665,0.7080430388450623,-0.30122560262680054,0.3128504157066345,-0.6389572620391846,-0.489033967256546,0.1421523094177246,0.47077077627182007,-0.4765911400318146,0.031064581125974655,0.16035711765289307,0.43931829929351807,0.5526420474052429,-0.24501952528953552,0.4049605131149292,0.11398851126432419,-1.0273219347000122,0.49522045254707336,-0.26373088359832764,0.1831212043762207,0.028270984068512917,0.05520698055624962,-0.09183080494403839,0.7149783968925476,0.6423305869102478,-0.5146201848983765,-0.2006157487630844,-0.24730072915554047,0.7054107189178467,0.47059863805770874,-0.05578680709004402,0.291056364774704,0.18333132565021515,0.2969108521938324,0.1480189859867096,0.08920345455408096,-0.6661416292190552,0.26398420333862305,0.2098958045244217,-0.5810126066207886,-0.18822112679481506,0.1486731618642807,-1.2059121131896973,0.05900757387280464,-0.07482089847326279,0.333650678396225,-0.32381659746170044,0.23904794454574585,-0.37733468413352966,0.020322607830166817,-0.4451092779636383,-0.5253301858901978,0.6205165982246399,-0.11336592584848404,0.3372291624546051,0.2883906364440918,0.08016540855169296,0.35677051544189453,0.8629734516143799,-0.4226248860359192,0.09868431091308594,-0.6343601942062378,0.2707718312740326,-0.40034401416778564,0.19373516738414764,-0.3919866383075714,0.21489907801151276,-0.21335548162460327,-0.35079309344291687,0.5075942873954773,-0.33967408537864685,1.064887285232544,-0.16540193557739258,-0.4231968820095062,0.010860173963010311,-0.045826878398656845,0.4165491461753845,0.29615578055381775,-0.6316561102867126,0.24852904677391052,-0.5548403859138489
C1=CNCNC1,-0.2575508952140808,0.3643694519996643,-0.6921244263648987,-0.688200056552887,-0.06917815655469894,0.22940610349178314,0.5269283056259155,-0.18191684782505035,-0.6523279547691345,0.1702490746974945,0.6921913027763367,-0.2253672182559967,0.2311762571334839,-0.17353451251983643,0.6574303507804871,1.1435585021972656,0.25127917528152466,0.24552026391029358,0.11121382564306259,0.15717534720897675,-0.11092882603406906,0.23862715065479279,-1.0221699476242065,0.135099396109581,-1.0778896808624268,0.14337794482707977,0.43452414870262146,-0.5251869559288025,-0.735043466091156,-0.746874988079071,0.2330257147550583,0.6047706007957458,-1.0783960819244385,1.0525321960449219,-0.20189784467220306,-0.12076552212238312,0.7618135809898376,0.6852172613143921,1.0934232473373413,-0.10344626754522324,0.5707876086235046,0.3349774479866028,0.7471832633018494,0.0287081990391016,-0.2511013150215149,0.13534514605998993,-0.0907028540968895,-0.5323196649551392,0.12340843677520752,0.5249744057655334,-0.14931295812129974,0.049193624407052994,0.2777831554412842,0.15180735290050507,-0.3857625424861908,0.2089642733335495,-0.13393428921699524,0.2802130877971649,-0.36245036125183105,-0.9105316400527954,0.27888306975364685,0.007408068981021643,-0.3032691180706024,0.586352527141571,0.11158241331577301,-0.2624192237854004,0.35081803798675537,-0.47315922379493713,0.6038314700126648,-0.561788022518158,-0.9698034524917603,0.3467487394809723,0.7621960043907166,-0.2952423691749573,0.3967357575893402,-0.11945613473653793,0.2211591750383377,0.6878664493560791,-0.13625197112560272,0.6455606818199158,-0.879123866558075,0.32123976945877075,-1.1793707609176636,1.0568658113479614,0.29205450415611267,0.17444442212581635,-0.7923071980476379,-0.0021458000410348177,0.053783249109983444,-0.5956403613090515,1.1042619943618774,0.0773608610033989,0.04915333539247513,0.12300397455692291,0.27656835317611694,0.1721973717212677,0.19284769892692566,0.2729305922985077,0.1769234985113144,-0.5113439559936523
C1=NN=C[NH]1,-0.14556416869163513,0.22443519532680511,0.34324413537979126,1.200586199760437,0.3274558484554291,-0.4230506420135498,0.5668188333511353,-0.4125000238418579,-0.1320846974849701,-0.10703596472740173,-0.028371568769216537,0.26816412806510925,0.005087247584015131,0.4668061137199402,0.7737809419631958,-0.011887668631970882,0.3016728460788727,0.022173363715410233,-0.3580945134162903,0.19467762112617493,0.6725059151649475,0.3029557168483734,-0.4586876928806305,-0.3753989040851593,-0.3238559663295746,-0.15247571468353271,0.6053063273429871,-0.3563082814216614,-0.009230324998497963,0.18169663846492767,1.3061838150024414,0.4822583794593811,-0.4338468313217163,0.4983280897140503,0.0762641653418541,-0.396902859210968,0.2586692273616791,-0.08383303880691528,0.1085238829255104,-0.14866583049297333,-0.16115665435791016,0.7510895729064941,0.43612855672836304,0.04035694897174835,-0.35472238063812256,-0.2629818022251129,-0.004810191225260496,-0.01211503054946661,0.6474854350090027,0.1465381532907486,0.301987886428833,0.04901133477687836,0.6259925961494446,0.014444706961512566,0.25176581740379333,-0.3532969653606415,-0.07733774185180664,0.15250849723815918,-0.4760549068450928,-0.27942371368408203,-0.14621387422084808,-1.4876238107681274,0.5013925433158875,0.20005850493907928,0.14629307389259338,-0.45238634943962097,0.326151579618454,-0.38513126969337463,-0.24650007486343384,-0.48446476459503174,-0.5177230834960938,0.5613669753074646,0.7285220623016357,0.8010122776031494,0.1725270301103592,0.6997198462486267,0.07154835015535355,0.8483535647392273,0.20502258837223053,-0.5643267631530762,-0.3161574900150299,0.03075752966105938,-0.06724214553833008,0.49652644991874695,-0.08852415531873703,0.5984804630279541,-0.21732141077518463,-0.6713112592697144,0.3956616520881653,-0.10261495411396027,0.5846567153930664,-0.09328579902648926,-0.4155799448490143,0.7410451769828796,-0.420242577791214,0.1916140466928482,0.38901180028915405,-0.17485783994197845,0.3758755624294281,-0.6848271489143372
C1=CN=CNC1,0.26860925555229187,0.3322204053401947,-0.9172323942184448,-0.08678650110960007,0.15714311599731445,0.04545813426375389,0.9019395112991333,-0.21685847640037537,-0.2903457581996918,0.06363800913095474,0.9947177171707153,0.5654979944229126,-0.09823539108037949,-0.15728601813316345,0.03032390959560871,0.02917884849011898,-0.04748914763331413,0.11441332846879959,0.5642286539077759,0.1334788203239441,0.4875829517841339,-0.1531168669462204,-0.004070299677550793,-0.11394272744655609,-0.6543075442314148,0.08798927813768387,0.7499678730964661,-0.39883390069007874,-0.5304915904998779,0.11808676272630692,0.8795294761657715,0.6560974717140198,-1.070196270942688,1.163015365600586,-0.16016624867916107,-0.39484328031539917,0.4660256803035736,0.12769784033298492,0.6473836302757263,-0.14643241465091705,0.2827916443347931,-0.058965396136045456,0.5628302693367004,0.5046665072441101,-0.03209754824638367,0.24415116012096405,0.07165249437093735,0.1186196506023407,-0.26344725489616394,0.6331098079681396,-0.10792504996061325,-0.276830792427063,0.8377219438552856,-0.13934938609600067,-0.14870114624500275,-0.28861889243125916,0.21888664364814758,0.4452674388885498,-0.15404112637043,-0.3318626284599304,0.3854180872440338,-0.27490878105163574,0.1947382390499115,0.25870826840400696,0.2680659294128418,-0.010808517225086689,-0.056875333189964294,-1.0033446550369263,0.13361142575740814,-0.18150457739830017,-0.5698500275611877,1.014032006263733,0.8339915871620178,-0.20568670332431793,0.41055169701576233,0.4428330063819885,0.1639825999736786,0.9122750163078308,-0.1817808449268341,-0.6150115132331848,-0.40308576822280884,0.3477756381034851,0.16186881065368652,0.8821966052055359,0.056687526404857635,-0.12505638599395752,-1.2213010787963867,-0.10221991688013077,0.3122826814651489,-0.5374648571014404,0.8261220455169678,-0.12999466061592102,-0.21306805312633514,0.5775178074836731,0.17801213264465332,0.2662074565887451,0.526567280292511,-0.0032018092460930347,0.11929580569267273,-0.5329575538635254
C1CCCCC1,0.5270190834999084,0.2877834439277649,-0.42501169443130493,0.08178700506687164,-0.30022773146629333,0.331407368183136,0.07393594086170197,0.4068104922771454,-0.010548015125095844,0.37617042660713196,0.13972844183444977,-0.08678368479013443,-0.3738413155078888,0.48510897159576416,0.8121371269226074,0.047690168023109436,0.2272629290819168,-0.5346527695655823,-0.034600257873535156,-0.07371825724840164,0.09901295602321625,0.3267555832862854,0.09443413466215134,0.1687757819890976,-0.7889991402626038,0.38203054666519165,0.3741176724433899,-0.16911450028419495,-0.6727761626243591,-0.4894266128540039,0.7405276894569397,0.7617956399917603,-0.08271528780460358,0.03398070111870766,0.07701383531093597,-0.06193859130144119,0.8100274801254272,0.10952448844909668,0.2671537399291992,0.2503474950790405,0.10062559694051743,-0.014664272777736187,1.0703743696212769,0.6956127882003784,0.014507700689136982,0.4329041838645935,0.3176781237125397,-0.06919250637292862,-0.007692920044064522,-0.32260921597480774,0.0604739710688591,-0.20402784645557404,0.0024263139348477125,-0.10797438770532608,-0.10247722268104553,0.3027743995189667,-0.29978302121162415,0.09991703182458878,-0.30163076519966125,-0.5251949429512024,-0.44593578577041626,-0.01233995147049427,0.18877623975276947,-0.37387076020240784,0.4852277934551239,-0.36521631479263306,0.43101558089256287,-0.0801098495721817,0.3243648111820221,-1.1615403890609741,-0.11223895102739334,-0.20452149212360382,-0.1580493152141571,0.39724403619766235,0.4047829210758209,-0.037387412041425705,-0.0966830626130104,0.4085608720779419,-0.15043818950653076,0.4490763247013092,-0.31114906072616577,0.6539587378501892,-0.32605159282684326,0.7468762397766113,-0.06051088869571686,-0.1314380168914795,-0.3790561854839325,-0.24109694361686707,-0.06475305557250977,0.11378961056470871,0.660638153553009,0.19679607450962067,0.08659789711236954,0.09857459366321564,0.13481563329696655,0.48391544818878174,0.18225456774234772,-0.1845271736383438,0.006358063779771328,0.15249790251255035
C1CCCC1,0.3416263163089752,0.35479235649108887,-0.5109802484512329,0.32235094904899597,-0.45464465022087097,0.4960428476333618,0.12800604104995728,0.281896710395813,-0.23907069861888885,0.39898067712783813,0.18299326300621033,-0.09271109849214554,-0.1589948534965515,0.28884345293045044,0.49242040514945984,0.16710412502288818,0.05968841165304184,-0.3111063539981842,0.018926270306110382,-0.10415738821029663,0.3088895082473755,0.3149838447570801,-0.059725143015384674,0.08378250151872635,-0.7202152013778687,0.3348417282104492,0.4492933452129364,-0.19060055911540985,-0.5399417281150818,-0.24347658455371857,0.7429349422454834,0.591803789138794,-0.22013065218925476,0.3349168598651886,0.08688881993293762,0.034081123769283295,0.8431454300880432,0.3346650302410126,0.05167744308710098,-0.08266377449035645,0.07941374182701111,0.061298348009586334,1.01167631149292,0.6271508932113647,0.008549265563488007,0.3948689103126526,0.29784220457077026,-0.07635904848575592,-0.14463576674461365,-0.3589479923248291,-0.2225743979215622,-0.18823368847370148,-0.09006275981664658,-0.08297266066074371,-0.142867773771286,0.43555185198783875,-0.15918904542922974,-0.08059029281139374,-0.20162321627140045,-0.6843804121017456,-0.34274640679359436,-0.3290308713912964,0.12913654744625092,-0.4228682518005371,0.6706922054290771,-0.15919998288154602,0.4523337185382843,0.07261405885219574,0.22745081782341003,-0.7954467535018921,-0.2152261883020401,-0.383059561252594,-0.2204989492893219,0.34975916147232056,0.5447617769241333,0.08573010563850403,0.0887443944811821,0.3741840124130249,-0.3333376348018646,0.5691612362861633,-0.3347418010234833,0.2576155960559845,-0.42217543721199036,0.5151000618934631,0.10720408707857132,-0.3494552969932556,-0.5035735368728638,-0.17168724536895752,-0.015346497297286987,0.3660969138145447,0.6551730036735535,0.2836134731769562,0.0040714070200920105,0.15887047350406647,0.27732083201408386,0.31919342279434204,0.2432975172996521,-0.165504589676857,-0.0755065530538559,0.03962942212820053
CBr,-0.23947876691818237,0.23930230736732483,-0.18748223781585693,0.5230695009231567,-0.3366110324859619,-0.0947011187672615,-0.09302525967359543,0.42984044551849365,-0.07599399238824844,0.8448354005813599,-0.3494926691055298,-0.14615826308727264,0.4077628552913666,0.600100040435791,-0.06174053996801376,-0.1921197921037674,0.43067729473114014,0.046346209943294525,0.2527351379394531,0.003391060745343566,-0.25381606817245483,-0.19846156239509583,-0.44727814197540283,-0.12221935391426086,-0.5929689407348633,0.01952367275953293,-0.38520875573158264,-0.04423397779464722,-0.010043716058135033,-0.360045462846756,0.9574133157730103,0.6549709439277649,-0.367713987827301,-0.3479927182197571,0.34929901361465454,-0.19866019487380981,-0.42494678497314453,0.12311610579490662,0.521117091178894,0.10662215203046799,0.2839353084564209,-0.004737626761198044,0.18668466806411743,0.6456867456436157,-0.02641073614358902,-0.042720332741737366,-0.0018186476081609726,0.4323999583721161,0.18819695711135864,-0.14756347239017487,0.0725371316075325,-0.326133668422699,0.0657210648059845,-0.24764598906040192,-0.48556703329086304,-0.02609792910516262,-0.026296444237232208,0.24690870940685272,0.19703340530395508,-0.5992528200149536,-0.12069659680128098,0.1240760087966919,0.18153296411037445,0.3765597343444824,0.4178618788719177,0.14207680523395538,0.5722877383232117,0.10796946287155151,0.54878830909729,0.17184153199195862,-0.2259223312139511,-0.36667200922966003,0.1522045135498047,0.050787851214408875,0.11951065808534622,0.8826082944869995,0.38281819224357605,0.5559496283531189,-0.2548437714576721,0.39365026354789734,0.2570517659187317,-0.4471769332885742,-0.3846270740032196,0.35390153527259827,-0.2084919512271881,-0.5554016828536987,0.14510339498519897,-0.4628639817237854,-0.4348461925983429,0.7167519330978394,0.3486103117465973,-0.13246029615402222,0.22564610838890076,0.5974759459495544,0.004615194164216518,-0.11121191829442978,0.053643498569726944,-0.5572784543037415,-0.14113150537014008,0.14930513501167297
C1=N[NH]C=N1,-0.3450298011302948,-0.25851359963417053,0.15867237746715546,0.7436153888702393,-0.040542859584093094,0.1604865938425064,0.06980564445257187,0.17843753099441528,-0.08491948246955872,-0.08637374639511108,0.40224578976631165,-0.19693411886692047,0.3387048840522766,0.12634092569351196,0.6089773774147034,-0.10972501337528229,0.3607344627380371,-0.58780437707901,0.25377005338668823,-0.09884559363126755,0.5769507884979248,0.24037083983421326,-0.2038995772600174,-0.2453879415988922,-0.7182378768920898,-0.0951974168419838,0.7246407270431519,0.14426487684249878,0.037847407162189484,0.044774048030376434,1.0168981552124023,0.2921929657459259,-0.2244163602590561,0.33739230036735535,0.31839051842689514,-0.37139979004859924,0.6658555269241333,0.002489777747541666,0.47782936692237854,-0.011623748578131199,-0.24103984236717224,-0.16818657517433167,0.3465694785118103,0.2420865148305893,-0.22151389718055725,0.23950214684009552,-0.13619014620780945,0.2822006940841675,0.5506494641304016,-0.3303978741168976,0.30273115634918213,0.11108645796775818,0.3283003270626068,0.4334524869918823,0.027256594970822334,0.011894666589796543,0.034456804394721985,0.23575705289840698,-0.1435357630252838,-0.7366074919700623,-0.04443104565143585,-0.8571136593818665,0.3713829815387726,0.11989719420671463,0.6473984718322754,-0.2608075737953186,0.18452778458595276,-0.5604543685913086,-0.43924054503440857,-0.3213535249233246,-0.402553915977478,0.44624531269073486,-0.23793624341487885,0.5360995531082153,0.4957274794578552,0.4686678647994995,0.30094990134239197,0.6051681041717529,-0.4935711622238159,0.1515754759311676,-0.34103864431381226,0.5248012542724609,-0.36945611238479614,0.4135429561138153,0.21177469193935394,0.23183593153953552,0.34780943393707275,-0.42353978753089905,0.3085295855998993,-0.4726814329624176,0.3430381715297699,-0.010427998378872871,-0.377487450838089,0.5884606242179871,-0.22569993138313293,0.7315016984939575,0.5241503119468689,-0.7326955199241638,0.1466459482908249,-0.3691091239452362
C1=NCCN1,0.08362606912851334,0.2625700831413269,-0.2937133014202118,0.7301426529884338,-0.17336228489875793,0.2542794346809387,1.1862012147903442,-0.010517184622585773,-0.15426142513751984,0.30136120319366455,0.13300831615924835,0.1095486506819725,0.16058990359306335,0.48370781540870667,0.13482782244682312,-0.17253512144088745,0.3285140097141266,-0.4719841182231903,0.06861352175474167,0.2320309430360794,0.6380990743637085,0.5494846701622009,-0.2624557316303253,-0.2811644971370697,-0.7992531061172485,0.1245858296751976,0.660658061504364,-0.5302277207374573,-0.42660507559776306,-0.8208383917808533,0.7361434102058411,0.5773001909255981,-0.19536148011684418,0.7109297513961792,0.07620124518871307,-0.3067341446876526,0.5359653830528259,0.7591460943222046,0.5158482789993286,0.17430756986141205,-0.22514711320400238,0.47509923577308655,0.2881987392902374,0.2895248830318451,-0.33099836111068726,0.1423397958278656,-0.08555494993925095,-0.1942531019449234,0.31878694891929626,0.3523640036582947,-0.223981574177742,-0.2110629826784134,0.3748818635940552,-0.07058794051408768,-0.3855007290840149,-0.10045356303453445,0.18145084381103516,0.23750267922878265,-0.4341409504413605,-0.7872457504272461,-0.3554673492908478,-0.62201988697052,-0.19003693759441376,0.35898229479789734,0.8238056898117065,0.24989673495292664,0.7472813129425049,-0.05286163091659546,0.559338390827179,-0.33647042512893677,-0.34428778290748596,0.07499302923679352,0.7276957035064697,0.36728134751319885,0.5507027506828308,0.31229180097579956,0.39733394980430603,0.42635807394981384,-0.4029179811477661,0.2776353359222412,-0.4700281322002411,0.005338152404874563,-0.31426745653152466,0.6168762445449829,0.24014659225940704,0.2778904139995575,0.09630409628152847,-0.6259159445762634,0.2352127581834793,-0.3046523630619049,0.28268367052078247,0.18842601776123047,-0.08689102530479431,0.36597758531570435,-0.23185907304286957,0.33984512090682983,0.40425148606300354,-0.5497429966926575,0.27670711278915405,-0.2394927591085434
C1CCOC1,0.16369245946407318,0.24863402545452118,-0.27530473470687866,0.33399662375450134,-0.16443848609924316,0.6175615787506104,0.22522392868995667,-0.11530855298042297,-0.30798882246017456,0.38162004947662354,-0.15488079190254211,-0.2676641345024109,-0.026400398463010788,0.04538353532552719,0.7586204409599304,0.03249676525592804,-0.10620424151420593,-0.43143847584724426,0.12354785948991776,-0.3159826099872589,0.1136445552110672,0.18677349388599396,-0.2147529572248459,0.1395425945520401,-0.6675064563751221,-0.04397193714976311,0.237202450633049,0.04405873268842697,-0.25220224261283875,-0.6602623462677002,0.6265023946762085,0.44857582449913025,-0.49781885743141174,0.04523344337940216,0.09059426933526993,-0.18930089473724365,0.732936441898346,0.04158245772123337,-0.07677628844976425,0.020050758495926857,-0.1192576140165329,-0.2510914206504822,0.7303673624992371,0.6634660959243774,0.0727379098534584,0.5207244157791138,0.39275026321411133,-0.11976815015077591,-0.1515067219734192,-0.15798507630825043,0.1306159943342209,-0.2999383211135864,-0.30558711290359497,0.1784437596797943,-0.12972500920295715,-0.07405708730220795,-0.2685539722442627,0.04358499497175217,0.01923830807209015,-0.4888395071029663,-0.11013225466012955,-0.2695838212966919,-0.1873626559972763,-0.35107314586639404,0.21714742481708527,0.07910378277301788,0.19556719064712524,-0.2546199560165405,0.11082327365875244,-0.6030470132827759,-0.41324472427368164,-0.063731849193573,0.3650515079498291,0.44926148653030396,0.7660951614379883,0.35570022463798523,0.14369021356105804,0.49849236011505127,-0.4761744439601898,0.48914143443107605,-0.170099675655365,0.36232316493988037,-0.45637640357017517,0.46643561124801636,0.10878394544124603,0.28516143560409546,-0.41109371185302734,-0.1699228584766388,-0.16115021705627441,0.05935952067375183,0.8522153496742249,0.48952654004096985,0.3147566318511963,0.024092072620987892,-0.185808464884758,0.13052578270435333,0.23037341237068176,-0.0935288518667221,0.06749389320611954,-0.16401611268520355
C1=NOC=N1,-0.0456557534635067,0.2753513753414154,-0.21195171773433685,0.18224738538265228,-0.05571472644805908,0.23847928643226624,0.38294902443885803,-0.17582835257053375,-0.08689450472593307,0.0669519305229187,0.1686190366744995,-0.2505307197570801,0.6857357621192932,0.06339376419782639,0.5012819766998291,0.04055049642920494,0.26242515444755554,-0.25834739208221436,0.7034723162651062,0.040752608329057693,0.3143083155155182,-0.09327429533004761,-0.4250956177711487,-0.2950311601161957,-0.6336393356323242,0.2448846399784088,0.5620472431182861,0.16542977094650269,-0.414640873670578,-0.3951641619205475,0.8149571418762207,0.593829333782196,-0.20914626121520996,0.5258654952049255,-0.007921010255813599,-0.4228154718875885,-0.060585733503103256,0.14277713000774384,0.3940485715866089,-0.4878632128238678,-0.3541819453239441,0.29896849393844604,0.15347763895988464,0.6031309366226196,0.07004361599683762,0.5747484564781189,0.36957308650016785,0.18230625987052917,0.4621800482273102,0.31275567412376404,0.03746064752340317,-0.19841666519641876,0.4986562728881836,0.6629102826118469,0.11260741204023361,0.031340744346380234,-0.197088822722435,0.14901532232761383,-0.45229673385620117,-0.5723148584365845,-0.2925507426261902,-0.31122493743896484,-0.09185469150543213,0.024747474119067192,0.37582096457481384,-0.16243869066238403,0.09176954627037048,-0.18308185040950775,0.4592423141002655,-0.6689428687095642,-0.005897420924156904,0.22287145256996155,0.4542219340801239,0.48792892694473267,0.4605769217014313,0.46507740020751953,0.40925660729408264,0.25440868735313416,0.020461220294237137,0.006082342471927404,-0.23194196820259094,-0.1400611698627472,0.17786385118961334,0.015286760404706001,0.3618907928466797,0.33587270975112915,0.36778828501701355,0.04927784577012062,-0.03555058315396309,0.0935189500451088,0.5173071622848511,0.09465449303388596,0.07905610650777817,0.632222592830658,-0.027211669832468033,0.6002623438835144,0.20080606639385223,-0.36885252594947815,0.6476858854293823,-0.7355548739433289
C1=CNCC1,0.18060699105262756,0.563782811164856,-0.08991774171590805,0.4885798990726471,-0.4972487688064575,0.7690982818603516,0.8496683239936829,0.22828643023967743,-0.1404712051153183,0.09760461002588272,-0.07313323765993118,-0.06350830942392349,-0.043390002101659775,0.40679919719696045,0.5393871068954468,0.25967398285865784,0.1768818497657776,-0.10116491466760635,0.5468290448188782,0.05249318107962608,0.300972044467926,0.4174674451351166,0.06365194916725159,-0.3306368887424469,-1.1262028217315674,0.6465364098548889,0.2679678499698639,-0.24375230073928833,-0.7452705502510071,-0.7911114692687988,0.4907466471195221,0.4695301055908203,-0.7399614453315735,0.6222401857376099,0.313334196805954,-0.20845381915569305,0.35437509417533875,0.4197307825088501,0.46509701013565063,-0.2593860328197479,0.035183656960725784,0.05714525654911995,0.43555763363838196,0.4398815631866455,0.10297771543264389,0.26082202792167664,0.29732784628868103,0.10462886840105057,-0.079705148935318,-0.531100869178772,-0.2713851034641266,-0.0665297880768776,0.21466758847236633,0.2780390977859497,-0.400326132774353,0.20069633424282074,-0.08587251603603363,0.18660028278827667,-0.5842893719673157,-0.5093294978141785,0.02849559672176838,-0.6786859631538391,-0.21199078857898712,0.0665661096572876,0.6539474129676819,0.07871168106794357,0.43173831701278687,-0.27254539728164673,0.3106653690338135,-0.7020863890647888,-0.016785336658358574,0.029344303533434868,0.7331532835960388,0.28394752740859985,0.13988596200942993,0.3240656852722168,0.2591325342655182,0.38663971424102783,-0.3284294605255127,0.15901561081409454,-0.39542025327682495,-0.010087622329592705,-0.4208149313926697,0.5759747624397278,0.46798843145370483,0.029435250908136368,-0.35437870025634766,-0.01403816882520914,-0.18934379518032074,0.10951361805200577,0.9175352454185486,0.3614844083786011,0.027074264362454414,0.1543019562959671,-0.027384961023926735,0.14418061077594757,0.3961193859577179,-0.2657131254673004,-0.49241209030151367,-0.023422136902809143
C1=CCNN=C1,0.24553611874580383,0.6683968901634216,-0.46150320768356323,0.35239675641059875,0.6104670763015747,0.6456876397132874,0.5503374338150024,0.4803681969642639,-0.8200822472572327,-0.01245426107198,0.2248964160680771,-0.2838301360607147,0.052706167101860046,-0.5097461938858032,0.6341681480407715,0.8046351671218872,0.266915500164032,0.2938181161880493,0.7853477597236633,-0.04604720696806908,0.4174312353134155,0.48294904828071594,-0.42720717191696167,0.034350328147411346,-0.8936597108840942,-0.15940982103347778,0.5051091313362122,-0.6319263577461243,-0.4710002541542053,-0.778918981552124,0.4840301275253296,0.26482221484184265,-0.7315171957015991,0.36281800270080566,0.3364097774028778,-0.23110927641391754,1.0636558532714844,0.6621097326278687,0.21265828609466553,-0.6392498016357422,-0.18712304532527924,-0.19317319989204407,0.6293340921401978,0.1658215969800949,0.3702774941921234,0.619093120098114,0.47570303082466125,0.19990861415863037,-0.03763676807284355,0.06500745564699173,-0.4516562223434448,-0.17293024063110352,0.8336787223815918,0.2912980616092682,0.09403528273105621,0.37622642517089844,-0.024706542491912842,0.20905540883541107,-0.3449198305606842,-1.0076687335968018,0.8487155437469482,0.3097292482852936,0.1633419245481491,0.6717831492424011,0.9766265153884888,-0.0158772524446249,0.3194558322429657,-0.22910712659358978,0.0881718322634697,-0.6088281869888306,-0.6333837509155273,0.14066016674041748,0.9028537273406982,0.06347177922725677,0.3119310438632965,-0.03865800052881241,0.6233832240104675,0.3991129398345947,0.2137698531150818,0.4277173578739166,-0.3956102430820465,0.72187739610672,-0.14384499192237854,0.20941518247127533,-0.42055317759513855,0.2286067008972168,-0.0806904062628746,-0.1640002727508545,0.259754478931427,-0.15919165313243866,0.9240609407424927,0.18649625778198242,0.4640589654445648,0.7481551170349121,0.18639053404331207,0.8075456023216248,0.7871329188346863,0.0810246467590332,-0.11065785586833954,-0.5122656226158142
C=C,0.10706040263175964,-0.30176353454589844,0.2774859070777893,-0.02321736514568329,0.050482381135225296,0.808886706829071,0.0800919458270073,0.2019069641828537,0.1093599945306778,0.49410974979400635,-0.2720079720020294,-0.37818270921707153,-0.01899866759777069,0.06567484140396118,0.16816958785057068,-0.07946917414665222,1.091861367225647,-0.26657402515411377,-0.05683618783950806,-0.06442713737487793,0.06669767200946808,0.2193208634853363,-0.2801448702812195,0.30560916662216187,-0.7204909920692444,-0.3202100396156311,0.10854171216487885,-0.06272779405117035,-0.6966962814331055,0.017655596137046814,0.4590507447719574,0.8771629333496094,-0.19986644387245178,-0.245928093791008,0.11576095223426819,-0.14756453037261963,-0.10409615188837051,-0.29699262976646423,0.4586870074272156,0.10312417894601822,-0.6064729690551758,-0.09979793429374695,0.39839625358581543,0.45253342390060425,0.0946853831410408,-0.0223439559340477,0.52462238073349,0.2176448404788971,-0.00451892614364624,-0.24993038177490234,0.29254984855651855,0.46647408604621887,0.2540384829044342,-0.40230610966682434,0.06273821741342545,-0.26034918427467346,-0.25761622190475464,0.14881138503551483,0.6989367008209229,-0.09422995150089264,0.057527393102645874,-0.25114014744758606,-0.0384645015001297,0.07919728755950928,0.8255449533462524,-0.14170965552330017,0.3431946933269501,0.1480451077222824,-0.24626222252845764,-0.5487447381019592,-0.13869549334049225,-0.004068441689014435,0.11145488917827606,0.3178631067276001,0.4578671455383301,0.22082199156284332,0.27895933389663696,0.5011977553367615,0.24916839599609375,0.5674088001251221,-0.26313644647598267,-0.02355663850903511,0.02733568102121353,0.852621853351593,-0.9758423566818237,0.2796468436717987,-0.512878954410553,0.19529619812965393,0.23724018037319183,0.037865445017814636,0.5672318935394287,0.4275556802749634,0.23331382870674133,0.36089828610420227,0.3720075488090515,0.6529783010482788,0.2365075945854187,-0.16186492145061493,-0.15816310048103333,-0.23587697744369507
C1=CCCC=C1,0.14440546929836273,0.5025590062141418,-0.8653473854064941,0.3754240870475769,-0.36729952692985535,0.0825982466340065,0.11928138136863708,0.33620667457580566,-0.045166049152612686,0.03547309711575508,0.2573310434818268,-0.3029462695121765,-0.35595911741256714,0.35126885771751404,0.5212903022766113,-0.1400957852602005,0.31654366850852966,-0.23323509097099304,0.3341892659664154,0.30486929416656494,0.4649094045162201,-0.3723018169403076,-0.2883778214454651,-0.16183799505233765,-0.9693853259086609,0.6456098556518555,-0.011087181977927685,0.043030258268117905,-0.6375072598457336,-0.27118930220603943,0.6089646816253662,0.6225813031196594,-0.11488982290029526,0.7703256011009216,0.17202413082122803,-0.023817365989089012,-0.07264292240142822,-0.30338144302368164,0.5750829577445984,0.1635015457868576,-0.3073781132698059,0.23276209831237793,0.8066594004631042,0.7637884020805359,-0.7333368062973022,0.03899279981851578,0.12046615034341812,-0.13753528892993927,0.7154005765914917,-0.398750364780426,-0.5280455946922302,-0.025255005806684494,-0.0835915133357048,-0.10812360048294067,-0.30208054184913635,0.08947853744029999,0.15859682857990265,-0.004072700161486864,-0.59587562084198,-0.5932393074035645,0.2935636639595032,-0.4776865541934967,0.007750328630208969,-0.5356739163398743,0.5381916165351868,0.42632681131362915,0.8006696105003357,-0.21968868374824524,-0.4607108533382416,-0.6499862670898438,-0.04094191640615463,-0.4757867455482483,-0.20450003445148468,-0.19105733931064606,0.32432544231414795,0.5685734748840332,-0.4189531207084656,-0.4952948987483978,-0.06313565373420715,0.3429858386516571,0.15432040393352509,0.2933116555213928,-0.33065614104270935,0.8614224195480347,0.410492479801178,-0.3318471908569336,-0.15882982313632965,0.02124946005642414,-0.17160752415657043,0.2594301700592041,0.8489177227020264,0.3592836260795593,0.5086567997932434,-0.0006321871769614518,-0.05644569918513298,-0.014634858816862106,0.09899336844682693,-0.3251737356185913,0.32969120144844055,-0.37993645668029785
C1=CNCN=C1,-0.45103511214256287,0.6023545861244202,-1.3319393396377563,-0.38972339034080505,-0.3883352279663086,-0.07158312946557999,0.9886872172355652,-0.5385121703147888,0.03255325183272362,0.5085034370422363,-0.19436147809028625,0.45527738332748413,0.0821637436747551,-0.11036121100187302,0.6993398666381836,0.6528521180152893,-0.050212081521749496,0.30127811431884766,0.6620995402336121,0.10890644788742065,-0.48661449551582336,0.40112483501434326,-0.4368883967399597,0.3277367055416107,-0.9314324855804443,0.3401603698730469,0.38595494627952576,-0.13538503646850586,-0.141189306974411,-0.9562222361564636,0.49248021841049194,0.5715479850769043,-0.3198982775211334,0.8594075441360474,-0.37374159693717957,-0.605970561504364,0.8245900869369507,0.9312320351600647,1.152876615524292,-0.6002180576324463,0.5246705412864685,0.7261636853218079,0.980025589466095,0.8058512806892395,-0.28923556208610535,0.36970019340515137,0.038150154054164886,-0.4545612931251526,0.11539071798324585,0.10985370725393295,0.024115875363349915,-0.2018594592809677,0.44084057211875916,0.3344731330871582,0.27305731177330017,0.6776028871536255,-0.11174682527780533,0.5516011714935303,-0.196579247713089,-0.5728784203529358,0.420742928981781,-0.19075961410999298,0.480635404586792,0.9192841649055481,-0.01771869696676731,-0.08949967473745346,-0.006639215163886547,-0.32365643978118896,-0.09194926917552948,-0.5811284780502319,-0.2589154839515686,0.888689398765564,0.9004695415496826,0.16007475554943085,0.40149736404418945,0.14275085926055908,0.11049603670835495,1.365005612373352,-0.38774752616882324,0.5209763050079346,-0.26133736968040466,-0.014230446889996529,-0.08752518892288208,0.3000166714191437,0.1280289888381958,0.18748612701892853,-0.7847493290901184,0.09753233939409256,0.36222267150878906,-0.031202077865600586,0.5572015047073364,0.8320808410644531,0.126982644200325,0.9100985527038574,-0.07478493452072144,0.5049571394920349,0.7268637418746948,0.02088998816907406,0.2782982587814331,-0.3274998664855957
C1=CCNCC1,0.13076375424861908,-0.1464548259973526,-0.48199835419654846,0.05070149898529053,-0.17649924755096436,-0.22009585797786713,0.4946758449077606,0.03223685547709465,-0.6979788541793823,0.26761099696159363,0.33262884616851807,-0.6235828995704651,0.6776117086410522,0.6442687511444092,0.41146397590637207,0.2395637333393097,0.5006563067436218,-0.2938804030418396,0.48676109313964844,-0.10109829902648926,-0.21725168824195862,-0.24906335771083832,-0.15976227819919586,-0.4599052965641022,-0.5261858105659485,0.3030345141887665,0.48488208651542664,0.33186957240104675,-0.8445930480957031,-0.8688884973526001,0.746707558631897,0.08674900978803635,-0.3053865432739258,0.8074478507041931,0.5273877382278442,-0.4084346890449524,1.0446546077728271,0.43127599358558655,0.3639083802700043,0.14172734320163727,0.44141989946365356,-0.46868807077407837,0.7069732546806335,0.9992358088493347,0.27233263850212097,0.4492301940917969,-0.15979360044002533,-0.26977384090423584,0.07949411123991013,0.013178616762161255,-0.13256953656673431,-0.5390490889549255,0.825412392616272,-0.030005494132637978,-0.3078392446041107,0.1616848260164261,0.5306329727172852,0.12686219811439514,-0.18763728439807892,-0.553004264831543,0.5841490030288696,0.22009821236133575,0.08514779806137085,0.19234780967235565,0.4229792654514313,-0.1545427441596985,0.4247468113899231,-0.1275690197944641,0.8537458777427673,-0.23279650509357452,-0.7550053596496582,-0.32810506224632263,0.24120211601257324,0.026072179898619652,0.28118181228637695,0.14142709970474243,-0.22462153434753418,0.13860006630420685,-0.47013187408447266,-0.13636600971221924,-0.39859628677368164,0.1775103360414505,-0.5896661877632141,0.5014773011207581,0.15045177936553955,-0.15499119460582733,-0.8190214037895203,-0.09611441940069199,0.0011796951293945312,-0.11376044899225235,0.5523335933685303,0.47699210047721863,0.1355751007795334,0.22137904167175293,0.03990183770656586,0.46237918734550476,-0.11123360693454742,-0.45440909266471863,0.36195477843284607,-0.005634655244648457
C1CCOCC1,0.2731769382953644,0.3191012442111969,-0.4058484435081482,0.5525707602500916,-0.294140100479126,0.5514587163925171,0.23999445140361786,0.13746297359466553,-0.1882844865322113,0.39892905950546265,-0.18589456379413605,-0.28471338748931885,-0.0742657408118248,-0.05499962344765663,0.6563953161239624,-0.001111942925490439,-0.0057246750220656395,-0.18995250761508942,0.39350393414497375,-0.15651194751262665,0.06233333423733711,0.15646183490753174,-0.31529444456100464,-0.2913290560245514,-0.7559476494789124,0.08532661944627762,0.32088080048561096,-0.14477868378162384,-0.353876531124115,-0.7149643301963806,0.8392252326011658,0.7050002813339233,-0.4529162645339966,0.4621489942073822,0.22455453872680664,-0.07423797249794006,0.7440422177314758,0.7370554804801941,0.2425331324338913,-0.02754979208111763,-0.043841402977705,-0.08193260431289673,0.6698135137557983,0.7062029242515564,-0.1937609761953354,0.40156280994415283,0.39518269896507263,-0.05490121990442276,-0.17206592857837677,-0.4235883951187134,0.09656229615211487,-0.19473153352737427,0.005440772511065006,0.18656226992607117,-0.21453972160816193,0.1583128273487091,-0.12324436753988266,-0.09883385896682739,-0.3365025520324707,-0.4180896580219269,-0.1432884782552719,-0.14718645811080933,-0.12653549015522003,-0.46821895241737366,0.6516386866569519,-0.03249209374189377,0.429208368062973,-0.008940783329308033,0.5069388151168823,-0.4155343770980835,-0.3257402777671814,0.0935530960559845,0.05510951951146126,0.5312271118164062,0.45473384857177734,0.47323253750801086,0.2528764307498932,0.4375756084918976,-0.515404999256134,0.4223701059818268,-0.15428994596004486,0.19499924778938293,-0.1391752064228058,0.39404311776161194,-0.07298990339040756,0.14748258888721466,-0.35783514380455017,0.016776088625192642,0.0486736036837101,0.08628116548061371,0.6087400317192078,0.6359609961509705,0.11614073812961578,-0.09961485117673874,0.03902224451303482,-0.059730879962444305,0.2975076735019684,-0.25576210021972656,0.08861291408538818,-0.15435998141765594
C1=C[NH]N=N1,0.20419950783252716,0.4995787739753723,0.010593716986477375,0.8254263401031494,-0.22524626553058624,0.27450865507125854,0.6676910519599915,0.1772560030221939,0.32304197549819946,0.2210651934146881,-0.43109938502311707,-0.043010588735342026,0.13077083230018616,-0.40794700384140015,0.47027358412742615,0.5936481356620789,0.256206750869751,-0.18877510726451874,0.8326497077941895,-0.1508493274450302,0.43899375200271606,0.4196162819862366,0.03701987490057945,-0.41484397649765015,-0.8211007118225098,-0.1729542762041092,0.24586738646030426,-0.2512025535106659,-0.7337686419487,-0.7646991610527039,1.0123770236968994,0.39306503534317017,-0.439095139503479,0.708104133605957,0.37196680903434753,-0.15756270289421082,0.29808181524276733,0.5146380662918091,0.14020369946956635,-0.0021515614353120327,-0.4607406258583069,-0.02237449772655964,0.5647458434104919,0.4575824439525604,-0.04765240103006363,0.4671999216079712,-0.05567776784300804,0.20642788708209991,0.4221111238002777,-0.6358250379562378,-0.25418105721473694,-0.635501503944397,0.6673064231872559,0.4811468720436096,0.2909782826900482,0.5251985192298889,0.21147596836090088,0.07917550206184387,-0.12273113429546356,-0.08784723281860352,0.20771124958992004,-0.8350018858909607,-0.011897547170519829,0.33047667145729065,0.8438279628753662,-0.380811482667923,0.49802348017692566,-0.14350123703479767,0.44752785563468933,-0.35001340508461,-0.5231278538703918,0.6423417925834656,0.955627977848053,0.12100160866975784,0.08684366196393967,0.4805313050746918,0.4214397668838501,0.3716956377029419,-0.5711845755577087,0.1100970208644867,-0.1706726849079132,0.09403276443481445,-0.5842187404632568,0.1029791384935379,-0.32734423875808716,1.023658037185669,0.39129912853240967,-0.5743849277496338,0.44994425773620605,-0.06763359159231186,0.9828972220420837,0.22850467264652252,-0.005920235998928547,0.5309034585952759,-0.3590971529483795,0.36811819672584534,0.5124216079711914,-0.18931478261947632,0.5208638310432434,-0.3438105583190918
C1=NN=CS1,-0.06652199476957321,-0.014029991813004017,0.01350944023579359,0.6853370666503906,0.45360836386680603,-0.4027213156223297,0.5450484156608582,-0.22610417008399963,0.17284941673278809,0.007514488883316517,0.0724269449710846,-0.13278581202030182,0.5619130730628967,-0.4278538227081299,0.8137977719306946,0.42546138167381287,0.36834508180618286,0.23261979222297668,0.4782045781612396,-0.2365865260362625,0.3175264298915863,0.20145078003406525,-0.7241372466087341,0.003584202378988266,-0.2291538268327713,-0.06937909871339798,0.6997013688087463,-0.6869921088218689,-0.6730837225914001,-0.10591304302215576,0.8551055192947388,0.5186555981636047,-0.4281061291694641,0.3983207046985626,-0.08701767772436142,-0.17708587646484375,0.7732425928115845,0.2901047170162201,0.4495408236980438,-0.1705598682165146,-0.11038333177566528,0.23768317699432373,0.42658543586730957,-0.0873083621263504,-0.25330257415771484,0.26483601331710815,0.30612704157829285,-0.03130007162690163,0.4767000377178192,0.08479426801204681,0.08824848383665085,-0.3337174952030182,0.28512057662010193,-0.21592330932617188,0.22489647567272186,0.13764460384845734,-0.6537593007087708,0.05483249947428703,-0.38178905844688416,-0.28647395968437195,-0.17900529503822327,-0.7595926523208618,0.8551201820373535,0.20786769688129425,0.5568259358406067,-0.13500568270683289,0.20774972438812256,-0.17252658307552338,-0.1628514528274536,-0.5141041874885559,-0.5644527673721313,0.3010823428630829,0.2836611270904541,0.36185532808303833,0.6129299998283386,0.1816588193178177,0.6353704333305359,0.4106162190437317,-0.3062334656715393,0.2394781857728958,0.023205002769827843,0.1952708512544632,0.41248947381973267,-0.012648792937397957,-0.0685058981180191,0.6436929106712341,0.079352967441082,-0.09107609838247299,0.43009695410728455,0.3619873821735382,0.3420124351978302,0.24417726695537567,0.051275331526994705,0.6535609364509583,-0.08288498222827911,0.5646308064460754,0.22255074977874756,-0.04485192522406578,0.49591389298439026,-0.11938271671533585
